tree
version=v4
num_class=1
num_tree_per_iteration=1
label_index=0
max_feature_idx=45
objective=binary sigmoid:1
feature_names=Column_0 Column_1 Column_2 Column_3 Column_4 Column_5 Column_6 Column_7 Column_8 Column_9 Column_10 Column_11 Column_12 Column_13 Column_14 Column_15 Column_16 Column_17 Column_18 Column_19 Column_20 Column_21 Column_22 Column_23 Column_24 Column_25 Column_26 Column_27 Column_28 Column_29 Column_30 Column_31 Column_32 Column_33 Column_34 Column_35 Column_36 Column_37 Column_38 Column_39 Column_40 Column_41 Column_42 Column_43 Column_44 Column_45
feature_infos=[0:0.98440000000000005] [0:0.97929999999999995] [0.32340000000000002:0.77519379844961234] [0.23080000000000001:0.68965517241379315] [-0.72410192147034247:0.5472999999999999] [-0.54530087897227852:0.70802919708029188] [0.0047715905432422932:4.188567637995825] [0.69899999999999995:1.105] [1:11] [232:6866] [-45:35] [-0.97222222222222221:0.97826086956521741] [0:1] [-6.5:4.5] [-3:5] [0:61] [0:26] [-1.5:4.5] [0:51.5] [-4.5:45] [0:51] [0:61] [0:12.5] [0:14] [0:14] [0:1] [0:1] [-13.088888888888889:13.047222222222222] [-1:1] [0:1] [0:0.90000000000000002] [0:0.875] [0:0.8571428571428571] [0:1] [0:1] [-2.2999999999999998:2] [-2.7999999999999998:1.8999999999999999] [-0.69999999999999996:0.75] [0:1597.9643840992994] [0:1582.4026016138637] [-123.07786163919332:193.90005593172214] [0:0.75327916953931506] [0:1] [0:2] [0:0.81770833333333337] none
tree_sizes=1469 1386 1593 1474 1497 1604 1609 1481 1692 1607 1500 1607 1494 1596 1494 1808 1705 1603 1596 1689 1380 1563 1590 1694 1375 1788 1894 1710 1670 1812 1806 1809 1699 1878 1906 1602 1497 1467 1691 1479 1796 1892 1715 1662 1671 1482 1711 1608 1718 1718

Tree=0
num_leaves=13
num_cat=0
split_feature=11 11 15 39 35 2 23 44 11 39 24 3
split_gain=94.3914 35.339 8.06872 4.43096 9.05973 5.08322 4.30413 3.43507 2.79327 1.40503 1.25922 0.888737
threshold=0.27760000000000001 -0.25431763236763233 4.6250000000000009 1484.52862221429 0.5277777777777779 0.5968500000000001 1.8684027777777781 0.78385416666666685 -0.042066312558115763 1519.7009770711088 1.8844386574074077 0.43855000000000005
decision_type=2 2 2 2 2 2 2 2 2 2 2 2
left_child=1 7 3 5 10 6 8 11 -3 -2 -5 -1
right_child=9 2 -4 4 -6 -7 -8 -9 -10 -11 -12 -13
leaf_value=0.016765210663545645 0.17180137790445849 0.10920208060098793 0.012717743420332453 0.16823683015016494 0.04190044626437963 0.11168936289416756 -0.0047017997059067562 0.041900446264379623 0.036022891924426211 0.1323996379562557 0.1201871997308766 -0.026586591571490764
leaf_weight=2.4963665008544984 17.973838806152347 2.4963665008544949 3.9941864013671866 3.2452764511108381 2.9956398010253906 4.2438230514526367 2.7460031509399414 2.9956398010253897 2.4963665008544949 3.9941864013671866 3.9941864013671875 13.979652404785154
leaf_count=10 72 10 16 13 12 17 11 12 10 16 16 56
internal_value=0.0801462 0.0392741 0.0770406 0.0890613 0.113141 0.0687727 0.0444484 -0.0115652 0.0735222 0.165151 0.143367 -0.0207185
internal_weight=67.6515 45.6835 26.2118 22.2177 10.2351 11.9826 7.73874 19.4717 4.99273 21.968 7.23946 16.476
internal_count=271 183 105 89 41 48 31 78 20 88 29 66
is_linear=0
shrinkage=1


Tree=1
num_leaves=12
num_cat=0
split_feature=11 11 15 35 39 2 3 44 4 18 39
split_gain=85.6525 32.7845 7.42081 5.11373 9.08872 5.17271 4.41471 3.09578 2.42064 1.614 0.945114
threshold=0.3151000000000001 -0.25431763236763233 4.6250000000000009 0.5277777777777779 1486.1370195949751 0.5968500000000001 0.51961666666666673 0.76302083333333337 0.023700000000000002 6.7500000000000009 1524.9187420707149
decision_type=2 2 2 2 2 2 2 2 2 2 2
left_child=1 7 3 4 5 6 -3 -1 -6 -5 -2
right_child=10 2 -4 9 8 -7 -8 -9 -10 -11 -12
leaf_value=-0.094713009229823591 0.091460564039963083 -0.078028337922353849 -0.060378844308064686 -0.0005092498901562016 0.029245920172416402 0.045471412321837441 0.0013014559445127755 -0.043456461953111231 0.090037961014903772 -0.058936116248536001 0.049621633034357016
leaf_weight=14.997589364647867 18.616039752960209 2.7490031868219464 3.9998383522033683 2.4977032393217078 3.233991563320159 3.2398855537176132 4.2428958564996719 4.4984451681375495 4.4750382006168365 2.4966122210025787 2.4890759587287894
leaf_count=60 75 11 16 10 13 13 17 18 18 10 10
internal_value=0.00367014 -0.0342142 0.00139636 0.0126022 0.0252013 -0.00530224 -0.029844 -0.0834235 0.0658767 -0.0312814 0.0870193
internal_weight=67.5361 46.431 26.935 22.9351 17.9408 10.2318 6.9919 19.496 7.70903 4.99432 21.1051
internal_count=271 186 108 92 72 41 28 78 31 20 85
is_linear=0
shrinkage=0.05


Tree=2
num_leaves=14
num_cat=0
split_feature=11 11 15 39 32 7 2 9 2 11 29 39 38
split_gain=77.9901 29.7004 6.71979 3.6479 4.72252 4.53193 7.8791 4.02592 2.63367 2.46642 2.13179 0.866384 0.363176
threshold=0.3151000000000001 -0.25431763236763233 4.6250000000000009 1484.52862221429 0.54195804195804198 1.0609500000000003 0.5968500000000001 354.50000000000006 0.5263500000000001 -0.36394999999999988 0.41428571428571431 1524.9187420707149 1506.5176791539895
decision_type=2 2 2 2 2 2 2 2 2 2 2 2 2
left_child=1 9 3 5 12 -3 8 -6 -7 -1 -11 -2 -5
right_child=11 2 -4 4 7 6 -8 -9 -10 10 -12 -13 -14
leaf_value=-0.094001788167804065 0.087783034078516453 -0.046173969087622828 -0.057463429640205524 0.046293164459603062 -0.031647368166552559 0.015675985280891976 0.087858537450618654 0.050141696361104396 -0.054691287780958719 -0.022277237758124003 -0.079760083561386128 0.047417867915203304 0.086065329198309282
leaf_weight=12.214390665292742 18.434720188379291 4.4871124476194435 3.9977293014526358 2.470187842845915 3.4818246960639954 2.4963267147541046 2.4867561161518097 2.484619677066803 2.4971412122249603 3.4913195669651023 3.7425127476453781 2.4794064462184897 2.4756533205509186
leaf_count=49 75 18 16 10 14 10 10 10 10 14 15 10 10
internal_value=0.00350219 -0.0326007 0.00131782 0.0120115 0.0328632 -0.00670219 0.0166126 0.00185313 -0.0189146 -0.0794987 -0.0533805 0.083484 0.0685033
internal_weight=67.2397 46.3256 26.8774 22.8796 10.9123 11.9673 7.48022 5.96644 4.99347 19.4482 7.23383 20.9141 4.94584
internal_count=271 186 108 92 44 48 30 24 20 78 29 85 20
is_linear=0
shrinkage=0.05


Tree=3
num_leaves=13
num_cat=0
split_feature=11 11 15 35 39 2 3 11 29 29 7 39
split_gain=71.2139 27.0614 6.10114 4.56469 7.77606 4.30912 3.91036 2.25445 1.93772 1.61199 1.25989 0.807214
threshold=0.3151000000000001 -0.25431763236763233 4.6250000000000009 0.5277777777777779 1486.1370195949751 0.5968500000000001 0.51961666666666673 -0.36394999999999988 0.41428571428571431 0.70714285714285718 1.0626500000000003 1524.9187420707149
decision_type=2 2 2 2 2 2 2 2 2 2 2 2
left_child=1 7 3 4 5 6 -3 -1 -9 -5 -6 -2
right_child=11 2 -4 9 10 -7 -8 8 -10 -11 -12 -13
leaf_value=-0.089975638563172464 0.084552843018856419 -0.07254471808388277 -0.054780173624030738 -0.057535614430690885 0.076016211213862983 0.041819056610835063 0.0021205355501433712 -0.021217155489025002 -0.076213481871090186 0 0.027144692040486917 0.045355588915478459
leaf_weight=12.129367575049402 18.191874995827678 2.741717219352731 3.9889690876007071 2.495422735810279 5.1513106077909461 3.2164390087127686 4.2445645332336426 3.4875611662864676 3.7258750349283218 2.4966852962970734 2.4726953059434891 2.4673850834369651
leaf_count=49 75 11 16 10 21 13 17 14 15 10 10 10
internal_value=0.00335369 -0.0311062 0.00127718 0.011491 0.0234717 -0.00468308 -0.027086 -0.0760202 -0.0509611 -0.0299308 0.0613697 0.0803533
internal_weight=66.8099 46.1506 26.8078 22.8188 17.8267 10.2027 6.98628 19.3428 7.21344 4.99211 7.62401 20.6593
internal_count=271 186 108 92 72 41 28 78 29 20 31 85
is_linear=0
shrinkage=0.05


Tree=4
num_leaves=13
num_cat=0
split_feature=11 11 35 11 20 2 2 44 0 33 0 32
split_gain=65.2454 21.0497 5.03986 4.23455 3.89618 4.63307 5.64375 2.90674 2.5531 1.35257 0.82777 0.519257
threshold=0.24350000000000005 -0.25431763236763233 0.5277777777777779 0.3151000000000001 2.2750000000000004 0.5968500000000001 0.5263500000000001 0.78385416666666685 0.53295000000000015 0.77500000000000013 0.55280000000000007 0.63961038961038974
decision_type=2 2 2 2 2 2 2 2 2 2 2 2
left_child=1 7 4 -2 5 6 8 10 -3 -4 -1 -5
right_child=3 2 9 11 -6 -7 -8 -9 -10 -11 -12 -13
leaf_value=-0.086930674080603537 0.018641278426749435 -0.01340944019318646 -0.071786115780935356 0.081677718434553723 0.052339467372285446 0.051867816352503628 -0.066920293881576429 -0.024076310845309819 0.048575616419286489 -0.016031819252363671 -0.046551814254255586 0.049545933563848711
leaf_weight=13.726559028029447 3.9479106664657619 4.4744571745395714 2.4933339506387702 17.420617222785953 4.1687808185815802 2.9518441408872595 3.7104780524969101 2.9833401292562476 2.4588189423084259 2.4932271242141724 2.4717223197221747 2.9304048120975486
leaf_count=56 16 18 10 73 17 12 15 12 10 10 10 12
internal_value=0.00320626 -0.0344726 -0.00166577 0.0683082 0.0106175 -0.00209925 -0.0178749 -0.0729143 0.00824016 -0.0457558 -0.0813994 0.0775603
internal_weight=66.2315 41.9326 22.7509 24.2989 17.7644 13.5956 10.6438 19.1816 6.93328 4.98656 16.1983 20.351
internal_count=271 170 92 101 72 55 43 78 28 20 66 85
is_linear=0
shrinkage=0.05


Tree=5
num_leaves=14
num_cat=0
split_feature=11 11 11 37 35 7 23 32 18 7 6 22 37
split_gain=67.2063 15.7664 4.23614 4.68953 4.2008 4.31614 4.9966 4.46505 3.27219 5.29214 0.85179 0.954063 0.755624
threshold=0.24350000000000005 -0.23714999999999994 0.39500000000000007 -1.0000000180025095e-35 1.0500000000000003 1.0583500000000001 2.9047511574074081 0.60555555555555574 6.2500000000000009 1.0625500000000001 0.054992760524200386 7.7500000000000009 0.15972222222222224
decision_type=2 2 2 2 2 2 2 2 2 2 2 2 2
left_child=1 10 3 -2 5 -3 7 8 -7 -10 -1 -12 -5
right_child=2 4 -4 12 -6 6 -8 -9 9 -11 11 -13 -14
leaf_value=-0.046401629261223522 0.081931478685461634 -0.050308691958416175 0.079792450574987975 -0.017425087254643468 -0.071687249098377273 0.048703291128012305 0.071369584919766985 -0.055469860746299782 -0.041328100993728661 0.042750604599289609 -0.085110575990363355 -0.042895347878356908 0.021336102412273031
leaf_weight=3.9036909490823772 2.8887204080820084 3.9585342407226625 16.227870523929596 2.391607120633128 2.4933316707611075 3.6741358488798159 2.46700495481491 3.2038584500551215 4.642326220870018 2.9631312489509583 12.878400444984434 2.4428069293498984 2.3985638022422791
leaf_count=16 12 16 69 10 10 15 10 13 19 12 53 10 10
internal_value=-0.0017742 -0.0394556 0.0650902 0.0327506 -0.0115467 -0.00383007 0.0069625 -0.00407944 0.0104373 -0.00779196 -0.0729345 -0.0790258 0.00100061
internal_weight=66.534 42.6272 23.9068 7.67889 23.4023 20.909 16.9505 14.4835 11.2796 7.60546 19.2249 15.3212 4.79017
internal_count=275 174 101 32 95 85 69 59 46 31 79 63 20
is_linear=0
shrinkage=0.05


Tree=6
num_leaves=14
num_cat=0
split_feature=11 11 11 37 24 32 7 18 24 23 6 22 37
split_gain=61.556 14.5833 4.02239 4.33969 3.62457 7.00252 6.21653 3.78333 3.71837 3.51369 0.795524 0.89071 0.685596
threshold=0.24350000000000005 -0.23714999999999994 0.39500000000000007 -1.0000000180025095e-35 1.9920949074074075 0.59411764705882364 1.0595500000000004 7.2500000000000009 2.1192824074074079 1.8684027777777781 0.054992760524200386 7.7500000000000009 0.15972222222222224
decision_type=2 2 2 2 2 2 2 2 2 2 2 2 2
left_child=1 10 3 -2 5 6 -3 9 -6 -8 -1 -12 -5
right_child=2 4 -4 12 8 -7 7 -9 -10 -11 11 -13 -14
leaf_value=-0.044465766617827446 0.079147454281305651 -0.064996556921191578 0.077448235734957363 -0.016535389447517559 0.067990052608757956 -0.091546973692847408 0.056591729269660024 -0.036055477438024015 -0.0093644756436011539 -0.0098490376864816109 -0.082176877580616911 -0.041100677135387738 0.020384064003137067
leaf_weight=3.8750441074371365 2.8454170972108841 3.4794470518827501 15.894542679190634 2.3994472920894649 2.4535981565713874 2.9685773551464072 4.6585761159658414 2.9388409852981567 3.6876510828733444 3.1837125271558762 12.679782599210737 2.4267747700214377 2.3899528831243515
leaf_count=16 12 14 69 10 10 12 19 12 15 13 53 10 10
internal_value=-0.00170569 -0.0377801 0.0629005 0.031358 -0.010994 -0.0228622 -0.00767824 0.0107882 0.0213339 0.029205 -0.0702671 -0.0762207 0.000905229
internal_weight=65.8814 42.352 23.5294 7.63482 23.3704 17.2292 14.2606 10.7811 6.14125 7.84229 18.9816 15.1066 4.7894
internal_count=275 174 101 32 95 70 58 44 25 32 79 63 20
is_linear=0
shrinkage=0.05


Tree=7
num_leaves=13
num_cat=0
split_feature=11 11 11 35 16 24 38 30 30 2 6 22
split_gain=56.5094 13.5063 3.83636 3.71548 4.1011 4.43244 2.97387 2.87414 3.61486 1.86555 0.751584 0.841442
threshold=0.24350000000000005 -0.23714999999999994 0.39500000000000007 1.0500000000000003 2.2250000000000005 1.9899074074074077 1502.7791775455978 0.58571428571428574 0.29285714285714287 0.5968500000000001 0.054992760524200386 7.7500000000000009
decision_type=2 2 2 2 2 2 2 2 2 2 2 2
left_child=1 10 6 4 9 7 -2 8 -6 -3 -1 -12
right_child=2 3 -4 -5 5 -7 -8 -9 -10 -11 11 -13
leaf_value=-0.042639475052413917 0.063231105566933177 -0.051522822489238257 0.075341392871682913 -0.067293335909186416 -0.031996982243039374 0.053990973322059724 0 -0.049141419141144289 0.045465461294433435 -0.00037503990844761176 -0.07956656181609674 -0.039403240610185616
leaf_weight=3.8440418690443066 3.4955489337444332 4.675021752715117 15.533980742096899 2.4740061759948722 2.4777075499296171 4.4078646004199973 4.0882191956043243 2.6780575066804886 3.4197094738483429 3.1663040220737457 12.450034141540526 2.4095012396574012
leaf_count=16 15 19 69 10 10 18 17 11 14 13 53 10
internal_value=-0.0016535 -0.0362609 0.0608941 -0.0105155 -0.00324186 0.0137131 0.0300554 -0.00679748 0.0120963 -0.0317639 -0.0678391 -0.0736952
internal_weight=65.12 42.0022 23.1177 23.2987 20.8247 12.9833 7.58377 8.57547 5.89742 7.84133 18.7036 14.8595
internal_count=275 174 101 95 85 53 32 35 24 32 79 63
is_linear=0
shrinkage=0.05


Tree=8
num_leaves=15
num_cat=0
split_feature=4 5 40 15 1 23 18 24 23 20 7 21 38 24
split_gain=50.2303 9.00856 5.98281 4.85717 3.87858 2.99354 2.49124 2.48315 2.1325 2.0144 1.77313 1.04142 0.934674 2.276
threshold=0.15114999999999998 0.31320000000000003 32.232654072888643 3.0650000000000004 0.63770000000000004 2.9047511574074081 7.2500000000000009 1.8677662037037039 4.014733796296297 1.9600000000000002 1.0596500000000002 2.1700000000000004 1502.7791775455978 1.8965277777777778
decision_type=2 2 2 2 2 2 2 2 2 2 2 2 2 2
left_child=1 2 7 -4 8 11 -5 9 12 10 -1 -3 -2 -14
right_child=4 5 3 6 -6 -7 -8 -9 -10 -11 -12 -13 13 -15
leaf_value=-0.066934207502940393 0.075111089449320878 -0.079559511322676885 -0.025340618593552827 0.086033742408220815 -0.003596145688162872 -0.017612348221231918 0.01186007822191627 -0.065582824880263665 0.011567892120586532 0.012388122670272927 -0.004637230393901944 -0.044002052176155049 0.013880863460521918 0.073636744083110536
leaf_weight=2.4447272568941134 12.934526398777971 11.413430079817774 3.3988855779170972 2.4448437690734863 2.4394203871488562 3.5704539120197287 2.4293246120214462 4.3798065334558478 2.2745899111032477 3.1363948881626129 2.4406274110078812 3.9803777337074271 3.178839683532714 3.8310887962579727
leaf_count=10 58 49 14 10 10 15 10 18 10 13 10 17 14 17
internal_value=-0.00160524 -0.0365066 -0.0132633 0.0191419 0.0542182 -0.0613815 0.0510518 -0.0352609 0.0607773 -0.0174861 -0.0375321 -0.0710315 0.0660543 0.0478184
internal_weight=64.2973 39.6389 20.6746 8.27305 24.6585 18.9643 4.87417 12.4016 22.219 8.02175 4.88535 15.3938 19.9445 7.00993
internal_count=275 166 85 34 109 81 20 51 99 33 20 66 89 31
is_linear=0
shrinkage=0.05


Tree=9
num_leaves=14
num_cat=0
split_feature=11 11 11 37 24 32 7 18 16 23 20 2 22
split_gain=47.898 11.7767 3.74936 3.99666 3.58669 5.93297 4.28123 3.10491 2.99997 2.93017 2.42948 1.42315 0.915581
threshold=0.24350000000000005 -0.23014999999999999 0.39500000000000007 -1.0000000180025095e-35 1.9920949074074075 0.59411764705882364 1.0595500000000004 7.2500000000000009 2.5150000000000001 1.8684027777777781 2.1850000000000005 0.47186682464454982 7.7500000000000009
decision_type=2 2 2 2 2 2 2 2 2 2 2 2 2
left_child=1 11 3 -2 5 6 -3 9 -6 -8 -5 -1 -13
right_child=2 4 -4 10 8 -7 7 -9 -10 -11 -12 12 -14
leaf_value=-0.034197585442076059 0.073855395855798325 -0.056158944978176063 0.072047968475606836 -0.03599456022632086 -0.016057088613782789 -0.084275231858208122 0.052405339880344973 -0.033297631994574584 0.054522113250582253 -0.0090417051886940835 0.034321444121994275 -0.076751906711461121 -0.0354803088924514
leaf_weight=4.4108962118625668 2.7183483093976974 3.1953385174274507 14.828445628285406 2.3934361487627056 2.4342083930969229 2.917228251695632 4.3805230557918531 2.9293300360441208 3.3910136222839355 3.1651179492473602 2.3142699003219604 12.057602792978285 2.3593049049377433
leaf_count=19 12 13 69 10 10 12 18 12 14 13 10 53 10
internal_value=-0.0015425 -0.0335003 0.0573408 0.0267419 -0.00867434 -0.0206698 -0.00621999 0.00892783 0.0244118 0.0261955 -0.000392892 -0.0625872 -0.0706332
internal_weight=63.4951 41.2406 22.2545 7.42605 22.4128 16.5875 13.6703 10.475 5.82522 7.54564 4.70771 18.8278 14.4169
internal_count=275 174 101 32 92 68 56 43 24 31 20 82 63
is_linear=0
shrinkage=0.05


Tree=10
num_leaves=13
num_cat=0
split_feature=11 11 15 16 23 16 35 22 35 11 35 5
split_gain=47.5409 9.29796 3.34565 3.91187 4.67128 4.456 3.2781 2.40966 1.65171 3.71075 1.45761 0.876898
threshold=0.25900000000000006 -0.25431763236763233 4.6250000000000009 3.0650000000000004 1.0670949074074076 1.5150000000000003 0.61250000000000016 7.2500000000000009 0.61250000000000016 0.38695000000000007 1.0000000180025095e-35 0.29375000000000007
decision_type=2 2 2 2 2 2 2 2 2 2 2 2
left_child=1 7 3 5 -5 -3 10 11 -2 -10 -7 -1
right_child=8 2 -4 4 -6 6 -8 -9 9 -11 -12 -13
leaf_value=-0.033108013300663153 0.071716480531949775 -0.029860117744895911 -0.055858000781765338 0.016384157954145908 -0.066187130869766145 0.030100841719084837 -0.0067718599916994516 -0.017212481166777295 -0.0063882449132082481 0.068855123688535344 0.083875631865930778 -0.073697078275147848
leaf_weight=2.3198467344045666 14.201538264751436 4.143679812550551 3.3918220102787009 2.6707547903060904 4.1684474945068359 3.846440836787222 3.4248153269290924 3.2657945007085791 2.6033812314271918 3.802005797624588 2.4036302864551544 11.910954818129538
leaf_count=10 67 17 14 11 17 16 14 14 11 18 10 54
internal_value=-0.000162733 -0.0310278 -0.0105164 -0.00259765 -0.0334505 0.0124437 0.0311937 -0.0587172 0.061673 0.0378768 0.0525639 -0.0677065
internal_weight=62.1531 41.5462 24.0496 20.6578 6.8392 13.8186 9.67489 17.4966 20.6069 6.40539 6.25007 14.2308
internal_count=273 177 99 85 28 57 40 78 96 29 26 64
is_linear=0
shrinkage=0.05


Tree=11
num_leaves=14
num_cat=0
split_feature=11 11 16 27 16 11 7 23 11 40 7 44 34
split_gain=43.8779 8.71353 2.82355 3.97354 3.93132 3.50252 1.98058 1.85585 1.57225 2.66065 1.01578 0.775445 0.712725
threshold=0.25900000000000006 -0.25431763236763233 3.4250000000000003 1.0001909722222226 2.2250000000000005 -0.093699999999999964 1.0624500000000003 1.867951388888889 -0.38429999999999986 4.5508730430709656 1.0624500000000003 0.77864583333333337 0.35416666666666669
decision_type=2 2 2 2 2 2 2 2 2 2 2 2 2
left_child=1 8 3 4 7 -6 11 10 -1 -10 -3 -2 -11
right_child=6 2 -4 -5 5 -7 -8 -9 9 12 -12 -13 -14
leaf_value=-0.071482693592996624 0.070663790451994488 -0.038659064739835776 -0.048428306317633722 0.048358705512253901 -0.019522539794647509 0.042920969145297583 0.015961652707923688 -0.068744164425145887 0.0050111994475282228 -0.029461591773345164 0.0028915068927390522 0.031852999107904276 -0.073453356941117723
leaf_weight=9.4219685941934603 15.29679468274117 2.6735599786043256 3.9032228589057913 3.1398231089115134 4.37320420145989 4.3075342774391103 2.5940024852752677 2.9085474759340286 2.3015177547931662 2.2632277756929398 2.6742349416017532 2.2158997654914847 3.1676425784826279
leaf_count=44 74 11 16 13 18 18 12 12 10 10 11 10 14
internal_value=-0.000160907 -0.0298206 -0.0100236 -0.0021064 -0.0119841 0.0110295 0.0601169 -0.0366215 -0.0569865 -0.0379973 -0.0172917 0.0662456 -0.0568887
internal_weight=61.2412 41.1345 23.9801 20.0769 16.9371 8.68074 20.1067 8.25634 17.1544 7.73239 5.34779 17.5127 5.43087
internal_count=273 177 99 83 70 36 96 34 78 34 22 84 24
is_linear=0
shrinkage=0.05


Tree=12
num_leaves=13
num_cat=0
split_feature=11 11 15 16 23 16 1 21 22 7 5 35
split_gain=40.5204 8.17179 2.94935 3.38854 4.17982 3.83593 3.01375 2.45016 2.30108 1.89898 0.904937 0.735164
threshold=0.25900000000000006 -0.25431763236763233 4.6250000000000009 3.0650000000000004 1.0670949074074076 1.5150000000000003 0.77220000000000011 2.0950000000000002 7.2500000000000009 1.0624500000000003 0.29375000000000007 1.1055555555555558
decision_type=2 2 2 2 2 2 2 2 2 2 2 2
left_child=1 8 3 5 -5 -3 7 -7 10 11 -1 -2
right_child=9 2 -4 4 -6 6 -8 -9 -10 -11 -12 -13
leaf_value=-0.029471162384871876 0.069361738724956642 -0.027311363449900157 -0.052458133122801648 0.016239467381640595 -0.06182349433686804 0.01778922305003509 -0.014108656347366549 0.079863056807044072 -0.014656684944397216 0.01527309946796609 -0.070634246812695076 0.032331107344516885
leaf_weight=2.2578365504741695 14.681983262300497 4.1298100352287355 3.3440581113100043 2.6692066192626944 4.1692605465650558 3.8690286725759488 2.6520144939422607 3.0761031210422516 3.2117871940135947 2.5802662819623938 11.336044773459433 2.3646256178617469
leaf_count=10 73 17 14 11 17 16 11 13 14 12 54 11
internal_value=-0.000158982 -0.0286789 -0.00956826 -0.00213207 -0.0308382 0.0119267 0.0294346 0.0467357 -0.0553545 0.0585964 -0.0644276 0.0647351
internal_weight=60.342 40.7152 23.9095 20.5654 6.83847 13.727 9.59715 6.94513 16.8057 19.6269 13.5939 17.0466
internal_count=273 177 99 85 28 57 40 29 78 96 64 84
is_linear=0
shrinkage=0.05


Tree=13
num_leaves=14
num_cat=0
split_feature=11 11 3 3 27 20 2 7 40 7 7 23 44
split_gain=37.4548 7.76163 6.0561 5.87813 4.15203 2.60288 2.56124 2.28234 2.20881 3.74188 1.82523 1.59856 0.80143
threshold=0.25900000000000006 -0.38429999999999986 0.51961666666666673 0.46285000000000004 1.0001909722222226 1.9350000000000003 0.66167582781456968 1.0604500000000001 68.037339754071823 1.0619500000000002 1.0624500000000003 1.8825520833333336 0.77864583333333337
decision_type=2 2 2 2 2 2 2 2 2 2 2 2 2
left_child=1 -1 3 4 6 -4 8 -7 9 -3 12 -5 -2
right_child=10 2 5 11 -6 7 -8 -9 -10 -11 -12 -13 -14
leaf_value=-0.06865189415209666 0.067946420638195601 0.044067179426107932 -0.018498777140573464 -0.026442609929323679 0.0441987944809644 0.066476027602446933 -0.061680184441523955 0.00074814087130996971 -0.044907154498976781 -0.037688700140716083 0.014612490005139337 -0.075284040514238884 0.028561253801444503
leaf_weight=8.9264760017395002 14.419826924800878 3.3224924504756981 2.6943790763616544 3.0235377848148328 2.8640454560518256 3.2365544736385345 2.9212984144687644 2.4496698826551437 2.5235681086778641 2.2274411916732788 2.5669387727975836 6.0600076466798782 2.1570816338062277
leaf_count=44 74 14 11 13 12 14 12 10 11 10 12 26 10
internal_value=-0.000152459 -0.0276107 -0.0155743 -0.0289209 -0.00788479 0.0202834 -0.0221788 0.0395264 -0.00669427 0.0102835 0.0571614 -0.0600362 0.0633232
internal_weight=59.3933 40.2495 31.323 22.9424 13.8588 8.3806 10.9948 5.68622 8.0735 5.54993 19.1438 9.08355 16.5769
internal_count=273 177 133 98 59 35 47 24 35 24 96 39 84
is_linear=0
shrinkage=0.05


Tree=14
num_leaves=13
num_cat=0
split_feature=11 11 15 16 38 16 1 21 22 7 4 35
split_gain=34.7957 8.05231 3.44111 4.12026 4.18881 3.98128 3.09121 2.37713 2.19181 0.824665 0.803517 0.0135783
threshold=0.27760000000000001 -0.25431763236763233 4.6250000000000009 3.0650000000000004 1481.5074414117664 1.5150000000000003 0.77220000000000011 2.0950000000000002 7.2500000000000009 1.0624500000000003 0.012950503139244897 1.0500000000000003
decision_type=2 2 2 2 2 2 2 2 2 2 2 2
left_child=1 8 3 5 -5 -3 7 -7 10 11 -1 -2
right_child=9 2 -4 4 -6 6 -8 -9 -10 -11 -12 -13
leaf_value=-0.068028286058815751 0.066390052890147933 -0.02481459266162233 -0.052213652085817186 0.016982826811882689 -0.060479082830910802 0.019362859088431272 -0.012767733752504 0.077257761563845409 -0.012845759501733826 0.025757689009723053 -0.028447559733092726 0.042033071614994234
leaf_weight=10.730149865150453 12.962225571274759 4.1275010704994264 3.5312328934669486 2.6625526994466773 4.3860315829515457 4.0636799931526166 2.6252016574144363 3.6836204081773758 3.1639886498451224 2.3040363341569892 2.2271408885717383 1.992386370897292
leaf_count=54 69 17 15 11 18 17 11 16 14 11 10 10
internal_value=-0.000146369 -0.0251965 -0.00717871 0.000177439 -0.0306907 0.0156326 0.0322884 0.0481611 -0.0527015 0.0591678 -0.0618779 0.0637779
internal_weight=58.4597 41.2011 25.0798 21.5486 7.04858 14.5 10.3725 7.7473 16.1213 17.2586 12.9573 14.9546
internal_count=273 183 105 90 29 61 44 33 78 90 64 79
is_linear=0
shrinkage=0.05


Tree=15
num_leaves=16
num_cat=0
split_feature=5 6 21 21 1 6 38 7 27 2 7 1 1 20 33
split_gain=20.8556 5.52345 5.90673 5.23633 4.21055 3.22037 2.88579 2.84044 2.78777 2.60043 2.11589 0.514254 0.430819 0.193426 0.135119
threshold=0.1782849299446074 0.051428098142555854 2.1250000000000004 2.0950000000000002 0.89330000000000009 0.28646258993751267 1497.7734250982242 1.0628500000000003 0.12717013888888876 0.55852960893854753 1.0623500000000001 0.87345000000000017 0.56635000000000002 1.8800000000000001 0.77500000000000013
decision_type=2 2 2 2 2 2 2 2 2 2 2 2 2 2 2
left_child=1 2 6 10 8 7 -1 13 -5 12 11 -2 -4 -3 -15
right_child=3 5 9 4 -6 -7 -8 -9 -10 -11 -12 -13 -14 14 -16
leaf_value=0.003472627169883594 -0.076804341643143759 0.036502589961677566 -0.067173941190134465 0.043014503224425071 -0.048096272561205265 -0.0085202521639673023 0.063753519234543241 0.00099401692905965811 -0.018465857909367465 0.012445325918875802 -0.014222592387175166 -0.043986791943933568 -0.028565642919285945 0.068167589975737616 0.039526758809767026
leaf_weight=4.3242441117763502 6.4473124146461505 2.0910951346159043 2.3733180761337271 3.892123803496359 4.1025380194187164 2.2803942114114752 3.9138074070215225 2.4777592420577994 3.2123667150735855 2.3111771792173386 2.7679279297590247 3.2521689534187317 2.2896641790866852 10.435102999210354 1.9156992882490165
leaf_count=19 31 10 10 17 19 10 19 11 14 11 13 15 10 55 10
internal_value=0.00239357 0.0272932 0.00436653 -0.0335518 -0.00809876 0.0450822 0.0331322 0.052608 0.0146511 -0.0288935 -0.0557874 -0.0668722 -0.0502636 0.0610517 0.0644799
internal_weight=58.0867 34.4123 15.2122 23.6744 11.207 19.2001 8.23805 16.9197 7.10449 6.97416 12.4674 9.69948 4.66298 14.4419 12.3508
internal_count=274 165 69 109 50 96 38 86 31 31 59 46 20 75 65
is_linear=0
shrinkage=0.05


Tree=16
num_leaves=15
num_cat=0
split_feature=4 11 11 3 7 3 23 20 37 16 44 39 11 36
split_gain=29.8439 6.91533 3.95322 3.55433 3.5453 3.44177 4.06608 3.43603 4.75393 3.33345 1.83553 1.77042 0.836719 0.192379
threshold=0.22695000000000007 -0.38429999999999986 0.3151000000000001 0.51961666666666673 1.0588500000000003 0.44646428571428576 1.8825520833333336 2.1550000000000007 0.15972222222222224 2.0750000000000006 0.74739583333333337 1530.3043009617074 -0.047924043715846958 -1.0499999999999998
decision_type=2 2 2 2 2 2 2 2 2 2 2 2 2 2
left_child=1 -1 3 4 12 7 -7 9 -9 -6 -5 13 -3 -2
right_child=11 2 -4 10 5 6 -8 8 -10 -11 -12 -13 -14 -15
leaf_value=-0.065703672587807613 0.033852456829176397 -0.036169821747163267 0.045542064454371284 -0.0040794678282591026 0.055136612402184537 0.0048192714106961784 -0.068938989761882299 0.017879776138481827 -0.08073198844600836 -0.01254924798501042 0.049890651944418794 0.015243712380063591 -0.087011327437752917 0.06634698616563818
leaf_weight=7.1690095365047446 1.5050382763147361 2.2546384185552597 2.6527680754661551 3.8802054375410071 3.7738861590623873 2.7994912862777701 4.8165474086999893 2.2804175317287445 2.319660410284996 3.1909880191087723 2.3811303824186325 2.5762042552232733 2.3925918042659822 13.302189245820045
leaf_count=38 8 10 14 16 16 12 21 10 10 14 10 12 10 73
internal_value=0.00230214 -0.0214238 -0.0114058 -0.0167263 -0.0255977 -0.0155831 -0.041468 0.00124397 -0.0314426 0.0236796 0.0161205 0.0568724 -0.0646799 0.0636288
internal_weight=57.2948 39.9113 32.7423 30.0896 23.8282 19.181 7.61604 11.565 4.60008 6.96487 6.26134 17.3834 4.64723 14.8072
internal_count=274 181 143 129 103 83 33 50 20 30 26 93 20 81
is_linear=0
shrinkage=0.05


Tree=17
num_leaves=14
num_cat=0
split_feature=4 11 11 3 7 3 23 20 16 23 39 44 11
split_gain=27.6993 6.55835 3.64095 3.25018 3.25329 3.14549 3.78254 3.15973 3.31922 2.06735 1.72079 1.65628 0.759651
threshold=0.22695000000000007 -0.38429999999999986 0.3151000000000001 0.51961666666666673 1.0588500000000003 0.44646428571428576 1.8825520833333336 2.5200000000000005 2.0750000000000006 1.9930092592592594 1530.3043009617074 0.74739583333333337 -0.047924043715846958
decision_type=2 2 2 2 2 2 2 2 2 2 2 2 2
left_child=1 -1 3 4 12 7 -7 8 -6 -10 -2 -5 -3
right_child=10 2 -4 11 5 6 -8 -9 9 -11 -12 -13 -14
leaf_value=-0.064574433950367119 0.06249687818349986 -0.034726035974504958 0.044303583996935021 -0.0038817015328925647 0.048350905643310835 0.0045854862944182803 -0.066722557663719304 -0.046535055819029787 -0.043195269307000114 0.020268939455999696 0.014583536119495475 0.047263332482783832 -0.083748167188935366
leaf_weight=6.9372857064008704 14.342410430312158 2.2356078773736954 2.5948589295148841 3.8791243284940711 4.1074847131967562 2.8001888990402213 4.7331583350896835 2.5372940301895133 2.4886867105960846 2.343460276722908 2.563053995370864 2.3930530995130539 2.3660772889852586
leaf_count=38 81 10 14 16 18 12 21 11 11 10 12 10 10
internal_value=0.00222234 -0.0206511 -0.0109465 -0.0160424 -0.0246037 -0.0149535 -0.0398491 0.00115889 0.0156138 -0.0116162 0.0556552 0.0152827 -0.0622406
internal_weight=56.3217 39.4163 32.479 29.8841 23.612 19.0103 7.53335 11.4769 8.93963 4.83215 16.9055 6.27218 4.60169
internal_count=274 181 143 129 103 83 33 50 39 21 93 26 20
is_linear=0
shrinkage=0.05


Tree=18
num_leaves=14
num_cat=0
split_feature=4 11 11 3 7 3 23 40 20 7 5 9 11
split_gain=25.7087 6.22595 3.3548 2.97368 2.99386 2.87823 3.5262 3.02241 5.57289 1.78995 2.43917 1.37619 0.69653
threshold=0.22695000000000007 -0.38429999999999986 0.3151000000000001 0.51961666666666673 1.0588500000000003 0.44646428571428576 1.8825520833333336 49.557835956772472 2.1550000000000007 1.0606500000000001 0.010700000000000017 329.50000000000006 -0.047924043715846958
decision_type=2 2 2 2 2 2 2 2 2 2 2 2 2
left_child=1 -1 3 4 12 7 -7 -6 -9 -2 -11 -5 -3
right_child=9 2 -4 11 5 6 -8 8 -10 10 -12 -13 -14
leaf_value=-0.063527187794429452 0.064236892869475967 -0.03334575774943517 0.043105370069350647 0.043466497072086462 0.035247044207876707 0.0043631297888534403 -0.064669832536045163 0.019546124412032639 -0.067037384383267867 0.062209436706304848 -0.01201057007731479 -0.0029535073859940854 -0.080828383134997184
leaf_weight=6.7065660357475272 12.327345713973047 2.216374933719635 2.5378809273242942 2.4120552390813819 4.1151919513940829 2.8008281886577597 4.6446520537137985 4.116390272974968 3.1607767045497894 1.9731991440057743 2.130152091383934 3.8679590672254562 2.3333995938301149
leaf_count=38 72 10 14 10 18 12 21 18 14 11 10 16 10
internal_value=0.0021381 -0.0199154 -0.0105102 -0.015394 -0.0236599 -0.0143515 -0.0383248 0.00107839 -0.0177819 0.0544733 0.0231213 0.0144938 -0.0599876
internal_weight=55.3428 38.9121 32.2055 29.6676 23.3876 18.8378 7.44548 11.3924 7.27717 16.4307 4.10335 6.28001 4.54977
internal_count=274 181 143 129 103 83 33 50 32 93 21 26 20
is_linear=0
shrinkage=0.05


Tree=19
num_leaves=15
num_cat=0
split_feature=11 11 3 37 3 11 27 23 2 1 39 11 29 24
split_gain=22.6722 6.04846 4.96306 2.66622 3.17893 2.28507 3.19706 5.03147 3.76067 2.94615 1.92629 1.57646 1.76132 0.891751
threshold=0.27760000000000001 -0.38429999999999986 0.51961666666666673 -0.17599206349206348 0.57435632183908047 -0.25431763236763233 1.0001909722222226 1.8694039351851852 0.66167582781456968 0.65070000000000017 1486.1370195949751 0.38695000000000007 0.5634920634920636 1.9522743055555558
decision_type=2 2 2 2 2 2 2 2 2 2 2 2 2 2
left_child=1 -1 5 -4 -5 13 7 8 10 -9 -7 12 -2 -3
right_child=11 2 3 4 -6 6 -8 9 -10 -11 -12 -13 -14 -15
leaf_value=-0.062553344326778407 0.058875242296483138 -0.068154913672415357 0.068064732741820955 0.035885473320723581 -0.035758004820294446 0 0.031233128807521694 -0.074306145070889285 -0.04020927396364115 -0.0090968810772191801 0.064812807575963929 0.061763601257455336 -0.0021569366714343525 -0.019929227546233153
leaf_weight=6.4777864366769782 1.8992830067873026 3.1200332194566753 2.2836899757385254 3.5020259767770749 2.5878346264362335 2.3637729883194023 3.2297932356595984 4.7927331179380417 2.5496979802846909 3.0229949355125427 2.3475810289382935 11.645610362291334 2.5156214535236359 2.0255027264356613
leaf_count=38 11 15 10 15 11 10 14 21 11 13 10 73 12 10
internal_value=0.0020616 -0.0187544 -0.00951499 0.0230593 0.00454757 -0.0214064 -0.012623 -0.0224913 0.00687731 -0.0501495 0.033705 0.0518249 0.023714 -0.0508662
internal_weight=54.364 38.3034 31.8257 8.37355 6.08986 23.4521 18.3066 15.0768 7.26105 7.81573 4.71135 16.0605 4.4149 5.14554
internal_count=274 178 140 36 26 104 79 65 31 34 20 96 23 25
is_linear=0
shrinkage=0.05


Tree=20
num_leaves=12
num_cat=0
split_feature=11 11 16 27 16 11 38 9 40 22 24
split_gain=20.5883 9.05452 5.98129 4.55568 3.88987 5.32378 3.06539 1.78081 1.60124 0.638621 0.474746
threshold=-0.25431763236763233 0.39500000000000007 2.4250000000000003 1.0001909722222226 3.5500000000000003 -0.14285 1535.0656258113668 393.00000000000006 -21.740300364664787 7.7500000000000009 1.8694039351851852
decision_type=2 2 2 2 2 2 2 2 2 2 2
left_child=8 2 3 6 5 -4 7 -2 -1 -10 -7
right_child=1 -3 4 -5 -6 10 -8 -9 9 -11 -12
leaf_value=-0.0081837875798637487 -0.072025019478306293 0.060920221126842561 -0.012957894619591426 0.03364101919859018 -0.015925222989418959 0.044491514469766465 0.010246843346407825 -0.020617506213541071 -0.061012367200323249 -0.023643547915532387 0.078337109521913181
leaf_weight=2.3820967674255362 4.297613278031351 9.8643601536750776 2.9038261920213655 3.0440263152122489 3.5876046270132056 3.4272116124630001 2.6348642408847809 3.4553801268339157 10.827974095940588 1.9976204782724369 4.2664430439472198
leaf_count=12 19 64 12 14 16 16 12 15 61 9 20
internal_value=8.87226e-06 0.0200131 0.0050542 -0.0185672 0.0277448 0.0430066 -0.0345178 -0.0503045 -0.0487761 -0.0558069 0.0646661
internal_weight=52.689 37.4813 27.617 13.4319 14.1851 10.5975 10.3879 7.75299 15.2077 12.8256 7.69365
internal_count=270 188 124 60 64 48 46 34 82 70 36
is_linear=0
shrinkage=0.05


Tree=21
num_leaves=14
num_cat=0
split_feature=5 7 0 20 29 23 5 35 5 33 24 22 3
split_gain=16.1866 5.71567 4.54865 4.3952 4.15084 2.55248 2.4912 2.1725 3.84378 1.06744 0.865006 1.79514 1.31497
threshold=0.1782849299446074 1.0624500000000003 0.54285000000000017 1.9600000000000002 0.43650793650793657 2.9047511574074081 0.3398000000000001 0.2678571428571429 0.030700000000000036 0.46428571428571436 2.9932523148148156 6.7500000000000009 0.46345000000000008
decision_type=2 2 2 2 2 2 2 2 2 2 2 2 2
left_child=1 3 9 -1 -4 6 -6 8 -3 -2 11 -5 -13
right_child=2 7 4 10 5 -7 -8 -9 -10 -11 -12 12 -14
leaf_value=-0.0051591169711672838 -0.065228217738674238 -0.027425871835480283 0.036170167877017066 0.067828419459338887 -0.005927321256976658 0.013119387230465818 -0.067787250659660139 -0.050076314744822208 0.050490243359285737 -0.025263757361842349 0.013412519006074458 0.056049674497883333 0
leaf_weight=4.0032519996166291 7.5507730841636675 3.4598884135484678 3.4019258171319953 10.14993831515312 3.0152060836553556 2.6543745845556259 4.07069331407547 2.2007321417331696 2.7171527594327927 2.9776900410652161 1.693259835243224 1.7096607834100717 2.1662120074033737
leaf_count=19 44 16 15 61 13 12 21 10 12 15 9 11 12
internal_value=0 0.0257145 -0.0302972 0.0403968 -0.0100726 -0.0269351 -0.0426091 -0.00832843 0.00630961 -0.0547398 0.0522741 0.0564835 0.0245576
internal_weight=51.7708 28.1001 23.6707 19.7223 13.1422 9.74027 7.0859 8.37777 6.17704 10.5285 15.7191 14.0258 3.87587
internal_count=270 150 120 112 61 46 34 38 28 59 93 84 23
is_linear=0
shrinkage=0.05


Tree=22
num_leaves=14
num_cat=0
split_feature=11 11 16 16 11 6 31 6 2 35 43 5 24
split_gain=17.9263 8.33299 5.41028 3.1578 5.42593 3.12779 2.91924 2.63553 2.17688 0.881701 0.817059 0.0858515 0.0688417
threshold=-0.25431763236763233 0.39500000000000007 2.1650000000000005 3.5500000000000003 -0.14285 0.035911555759246191 0.54772727272727284 0.083662736620379666 0.42000000000000004 0.31666666666666671 1.0000000180025095e-35 0.024750000000000025 2.869184027777778
decision_type=2 2 2 2 2 2 2 2 2 2 2 2 2
left_child=8 2 5 4 -4 6 -2 -7 -1 11 12 -6 -10
right_child=1 -3 3 -5 9 7 -8 -9 10 -11 -12 -13 -14
leaf_value=0.0016046120310558845 -0.031583135619519656 0.059691445213377971 -0.012898549732832366 -0.015500308850027875 0.047024179689771434 -0.066440226432666727 0.045026763037283452 -0.0032776080608311383 -0.063892030984318879 0.026162525495656619 -0.020759923089757951 0.078584963032999694 -0.037349943080393744
leaf_weight=1.8292446136474598 2.111105218529703 9.2072413414716703 3.5876986980438188 3.5688551664352408 1.9870195686817185 4.1652016043663025 2.6589308679103851 2.9967116862535477 8.6870023608207685 2.144722193479538 2.1429798156023017 4.0109919905662537 1.8474894762039173
leaf_count=9 10 64 15 16 10 19 12 13 52 10 11 19 10
internal_value=0 0.0187999 0.00462318 0.024384 0.0369694 -0.0202909 0.010142 -0.0411091 -0.0467337 0.0594378 -0.0540578 0.0698921 -0.0601024
internal_weight=50.9452 36.4385 27.2312 15.2993 11.7304 11.9319 4.77004 7.16191 14.5067 8.14273 12.6775 5.99801 10.5345
internal_count=270 188 124 70 54 54 22 32 82 39 73 29 62
is_linear=0
shrinkage=0.05


Tree=23
num_leaves=15
num_cat=0
split_feature=11 11 16 3 23 24 7 7 40 6 34 22 9 3
split_gain=16.5979 7.9476 4.97744 3.82651 3.39874 3.35919 3.72389 2.34474 1.48368 1.20725 0.94741 0.878715 0.414974 0.0711656
threshold=-0.25431763236763233 0.39500000000000007 2.2750000000000004 0.44175000000000003 1.9107060185185187 1.9892534722222226 1.0602500000000001 1.0625500000000001 -21.740300364664787 0.045280218788465471 0.5277777777777779 8.2500000000000018 373.50000000000006 0.56401740723774629
decision_type=2 2 2 2 2 2 2 2 2 2 2 2 2 2
left_child=8 2 3 4 9 6 -4 -8 -1 -2 -7 13 -5 -10
right_child=1 -3 5 12 -6 10 7 -9 11 -11 -12 -13 -14 -15
leaf_value=-0.0061810808784247958 0.00033461366798723268 0.059027570693703971 0.054694791352573435 -0.066758809630121721 0.042454598602131327 0.032061315709098336 -0.052261931924111819 0.0093420251087497994 -0.0625563752604614 -0.049047335804093171 0.077737831431496193 -0.014658630115200286 -0.029562080241027657 -0.036317071250508197
leaf_weight=2.318475827574729 2.2215550690889376 8.8552960157394391 2.42616920173168 2.7202761471271515 3.2368800342082977 3.5121321976184836 2.6136974841356277 3.2841784060001373 8.2392836660146695 2.2289306819438934 2.5078074336051941 1.7284892946481694 2.3124082684516907 1.8672088682651509
leaf_count=12 10 64 12 13 15 16 12 14 51 10 12 8 10 11
internal_value=0 0.0181493 0.00442188 -0.0180482 0.00362316 0.0246812 0.00331911 -0.0175409 -0.0455939 -0.0238328 0.0528657 -0.0527794 -0.0515508 -0.0586018
internal_weight=50.0728 35.9193 27.064 12.7201 7.68737 14.344 8.32405 5.89788 14.1535 4.45049 6.01994 11.835 5.03268 10.1065
internal_count=270 188 124 58 35 66 38 26 82 20 28 70 23 62
is_linear=0
shrinkage=0.05


Tree=24
num_leaves=12
num_cat=0
split_feature=11 11 16 27 16 11 4 44 3 5 22
split_gain=15.3944 7.57605 4.55581 3.82599 3.16727 4.49874 1.94295 1.30146 1.27003 1.23898 1.07542
threshold=-0.25431763236763233 0.39500000000000007 2.2750000000000004 0.9592361111111114 3.5500000000000003 -0.14285 0.092607234320866941 0.57031250000000011 0.5767000000000001 0.069300000000000014 7.2500000000000009
decision_type=2 2 2 2 2 2 2 2 2 2 2
left_child=8 2 3 6 5 -4 9 -7 10 -2 -1
right_child=1 -3 4 -5 -6 7 -8 -9 -10 -11 -12
leaf_value=-0.061572819366865539 -0.079022414086970971 0.058403215544215153 -0.0090081120578351555 0.026779590164702379 -0.015904551322590662 0.021673130276423785 -0.003939792511880009 0.073225957843583406 -0.0084707048693833092 -0.027130362546024356 -0.023347029577529294
leaf_weight=8.1930303424596769 2.5296680629253405 8.5122246369719488 3.3674314022064165 3.3936298340558997 3.5454144477844229 2.1442033350467709 3.6466174870729446 5.1647762209177017 2.4030000865459433 3.0825804769992828 3.2149168699979773
leaf_count=53 11 64 14 16 16 10 17 26 13 14 16
internal_value=0 0.017544 0.00424824 -0.017279 0.023736 0.0373893 -0.0340755 0.0592736 -0.0445132 -0.0523694 -0.0515312
internal_weight=49.1975 35.3865 26.8743 12.6525 14.2218 10.6764 9.25887 7.30898 13.8109 5.61225 11.4079
internal_count=270 188 124 58 66 50 42 36 82 25 69
is_linear=0
shrinkage=0.05


Tree=25
num_leaves=16
num_cat=0
split_feature=11 11 27 41 7 20 10 4 4 20 2 38 38 9 20
split_gain=16.288 4.85865 2.85638 4.07293 3.983 3.64282 3.94661 2.24169 2.24149 2.06555 1.40007 1.20494 2.1601 0.9729 0.218238
threshold=0.3151000000000001 -0.25431763236763233 -0.0013078703703703896 0.54076023214123636 1.0602500000000001 2.1850000000000005 0.089999999999999872 0.084529888261825462 0.076099999999999959 2.1550000000000007 0.42000000000000004 1513.2573882582519 1549.7340493958529 303.50000000000006 2.5200000000000005
decision_type=2 2 2 2 2 2 2 2 2 2 2 2 2 2 2
left_child=1 10 4 5 -3 6 -4 9 -6 -5 -1 -2 -13 -12 -15
right_child=11 2 3 7 8 -7 -8 -9 -10 -11 13 12 -14 14 -16
leaf_value=-0.0022547305457926476 0.058476137562619657 0.071126955267416594 -0.048141426966970609 0 0.026648426112592001 0.062556309314445099 0.02510317089962948 -0.083529939014543308 -0.038941362038683147 -0.057678939651156919 -0.013282005033702575 -0.018457246563988276 0.056997438048067811 -0.062511869571726386 -0.031651467050548748
leaf_weight=2.0720326155424109 8.851320341229437 2.5049139261245719 3.4597827196121269 3.6286419183015806 2.5626063048839569 2.147646963596344 3.6314062774181366 2.2430436313152313 2.41021928191185 2.4598331600427628 1.9264088720083226 1.6515441015362733 1.8361624628305433 6.9478068053722364 1.8088536262512205
leaf_count=10 67 12 15 16 11 10 16 10 11 11 11 10 12 44 12
internal_value=-0.00118824 -0.0175755 -0.00450788 -0.0156673 0.0209142 0.00673549 -0.01011 -0.0408881 -0.00429683 -0.0232746 -0.0426136 0.0483532 0.020355 -0.0498842 -0.057131
internal_weight=50.1422 37.8032 25.0481 17.5704 7.47774 9.23884 7.09119 8.33152 4.97283 6.08848 12.7551 12.339 3.48771 10.6831 8.75666
internal_count=278 189 112 78 34 41 31 37 22 27 77 89 22 67 56
is_linear=0
shrinkage=0.05


Tree=26
num_leaves=17
num_cat=0
split_feature=0 5 6 0 21 27 23 23 40 5 7 3 16 38 7 24
split_gain=13.9935 6.22188 3.83404 3.76188 3.69945 4.68486 2.99849 2.47867 2.4304 2.12302 3.34884 1.12357 0.658709 0.626277 0.300845 0.262455
threshold=0.80190000000000017 0.0024499999999999526 0.040521608513211564 0.72325000000000006 2.1450000000000005 0.020787037037036996 2.9047511574074081 1.9215277777777782 33.08057969579307 0.3398000000000001 1.0602500000000001 0.57435632183908047 1.8600000000000003 1513.2573882582519 1.0628500000000003 1.9873379629629631
decision_type=2 2 2 2 2 2 2 2 2 2 2 2 2 2 2 2
left_child=1 11 4 6 5 8 9 -6 -3 10 -4 12 -1 -2 -12 -11
right_child=13 2 3 -5 7 -7 -8 -9 -10 15 14 -13 -14 -15 -16 -17
leaf_value=0.065010697449569846 0.059084250430438683 -0.047860360121227685 0.017543230479389157 -0.085521617377513959 0.0018803061490028112 0.071593242619056557 0.014998302232455891 -0.069702014299874493 0.025223477223007103 -0.060455833479333421 -0.060798273640619044 0 0.013433366544448121 0.025902351702338306 -0.026342682253844646 -0.025839261861792185
leaf_weight=2.4360635280609126 7.3419897332787496 2.0795640498399717 3.6957897618413025 3.1531073898077002 2.1562504023313522 2.8386472910642624 3.4367543905973426 2.3086731731891632 2.208029717206955 5.9923089593648902 2.2184100747108459 1.5841366350650785 1.2658236324787138 2.8379535377025604 2.2748921066522598 1.4613827243447302
leaf_count=17 54 10 18 14 10 13 17 11 10 41 10 8 7 19 10 9
internal_value=-0.00115543 -0.0148654 -0.0228486 -0.0349601 5.4928e-05 0.0227351 -0.0259413 -0.0347535 -0.00936691 -0.0352915 -0.0165188 0.0347639 0.0495067 0.0506622 -0.0453957 -0.0547627
internal_weight=49.2898 39.1098 33.8238 22.2326 11.5912 7.12624 19.0795 4.46492 4.28759 15.6428 8.18909 5.28602 3.70189 10.1799 4.4933 7.45369
internal_count=278 205 173 119 54 33 105 21 20 88 38 32 24 73 20 50
is_linear=0
shrinkage=0.05


Tree=27
num_leaves=15
num_cat=0
split_feature=11 11 44 16 36 37 5 0 9 38 38 27 4 5
split_gain=14.1756 4.41158 3.28001 3.16018 3.86417 4.18967 2.33455 1.79224 1.33121 1.19438 2.025 1.00882 0.642338 0.354676
threshold=0.3151000000000001 -0.25431763236763233 0.77864583333333337 1.7600000000000002 0.70714285714285718 0.20000000000000001 0.024750000000000025 0.67270000000000019 303.50000000000006 1513.2573882582519 1549.7340493958529 0.99888310185185192 0.010550000000000006 0.52645000000000008
decision_type=2 2 2 2 2 2 2 2 2 2 2 2 2 2
left_child=1 8 3 12 5 6 -5 -4 -1 -2 -11 13 -3 -10
right_child=9 2 7 4 -6 -7 -8 -9 11 10 -12 -13 -14 -15
leaf_value=-0.004301313942689902 0.057410023327294661 -0.042499821513012626 -0.006432378591523443 0.010142491362774749 -0.026288131862383157 -0.012026304157300542 0.072976848534511043 -0.068761242412152229 -0.061030645687375942 -0.018319609546861241 0.055668484280806708 -0.0058690372230982201 -0.0046907450714408451 -0.024131033423513814
leaf_weight=2.3372289761900893 8.1940174922347051 2.9803822338581147 2.4395845085382453 2.4164604842662794 3.5849809348583213 3.4011827260255814 4.9797393083572388 2.5342440158128738 6.959329426288603 1.6469358876347535 1.7412653341889379 1.4498945772647847 2.3291414529085159 1.4587617963552473
leaf_count=13 67 13 11 11 18 16 22 11 47 10 12 7 10 10
internal_value=-0.00111019 -0.0163794 -0.00393813 0.00504948 0.0174177 0.0324959 0.053524 -0.0399047 -0.0408794 0.0467939 0.0187768 -0.0489112 -0.0272316 -0.0555817
internal_weight=48.4531 36.8709 24.6657 19.6919 14.3824 10.7974 7.3962 4.97383 12.2052 11.5822 3.3882 9.86799 5.30952 8.41809
internal_count=278 189 112 90 67 49 33 22 77 89 22 64 23 57
is_linear=0
shrinkage=0.05


Tree=28
num_leaves=15
num_cat=0
split_feature=11 11 24 27 23 9 40 2 33 31 38 38 22 39
split_gain=13.2129 4.13501 2.71789 5.05671 3.17501 2.98749 2.93006 1.33046 1.26644 1.42579 1.18205 1.90633 1.03901 1.03434
threshold=0.3151000000000001 -0.25431763236763233 2.9511053240740748 -0.0034895833333331567 2.2544502314814818 4290.5000000000009 32.232654072888643 0.42000000000000004 0.77500000000000013 0.43303571428571436 1513.2573882582519 1549.7340493958529 7.2500000000000009 1481.1631795388917
decision_type=2 2 2 2 2 2 2 2 2 2 2 2 2 2
left_child=1 7 3 6 5 8 -3 -1 9 13 -2 -12 -9 -5
right_child=10 2 -4 4 -6 -7 -8 12 -10 -11 11 -13 -14 -15
leaf_value=-0.00027078724346278767 0.056881846776096361 0 -0.05650544980987382 -0.046546843273383813 0.027851860951336876 0.022647169862333734 0.074469931693852451 -0.058890762392392659 -0.0067524649247396699 -0.071740167509347572 -0.017304852734986619 0.05487944193437784 -0.020345457756798496 0
leaf_weight=2.0172961205244055 7.8658366277813894 2.0676327645778683 2.129406049847602 2.3257229477167183 3.7758069783449164 2.6550488770008078 3.086785301566124 6.7328459098935109 3.261501133441925 3.2460575252771378 1.6618067324161532 1.6809555143117902 3.1707584857940674 1.9849056154489515
leaf_count=10 67 10 10 10 17 11 14 50 15 15 10 12 17 10
internal_value=-0.0011067 -0.0158183 -0.00380427 0.00121152 -0.0115808 -0.0231238 0.0443779 -0.0398897 -0.0349196 -0.0461767 0.0460147 0.0180814 -0.0473766 -0.0246028
internal_weight=47.6624 36.4538 24.5329 22.4035 17.249 13.4732 5.15442 11.9209 10.8182 7.55669 11.2086 3.34276 9.9036 4.31063
internal_count=278 189 112 102 78 61 24 77 50 35 89 22 67 20
is_linear=0
shrinkage=0.05


Tree=29
num_leaves=16
num_cat=0
split_feature=0 5 6 0 21 27 23 23 40 5 7 5 38 23 7
split_gain=11.5813 5.16051 3.25684 3.37285 3.1213 4.34113 2.65506 2.25411 2.05473 1.94637 3.01445 0.941223 0.622642 0.338101 0.261634
threshold=0.80190000000000017 0.0024499999999999526 0.040521608513211564 0.72325000000000006 2.1450000000000005 0.020787037037036996 2.9047511574074081 1.9215277777777782 33.08057969579307 0.3398000000000001 1.0602500000000001 -0.09851497678019043 1513.2573882582519 1.9938425925925929 1.0628500000000003
decision_type=2 2 2 2 2 2 2 2 2 2 2 2 2 2 2
left_child=1 11 4 6 5 8 9 -6 -3 10 -4 -1 -2 -11 -12
right_child=12 2 3 -5 7 -7 -8 -9 -10 13 14 -13 -14 -15 -16
leaf_value=0.056740142201067267 0.057482496053597537 -0.045914815362920774 0.017749701834210662 -0.080925759679981071 0.0026350174175527341 0.068954499233611855 0.015081819009102862 -0.066593460498481014 0.022228831364445062 -0.058532701297119821 -0.057206992944677619 0.010396535360652031 0.023628900770589011 -0.019768076346979881 -0.02432916523452017
leaf_weight=2.242296576499939 6.5758936777710897 2.0126237571239454 3.6105362400412613 3.0625724494457236 2.1274214833974838 2.7773413956165314 3.3732139840722075 2.1944151669740677 2.1353239864110947 5.5720852464437476 2.1752659678459167 2.7813775390386573 2.7099964469671249 1.2435825914144514 2.2248861640691757
leaf_count=20 54 10 18 14 10 13 17 11 10 42 10 12 19 8 10
internal_value=-0.0010828 -0.0135771 -0.0209697 -0.0324395 0.000367476 0.0215071 -0.0236095 -0.0320961 -0.0099606 -0.0327893 -0.0149017 0.0327614 0.0484924 -0.0525708 -0.0426038
internal_weight=46.8188 37.5329 32.5093 21.2621 11.2471 6.92529 18.1996 4.32184 4.14795 14.8264 8.01069 5.02367 9.28589 6.81567 4.40015
internal_count=278 205 173 119 54 33 105 21 20 88 38 32 73 50 20
is_linear=0
shrinkage=0.05


Tree=30
num_leaves=16
num_cat=0
split_feature=11 11 6 16 44 27 11 27 24 21 7 7 24 22 36
split_gain=11.3847 6.04431 2.42384 2.28364 2.54113 3.68363 2.6153 4.1703 2.32919 2.0729 1.34403 1.43945 1.29702 1.15456 0.0886172
threshold=0.39500000000000007 -0.25431763236763233 0.032172543123986985 1.7600000000000002 0.77864583333333337 -0.071371527777777874 -0.047924043715846958 0.020787037037036996 1.2128472222222224 2.1450000000000005 1.06105 1.0634500000000002 1.8689236111111114 8.7500000000000018 0.41428571428571431
decision_type=2 2 2 2 2 2 2 2 2 2 2 2 2 2 2
left_child=1 2 -1 10 5 14 12 -8 -6 -9 -3 -12 -7 -4 -5
right_child=-2 3 13 4 8 6 7 9 -10 -11 11 -13 -14 -15 -16
leaf_value=0.01279761587894146 0.055700197914811504 -0.054817787123937839 -0.058931207416608324 0.069218825239630202 0.007109102579165083 0.001286913343986623 -0.052857242513423913 0.045590674783807364 -0.060022903477616775 -0.020922097633416223 0.020847431969950623 -0.035327187739452086 0.05403626287724364 -0.0086577652991001747 0.036552285399962491
leaf_weight=1.5254911333322514 7.0462751463055602 2.4388363063335445 8.6019861251115781 2.327831491827971 2.5629715994000426 2.3147733807563808 3.6832529902458138 2.6718256771564484 2.2607571631669998 1.8310354948043821 2.0809949487447739 2.1957745850086212 2.7599594742059708 1.6358571797609318 1.7098037600517271
leaf_count=7 66 11 65 12 12 10 17 15 10 10 10 10 12 8 10
internal_value=-0.00238177 -0.0126968 -0.0427405 -0.000163373 0.00742864 0.0165445 0.00326663 -0.0137585 -0.0239185 0.0175908 -0.0256483 -0.00699948 0.0314314 -0.0515434 0.0578118
internal_weight=47.6474 40.6012 11.7633 28.8378 22.1222 17.2985 13.2608 8.18611 4.82373 4.50286 6.71561 4.27677 5.07473 10.2378 4.03764
internal_count=285 219 80 139 108 86 64 42 22 25 31 20 22 73 22
is_linear=0
shrinkage=0.05


Tree=31
num_leaves=16
num_cat=0
split_feature=11 11 6 16 31 33 11 9 32 32 9 7 4 22 32
split_gain=10.6776 5.67399 2.31585 2.09419 2.30589 3.43708 3.06016 3.16488 2.49473 2.20765 2.09587 1.24545 1.32665 1.13435 1.09339
threshold=0.39500000000000007 -0.25431763236763233 0.032172543123986985 1.7600000000000002 0.45227272727272733 0.81666666666666676 -0.16609999999999994 301.00000000000006 0.24264705882352944 0.54195804195804198 298.50000000000006 1.06105 0.010550000000000006 8.7500000000000018 0.51190476190476197
decision_type=2 2 2 2 2 2 2 2 2 2 2 2 2 2 2
left_child=1 2 -1 11 8 6 -6 -8 -5 -7 -10 -3 -13 -4 -9
right_child=-2 3 13 4 5 9 7 14 10 -11 -12 12 -14 -15 -16
leaf_value=0.012157769564038351 0.055256200230500777 -0.053016932431092269 -0.058317061132320672 -0.0079915585430849496 0.030304056667547482 0.067813094700734794 0.0096613760961398037 -0.077843217306141702 0.0018781060172265833 -0.0032926838998088657 0.071407879385379888 -0.032988913251436026 0.021170280637561559 -0.0082761871527616479 -0.026903039255470912
leaf_weight=1.5306144058704365 6.7559025287628165 2.399984389543536 8.2674735859036428 2.7895040959119823 2.1184717118740082 2.0885207802057262 2.4626891613006574 2.9583196565508842 1.7967685312032697 1.9090636447072027 3.4016858413815498 2.2662016153335571 1.9840924739837644 1.6304663866758335 2.4395873993635178
leaf_count=7 66 11 65 12 9 11 12 14 10 10 17 10 10 8 13
internal_value=-0.00228579 -0.012232 -0.0418494 -0.00012431 0.00715669 -0.00480293 -0.0207762 -0.0353784 0.0285015 0.0333843 0.0488086 -0.0246626 -0.00665187 -0.0507393 -0.0566383
internal_weight=46.7993 40.0434 11.4286 28.6149 21.9646 13.9767 9.97907 7.8606 7.98796 3.99758 5.19845 6.65028 4.25029 9.89794 5.39791
internal_count=285 219 80 139 108 69 48 39 39 21 27 31 20 73 27
is_linear=0
shrinkage=0.05


Tree=32
num_leaves=15
num_cat=0
split_feature=11 11 6 35 20 2 7 36 27 35 23 7 10 22
split_gain=10.0234 5.32062 2.2138 1.99066 4.68539 2.96268 2.39659 2.21553 2.30834 1.44667 1.42016 1.4149 1.41307 1.11512
threshold=0.39500000000000007 -0.25431763236763233 0.032172543123986985 0.61250000000000016 2.2250000000000005 0.60295481927710859 1.05915 0.77500000000000013 0.020787037037036996 1.1055555555555558 2.2131828703703706 1.0634500000000002 0.15999999999999995 8.7500000000000018
decision_type=2 2 2 2 2 2 2 2 2 2 2 2 2 2
left_child=1 2 -1 4 6 9 12 8 11 -5 -6 -8 -3 -4
right_child=-2 3 13 5 10 -7 7 -9 -10 -11 -12 -13 -14 -15
leaf_value=0.01155233177406759 0.054832600415803158 -0.066317383940540431 -0.057737241932087027 -0.070654014248653849 0.069714303109575868 0.016966432298790201 0.020966291499810687 -0.038107783434807099 0.051086393402459435 -0.012289711625444562 0.010696342579911098 -0.028839477809873067 -0.0091846649339656153 -0.0079105958365462952
leaf_weight=1.5354042053222645 6.4755573496222487 1.9854464828968108 7.9422165229916555 2.611692786216735 3.1575807034969321 2.8518952578306198 3.0766659379005414 2.0142288804054251 3.2765052616596222 2.2238487005233765 1.8653992787003515 2.4755279570817947 2.8421715945005417 1.6252849698066709
leaf_count=7 66 10 65 12 16 14 14 10 17 11 10 11 14 8
internal_value=-0.00220486 -0.0118005 -0.0409796 -0.000106001 0.00779326 -0.0218388 -0.00545785 0.0072422 0.0184595 -0.0456184 0.0494092 -0.000473087 -0.0345652 -0.0499595
internal_weight=45.9594 39.4839 11.1029 28.381 20.6935 7.68744 15.6705 10.8429 8.8287 4.83554 5.02298 5.55219 4.82762 9.5675
internal_count=285 219 80 139 102 37 76 52 42 23 26 25 24 73
is_linear=0
shrinkage=0.05


Tree=33
num_leaves=17
num_cat=0
split_feature=0 5 6 3 23 9 7 6 7 15 0 9 44 15 27 44
split_gain=7.06717 4.75813 4.53104 3.2224 2.97801 2.2109 2.19053 2.05157 2.17746 3.19146 1.93038 1.88661 1.02712 0.326968 0.301784 0.101992
threshold=0.80190000000000017 -0.09851497678019043 0.040521608513211564 0.45715 2.9047511574074081 4290.5000000000009 1.0613500000000002 0.01499263632156512 1.0599500000000004 4.6250000000000009 0.55280000000000007 351.50000000000006 0.76822916666666685 3.5750000000000006 -0.040624999999999904 0.76822916666666685
decision_type=2 2 2 2 2 2 2 2 2 2 2 2 2 2 2 2
left_child=1 -1 7 4 6 14 10 -3 -9 11 -4 15 13 -2 -5 -10
right_child=12 2 3 5 -6 -7 -8 8 9 -11 -12 -13 -14 -15 -16 -17
leaf_value=0.055110017493388536 0.056628361691459995 -0.033537082614215355 0 -0.031809148631974052 0.042638414656156115 0.00096329394475552191 0.0066917071155385907 -0.022410544098731031 0.044175519606797484 -0.023554292049167654 -0.066146232377319009 0.005471357473796342 0.0040810092435971902 0.01733525647329906 -0.063943188917652188 0.079200747243838951
leaf_weight=2.384209379553794 4.8969783261418334 2.4433635473251334 1.7125284522771851 1.9430409595370264 2.0273432433605185 1.6825810596346844 3.3560001477599144 2.5847766548395148 1.8746764212846736 2.0203384906053543 3.2535061314702034 2.1616212874650955 1.8190491646528242 1.163771867752075 7.5499295815825471 2.2532067894935608
leaf_count=25 43 12 10 13 9 11 17 13 10 10 19 11 15 9 48 10
internal_value=-0.00213933 -0.0113654 -0.0161992 -0.0303791 -0.00952342 -0.0489937 -0.0231797 0.00636813 0.0159962 0.0286616 -0.0440871 0.0463232 0.0404409 0.0502988 -0.0582873 0.0658978
internal_weight=45.1269 37.2471 34.8629 21.5249 10.3494 11.1756 8.32203 13.338 10.8946 8.30984 4.96603 6.2895 7.8798 6.06075 9.49297 4.12788
internal_count=285 218 193 127 55 72 46 66 54 41 29 31 67 52 61 20
is_linear=0
shrinkage=0.05


Tree=34
num_leaves=17
num_cat=0
split_feature=4 6 1 24 24 2 24 9 20 21 16 21 40 7 6 16
split_gain=7.54902 3.74383 3.96109 2.75001 3.47101 2.34196 4.96251 2.07661 1.9333 1.77802 3.03677 1.37694 0.977494 0.446194 0.24213 0.20027
threshold=0.28910000000000002 0.59795088840681576 0.76470000000000005 1.2128472222222224 1.910920138888889 0.56940000000000002 1.8689236111111114 298.50000000000006 2.2750000000000004 2.1450000000000005 1.7600000000000002 2.0850000000000004 69.713539871848198 1.0622000000000003 0.040521608513211564 3.2650000000000001
decision_type=2 2 2 2 2 2 2 2 2 2 2 2 2 2 2 2
left_child=1 2 3 9 -5 15 -7 -6 11 10 -1 -9 13 -2 -12 -4
right_child=12 -3 5 4 7 6 -8 8 -10 -11 14 -13 -14 -15 -16 -17
leaf_value=-0.0014738057712736681 0.055923315321669366 -0.063811179110741731 -0.059027328113332979 -0.067880890647563114 -0.049763618814552463 -0.061334569191464738 0.048461773349911939 -0.03522469166565776 0.053821237024758495 -0.0096402966576688617 0.071082998916610407 0.018003279678039368 0.0030130003965308239 0.013244495621083156 0.038932541563507624 -0.026864111814181919
leaf_weight=3.8026487305760401 5.3939206525683385 3.1006049290299407 4.5218819826841337 2.2402261644601813 1.5161066055297832 1.8183564916253092 2.1128028929233551 1.9647306799888609 1.9619432538747785 3.3387657701969138 2.4409750625491142 2.7779638543725014 1.6583994999527929 1.1391765698790548 3.0026255622506142 1.5822314545512197
leaf_count=19 53 26 33 11 9 11 10 9 10 17 13 15 14 9 14 12
internal_value=-0.00203334 -0.0119723 -0.00678527 0.00446256 -0.0141294 -0.0328984 -0.00134582 0.000557199 0.013235 0.0203004 0.0316342 -0.00328675 0.0408791 0.0495471 0.0552733 -0.0520637
internal_weight=44.3734 36.1819 33.0813 23.046 10.461 10.0353 3.93116 8.22074 6.70464 12.585 9.24625 4.74269 8.1915 6.5331 5.4436 6.10411
internal_count=285 209 183 117 54 66 21 43 34 63 46 24 76 62 27 45
is_linear=0
shrinkage=0.05


Tree=35
num_leaves=14
num_cat=0
split_feature=11 5 44 22 44 16 44 44 9 33 23 44 11
split_gain=9.16329 4.07099 2.9363 2.75857 2.70827 2.89103 2.62733 3.45331 2.40646 1.10766 0.635699 1.35021 0.557622
threshold=0.23155000000000003 0.3398000000000001 0.79427083333333337 8.7500000000000018 0.74739583333333337 2.5150000000000001 0.60156250000000011 0.56510416666666685 2975.0000000000005 0.41428571428571431 2.1809895833333335 0.73697916666666685 -0.01719999999999999
decision_type=2 2 2 2 2 2 2 2 2 2 2 2 2
left_child=1 4 10 -3 6 -6 7 8 -1 -8 -2 -12 -10
right_child=2 3 -4 -5 5 -7 9 -9 12 -11 11 -13 -14
leaf_value=-0.068977102076943547 0.057626518685668239 -0.055461655373724175 -0.017516976152504273 0.016492091119240767 -0.01178126809139312 0.057298210834319178 -0.073680640422417648 0.039487223533662803 0.015242700551911412 -0.016300913928684695 0.053295758121088714 -0.014390049712605643 -0.01919395012491798
leaf_weight=1.8558634370565465 6.5666229650378209 7.7540464624762517 1.8669803738594044 1.4356898367404936 2.6250335723161689 3.1148965805768967 2.1188617795705786 3.3247692063450813 2.1892200037837029 1.9088353887200353 1.5198543444275858 1.1244401633739469 2.2573928683996201
leaf_count=9 62 66 13 7 13 15 10 17 10 10 14 8 10
internal_value=-0.00128261 -0.0163652 0.0369864 -0.0436257 -0.00303457 0.0251893 -0.015359 -0.000516996 -0.0226887 -0.0487519 0.0486403 0.023216 -0.00117753
internal_weight=39.6625 28.5846 11.0779 9.18974 19.3949 5.73993 13.6549 9.62725 6.30248 4.0277 9.21092 2.64429 4.44661
internal_count=264 167 97 73 94 28 66 46 29 20 84 22 20
is_linear=0
shrinkage=0.05


Tree=36
num_leaves=13
num_cat=0
split_feature=11 5 40 44 7 22 36 4 24 23 38 39
split_gain=8.49542 3.82077 2.89307 2.79044 2.71908 2.63408 1.93478 2.38204 0.752819 0.632541 1.40536 0.0224142
threshold=0.23155000000000003 0.3398000000000001 -1.8409875367108268 0.79427083333333337 1.0651000000000002 8.7500000000000018 -0.22499999999999998 0.0092999999999999767 1.0041666666666669 2.1809895833333335 1513.0566927264256 1519.7009770711088
decision_type=2 2 2 2 2 2 2 2 2 2 2 2
left_child=1 2 -1 9 6 11 7 -4 -8 -2 -11 -3
right_child=3 5 4 -5 -6 -7 8 -9 -10 10 -12 -13
leaf_value=0.037851635345060169 0.057100284779445301 -0.058861381058761965 -0.038938012441264401 -0.016592018718782742 0.026470151067117694 0.015654333695950894 -0.020148716324824952 0.029661194636627669 -0.055596215407565555 0.052662213201439906 -0.017371535685093736 -0.032440392600191818
leaf_weight=3.4063796103000668 6.3033733889460546 5.970015734434126 2.0729779005050659 1.8777954354882229 3.3643451035022727 1.442079037427902 3.7353725209832209 2.9240219295024872 3.7528490424156189 1.5298423022031786 1.0676584169268606 1.5087713897228239
leaf_count=17 62 53 11 13 15 7 18 14 19 15 7 13
internal_value=-0.00125323 -0.015819 -0.00294344 0.0361594 -0.0122069 -0.0427163 -0.0231539 1.66103e-05 -0.0390713 0.0479044 0.0224456 -0.0546893
internal_weight=38.9555 28.1768 19.2559 10.7787 15.8496 8.92087 12.4852 4.997 7.48822 8.90087 2.5975 7.47879
internal_count=264 167 94 97 77 73 62 25 37 84 22 66
is_linear=0
shrinkage=0.05


Tree=37
num_leaves=13
num_cat=0
split_feature=11 5 44 40 7 24 27 11 32 11 44 11
split_gain=7.86923 3.60302 2.65347 2.62457 2.48168 1.86652 1.67954 1.30394 0.761956 1.70901 0.510791 0.793053
threshold=0.23155000000000003 0.3398000000000001 0.79427083333333337 -1.8409875367108268 1.0651000000000002 1.9920949074074075 -0.071371527777777874 0.04764879119059446 0.45804195804195807 -0.093699999999999964 0.73697916666666685 0.40284999999999999
decision_type=2 2 2 2 2 2 2 2 2 2 2 2
left_child=1 3 10 -1 6 -3 -5 8 9 -8 -2 -12
right_child=2 5 -4 4 -6 -7 7 -9 -10 -11 11 -13
leaf_value=0.035989868625428849 0.056576063177679617 -0.05788909207733877 -0.015720964751474161 0.011090261741157787 0.025161044348359668 -0.0061155842669772904 -0.068957054822797612 -0.068420669720986815 0 -0.007826001046930358 0 0.049283096403261548
leaf_weight=3.4085729122161892 5.7909915149211866 5.8415491655468923 1.8880176320672024 2.6824080124497405 3.3675349205732337 2.8221659064292908 1.8933839350938781 1.9904797822237013 2.5335785001516342 3.2750827223062546 1.3529784083366396 1.4551034867763517
leaf_count=17 60 54 13 14 15 19 10 10 13 15 8 16
internal_value=-0.00121451 -0.0152576 0.0353519 -0.0028098 -0.0117005 -0.0418569 -0.0222535 -0.0320111 -0.0212043 -0.0320532 0.0471921 0.0248405
internal_weight=38.3018 27.8148 10.4871 19.151 15.7425 8.66372 12.3749 9.69252 7.70205 5.16847 8.59907 2.80808
internal_count=264 167 97 94 77 73 62 48 38 25 84 24
is_linear=0
shrinkage=0.05


Tree=38
num_leaves=15
num_cat=0
split_feature=11 5 22 43 21 20 4 20 35 3 3 4 27 38
split_gain=7.37283 4.36289 2.54948 2.28233 2.65737 1.62428 3.50524 2.26315 3.62418 1.93207 1.48404 0.854265 0.566271 0.0537616
threshold=0.39500000000000007 0.3398000000000001 8.7500000000000018 1.0000000180025095e-35 2.0950000000000002 2.0900000000000003 0.01219999999999999 2.1850000000000005 0.61250000000000016 0.45715 0.5767000000000001 0.18659999999999996 0.041903935185185322 1532.0379570928105
decision_type=2 2 2 2 2 2 2 2 2 2 2 2 2 2
left_child=1 3 13 5 -5 6 9 12 11 -1 -8 -9 -7 -3
right_child=-2 2 -4 4 -6 7 10 8 -10 -11 -12 -13 -14 -15
leaf_value=0.0078565451926499268 0.053107916193857713 -0.057239038283042415 0.016275450885722183 -0.002938736178312236 0.074745496698882752 -0.064174894628239318 0.058414130621249255 0.0064324449439666356 -0.053502345466144935 -0.053967365348593581 0.0013630334136108179 0.057442410523369174 -0.021721764312206026 -0.026886640651919272
leaf_weight=2.3266607299447113 5.2424900308251372 5.8612331971526128 1.432393357157707 2.0932076126337043 1.9642180576920507 2.4065223634242994 3.017277866601944 2.2915415465831761 1.9359380975365637 2.3435912504792213 2.0961005091667175 1.4969341680407522 2.0402751490473747 1.1315785646438596
leaf_count=11 66 58 7 11 11 12 16 11 10 12 10 10 11 8
internal_value=-0.00118303 -0.0102474 -0.0409829 0.000454729 0.0343592 -0.00632671 0.00781873 -0.0203636 0 -0.0226003 0.0364613 0.0288327 -0.0467024 -0.0534807
internal_weight=37.68 32.4375 8.42521 24.0123 4.05743 19.9548 9.78363 10.1712 5.72441 4.67025 5.11338 3.78848 4.4468 6.99281
internal_count=264 198 73 125 22 103 49 54 31 23 26 21 23 66
is_linear=0
shrinkage=0.05


Tree=39
num_leaves=13
num_cat=0
split_feature=11 5 18 37 7 9 27 31 5 5 39 38
split_gain=6.93701 4.09134 3.83243 2.36665 3.07796 1.78327 1.88232 2.53628 1.35848 2.54462 1.21292 0.0855482
threshold=0.39500000000000007 0.3398000000000001 9.2500000000000018 -0.17599206349206348 1.0606500000000001 275.50000000000006 1.0000000180025095e-35 0.56696428571428581 0.058321965177158132 0.014299999999999953 1483.3430257587272 1532.0379570928105
decision_type=2 2 2 2 2 2 2 2 2 2 2 2
left_child=1 3 11 4 -1 -5 7 8 9 -7 -8 -3
right_child=-2 2 -4 5 -6 6 10 -9 -10 -11 -12 -13
leaf_value=0.070022911967978246 0.052767942763411395 -0.057809532373797927 0.041518463118779464 0.039477523040955115 -0.0013430172062208852 0 -0.060823982875890498 0.04481919800838742 0.0087607538810257918 -0.066482925486654215 -0.0084035859684939776 -0.025956261843984231
leaf_weight=2.4175219237804439 5.0187579281628123 5.9662266224622709 1.0964907780289648 1.614680677652365 3.439505860209465 3.0283408313989657 2.7621720954775801 2.192194126546382 3.6057967320084572 2.4438629075884819 2.2621965408325195 1.1174817830324171
leaf_count=15 66 59 6 8 18 14 14 12 19 12 13 8
internal_value=-0.00113209 -0.009894 -0.0401694 0.000441749 0.0279553 -0.0083839 -0.0136435 -0.00173607 -0.0138891 -0.0296004 -0.0388223 -0.0539118
internal_weight=36.9652 31.9465 8.1802 23.7663 5.85703 17.9092 16.2946 11.2702 9.078 5.4722 5.02437 7.08371
internal_count=264 198 73 125 33 92 84 57 45 26 27 67
is_linear=0
shrinkage=0.05


Tree=40
num_leaves=16
num_cat=0
split_feature=0 5 3 7 40 40 11 44 39 39 0 9 9 39 7
split_gain=6.70238 3.74938 2.78036 4.10102 3.4268 2.48425 3.10818 1.3212 1.30956 2.46693 0.92951 1.56481 1.55533 0.488966 0.363857
threshold=0.80190000000000017 -0.007969972640218868 0.44175000000000003 1.0599500000000004 49.557835956772472 -16.635562081866393 -0.38429999999999986 0.76822916666666685 1519.7009770711088 1511.0007399335884 0.55045000000000011 310.00000000000006 4352.0000000000009 1530.3043009617074 1.05915
decision_type=2 2 2 2 2 2 2 2 2 2 2 2 2 2 2
left_child=1 14 3 -3 -5 6 -4 -6 9 10 11 -7 -13 -2 -1
right_child=13 2 5 4 7 8 -8 -9 -10 -11 -12 12 -14 -15 -16
leaf_value=0.022796623502959388 0.054265410479524837 -0.049852946631227607 -0.052349921718300989 0.060888179644153377 0.021423512169859257 0.0039977371166672734 0.037476853619725518 -0.029918347961288561 -0.070833613745806517 0.018000660700509191 -0.068941553646020323 -0.062353017721243555 0.0010609369515552061 0.0060870312731462102 0.070794230903660271
leaf_weight=1.5610822848975687 4.8370197042822829 2.5244711115956324 1.363622799515724 3.2369422391057014 2.2833569943904877 2.1442819386720604 2.6583835929632249 2.4670805782079697 2.6556268185377112 2.0341955721378318 2.3736465126276016 3.3480047062039375 1.1274869963526724 0.88998877257108677 1.0182898901402948
leaf_count=18 55 16 11 17 12 14 13 12 15 11 14 26 10 7 7
internal_value=-0.00116604 -0.0105721 -0.0160213 0.00392013 0.02194 -0.0280971 0.00527777 -0.00427651 -0.038237 -0.0293719 -0.0407169 -0.028977 -0.0456107 0.0478694 0.0455463
internal_weight=36.5235 30.7965 28.2171 10.5119 7.98738 17.7052 4.02201 4.75044 13.6832 11.0276 8.99342 6.61977 4.47549 5.72701 2.57937
internal_count=258 196 171 57 41 114 24 24 90 75 64 50 36 62 25
is_linear=0
shrinkage=0.05


Tree=41
num_leaves=17
num_cat=0
split_feature=0 5 3 40 39 3 9 39 39 9 38 0 9 9 23 6
split_gain=6.27564 3.47165 2.56846 2.29698 3.07468 2.27268 1.46766 1.23908 2.29543 0.922307 1.65394 0.887832 1.47507 1.49862 0.512064 0.0339111
threshold=0.80190000000000017 -0.007969972640218868 0.44175000000000003 -16.635562081866393 1544.2179273134968 0.42315000000000008 356.50000000000006 1519.7009770711088 1511.0007399335884 306.50000000000006 1519.6802907530021 0.55045000000000011 310.00000000000006 4352.0000000000009 3.1920138888888894 0.15234302550363349
decision_type=2 2 2 2 2 2 2 2 2 2 2 2 2 2 2 2
left_child=1 15 5 4 -4 6 9 8 11 -3 -11 12 -5 -14 -2 -1
right_child=14 2 3 7 -6 -7 -8 -9 -10 10 -12 -13 13 -15 -16 -17
leaf_value=0.022430489505463176 0.054164446884219591 0.0029327972809084718 0.044387432522817134 0.003804537392549324 -0.041615654549062339 0.053886045248499374 0.023378266907794352 -0.069278080053681926 0.01714443724626177 -0.067037735807962184 0 -0.067589347777493355 -0.061438359675590443 0.0010118236199273178 0.0057095197840152977 0.054441822290254072
leaf_weight=1.0770329497754603 4.6082970127463332 2.2403665408492106 2.2155233100056715 2.1455577760934776 1.7623728439211843 1.7789892777800549 2.6040921360254288 2.5835695192217818 2.0339962914586058 1.8991351276636126 1.8752049282193182 2.303852953016758 3.2323805466294289 1.1279468238353727 0.91460695862770069 1.4667247422039507
leaf_count=15 53 12 13 14 11 10 14 15 11 10 11 14 26 10 9 10
internal_value=-0.00110374 -0.0101987 -0.0154898 -0.0272191 0.00497224 0.00374004 -0.00653635 -0.0370918 -0.0284034 -0.0204762 -0.0353789 -0.039555 -0.0279978 -0.044502 0.0472737 0.0441405
internal_weight=35.8696 30.3467 27.803 17.4052 3.9779 10.3978 8.6188 13.4273 10.8437 6.01471 3.77434 8.80974 6.50589 4.36033 5.5229 2.54376
internal_count=258 196 171 114 24 57 47 90 75 33 21 64 50 36 62 25
is_linear=0
shrinkage=0.05


Tree=42
num_leaves=15
num_cat=0
split_feature=4 11 31 2 40 35 11 40 5 7 40 33 40 11
split_gain=5.9142 2.97036 2.75994 2.4894 2.19823 1.78841 1.76169 1.61041 1.60364 1.54181 2.18551 1.26113 0.383557 0.0996857
threshold=0.28910000000000002 -0.38429999999999986 0.44722222222222224 0.55825000000000014 -16.635562081866393 -0.54999999999999993 -0.042066312558115763 42.876153689658288 0.042950000000000023 1.0599500000000004 49.557835956772472 0.77500000000000013 87.726489486302754 -0.18404999999999996
decision_type=2 2 2 2 2 2 2 2 2 2 2 2 2 2
left_child=1 -1 4 7 -3 -6 -7 13 -8 -5 -11 -12 -2 -4
right_child=12 2 3 9 5 6 8 -9 -10 10 11 -13 -14 -15
leaf_value=-0.053273964097186391 0.053261994137838331 0.0579353216719804 -0.038155461711855715 -0.036211435461645715 -0.028644167849322694 0.042598939876155928 -0.038524689262881738 -0.0082970640554483627 0.023111896073180913 0.065125536677127657 -0.034728670629862922 0.019764075764175673 0.0057601560967667706 -0.072059959511733107
leaf_weight=3.3828816041350391 4.4466245844960204 2.1489608734846106 1.6803299188613889 1.9310906194150446 2.997907042503356 3.374986767768859 1.8833340443670787 2.7291107997298241 2.0923183634877205 1.4570716358721254 1.799414314329624 2.2404741197824478 0.76589434221386898 2.3796328604221326
leaf_count=40 58 10 12 15 17 16 12 16 11 10 11 11 7 12
internal_value=-0.0010303 -0.00972374 -0.00384439 -0.0189937 0.0130065 0.00273292 0.0164136 -0.0406564 -0.00508844 0.000418381 0.0145969 -0.00355247 0.0474634 -0.0604841
internal_weight=35.31 30.0975 26.7146 14.2171 12.4975 10.3485 7.35064 6.78907 3.97565 7.42805 5.49696 4.03989 5.21252 4.05996
internal_count=258 193 153 87 66 56 39 40 23 47 32 22 65 24
is_linear=0
shrinkage=0.05


Tree=43
num_leaves=15
num_cat=0
split_feature=0 5 3 20 7 43 24 23 5 5 15 11 23 7
split_gain=5.6237 3.07325 2.26278 3.8547 2.73351 2.0653 1.81201 1.48107 1.2894 2.37374 1.33761 0.914421 0.620862 0.318793
threshold=0.80190000000000017 -0.007969972640218868 0.44175000000000003 2.6250000000000004 1.0609500000000003 1.0000000180025095e-35 1.0830092592592593 2.9166030092592599 0.029841429595983741 0.1782849299446074 2.1150000000000007 -0.18404999999999996 4.014733796296297 1.05915
decision_type=2 2 2 2 2 2 2 2 2 2 2 2 2 2
left_child=1 13 3 4 -3 7 -6 8 -4 10 -10 -11 -2 -1
right_child=12 2 5 -5 6 -7 -8 -9 9 11 -12 -13 -14 -15
leaf_value=0.02021965412173464 0.053566495625344095 -0.017453746743169695 -0.071705615657538843 -0.061618371277864487 0.01232165311344096 0.012130204991385906 0.073551283300546028 0.0070954161665287676 0.026826450133289215 -0.059236281935832615 -0.030588288498504031 -0.003782202632399314 0 0.066337429653835434
leaf_weight=1.4952804446220427 4.4007297903299323 3.1735375225543994 2.6546723544597652 1.7432821467518795 3.1113910228013992 2.7468696609139434 2.2365328967571259 1.719564490020274 2.1151111125946032 4.7393812127411392 1.7702677547931669 1.1283833533525438 0.78230228275060643 0.9750373288989066
leaf_count=18 54 19 13 11 16 17 11 10 10 48 10 6 8 7
internal_value=-0.00100012 -0.00958956 -0.0146287 0.00344525 0.0178959 -0.0258733 0.0397261 -0.0336473 -0.039705 -0.0298481 0 -0.0496523 0.0463754 0.0422404
internal_weight=34.7923 29.6093 27.139 10.2647 8.52146 16.8742 5.34792 14.1274 12.4078 9.75314 3.88538 5.86776 5.18303 2.47032
internal_count=258 196 171 57 46 114 27 97 87 74 20 54 62 25
is_linear=0
shrinkage=0.05


Tree=44
num_leaves=15
num_cat=0
split_feature=0 5 11 5 40 7 2 44 6 5 3 23 38 9
split_gain=5.26355 2.84592 2.13847 2.97203 3.5053 2.77568 1.80374 2.5178 1.99141 1.29094 0.881461 0.606948 0.30936 0.01148
threshold=0.80190000000000017 -0.007969972640218868 -0.38429999999999986 0.029841429595983741 6.5549568800526012 1.0599500000000004 0.56080000000000008 0.76822916666666685 0.040958641917730819 0.012649999999999996 0.50710710659898484 4.014733796296297 1518.9591632203749 4290.5000000000009
decision_type=2 2 2 2 2 2 2 2 2 2 2 2 2 2
left_child=1 13 -3 9 10 12 8 -8 -7 -4 -5 -2 -6 -1
right_child=11 2 3 4 5 6 7 -9 -10 -11 -12 -13 -14 -15
leaf_value=0.026206820817584749 0.053177454587436328 -0.052543949111969558 -0.013120845454901622 0.013883762382504886 -0.061373616725611035 0.0045084940527712813 0.044016848960077487 -0.017934195371907127 -0.063523273513188219 -0.072258123499646471 0.058447396609941638 0 -0.021522961911508424 0.056799150206242835
leaf_weight=1.5621590316295653 4.2166697420179835 3.1412950865924385 2.0350209921598461 3.0706061795353916 2.4263949543237682 2.1870258003473269 3.6228903830051422 2.7156372964382172 1.7876946739852426 2.2073834612965584 2.2028920203447342 0.78230228275060643 1.3791778832674024 0.8737487643957137
leaf_count=16 54 40 10 17 17 11 19 14 12 11 10 8 10 9
internal_value=-0.000939033 -0.00923457 -0.0141223 -0.00860514 0 -0.0132302 0 0.0168321 -0.0256708 -0.0459977 0.034171 0.0457865 -0.0491324 0.0409589
internal_weight=34.2109 29.2119 26.776 23.6347 19.3923 14.1188 10.3132 6.33853 3.97472 4.2424 5.2735 4.99897 3.80557 2.43591
internal_count=258 196 171 131 110 83 56 33 23 21 27 62 27 25
is_linear=0
shrinkage=0.05


Tree=45
num_leaves=13
num_cat=0
split_feature=11 6 23 20 3 16 27 38 20 36 7 36
split_gain=4.8781 3.32311 2.94695 2.97118 2.58901 2.55849 2.36847 1.66618 1.58535 1.50856 0.956094 0.311679
threshold=0.39500000000000007 0.59795088840681576 1.867951388888889 2.2250000000000005 0.40545000000000003 2.2250000000000005 -0.91742476851851851 1471.547696279873 2.4250000000000003 -0.3166666666666666 1.0600500000000002 -1.0000000180025095e-35
decision_type=2 2 2 2 2 2 2 2 2 2 2 2
left_child=1 2 5 4 -4 10 -7 -6 -5 -9 -1 -8
right_child=-2 -3 3 8 7 6 11 9 -10 -11 -12 -13
leaf_value=-0.036149441154703012 0.051205182345438562 -0.062059995940654082 0.013733921704533209 0.042614273970046732 0 -0.011032758498450599 0.03014109722445979 -0.010060153003692224 -0.010272994907854171 -0.064102368430695861 0.0074377637505423496 0.070465443962239291
leaf_weight=1.763666331768041 3.9540723673999301 2.4328493848443022 2.6241378635168102 2.6485637426376334 1.9467334076762179 1.4760222285985944 1.4924847334623335 2.0184407308697736 2.627611193805933 5.6724940985441172 3.4593712612986565 2.8760049715638161
leaf_count=11 65 27 13 17 12 10 9 14 17 40 17 16
internal_value=-0.000237789 -0.00709523 -0.00204649 -0.0149204 -0.0284969 0.0178571 0.0404267 -0.0405319 0.0156445 -0.0508722 -0.00674366 0.0587905
internal_weight=34.9925 31.0384 28.6055 17.538 12.2618 11.0675 5.84451 9.63767 5.27617 7.69093 5.22304 4.36849
internal_count=268 203 176 113 79 63 35 66 34 54 28 25
is_linear=0
shrinkage=0.05


Tree=46
num_leaves=15
num_cat=0
split_feature=11 6 23 20 3 10 28 36 31 20 1 5 23 6
split_gain=4.59973 3.13762 2.6926 2.72385 2.40267 2.34516 2.04457 1.93753 1.49241 1.45682 1.30425 1.09235 0.421357 0.00699318
threshold=0.39500000000000007 0.59795088840681576 1.867951388888889 2.2250000000000005 0.40545000000000003 0.089999999999999872 -1.0000000180025095e-35 -0.47222222222222215 0.4188596491228071 2.4250000000000003 0.72055000000000013 0.049350000000000012 2.9846527777777783 0.063705189856801667
decision_type=2 2 2 2 2 2 2 2 2 2 2 2 2 2
left_child=1 2 5 4 -4 11 -7 -8 10 -5 -6 -1 -10 -9
right_child=-2 -3 3 9 8 6 7 13 12 -11 -12 -13 -14 -15
leaf_value=-0.039880759130305164 0.050911926088651784 -0.061239541682263671 0.013068006889093537 0.041022028190586868 0.0135435641685792 -0.0090991809865221349 -0.0049766281510161478 0.078560464049859738 -0.06463177052287114 -0.0098055490751855264 -0.041514509250949211 0.011009154973696002 -0.022038274732338499 0.047652415639505855
leaf_weight=1.9000746533274706 3.7829118594527236 2.345725178718566 2.6250364780426052 2.6184602975845328 1.9389775916933998 1.8215079568326471 1.1074736565351484 1.9839840084314344 4.2368881888687611 2.6201912797987461 2.005772590637207 1.9347941577434538 1.290652349591255 2.2493008226156235
leaf_count=9 65 27 13 17 11 12 8 9 32 17 15 11 8 14
internal_value=-0.00021918 -0.00683137 -0.00195148 -0.0143553 -0.0274767 0.0171046 0.0340356 0.0495628 -0.0392543 0.0149558 -0.0135497 -0.0133075 -0.0561432 0.0647704
internal_weight=34.4618 30.6788 28.3331 17.336 12.0973 10.9971 7.16227 5.34076 9.47229 5.23865 3.94475 3.83487 5.52754 4.23328
internal_count=268 203 176 113 79 63 43 31 66 34 26 20 40 23
is_linear=0
shrinkage=0.05


Tree=47
num_leaves=14
num_cat=0
split_feature=11 6 23 20 3 16 28 31 20 1 7 23 5
split_gain=4.34062 2.96114 2.46326 2.50549 2.24075 2.18365 1.54344 1.41364 1.33852 1.21142 0.885518 0.423225 0.368007
threshold=0.39500000000000007 0.59795088840681576 1.867951388888889 2.2250000000000005 0.40545000000000003 2.2250000000000005 -1.0000000180025095e-35 0.4188596491228071 2.4250000000000003 0.72055000000000013 1.0600500000000002 2.9846527777777783 0.29375000000000007
decision_type=2 2 2 2 2 2 2 2 2 2 2 2 2
left_child=1 2 5 4 -4 10 -7 9 -5 -6 -1 -9 -8
right_child=-2 -3 3 8 7 6 12 11 -10 -11 -12 -13 -14
leaf_value=-0.034853162433726013 0.050623818173903115 -0.060440072915443489 0.012435131915854859 0.039480501835338952 0.012923805194992971 -0.0016423900081596777 0.06685580749243171 -0.06357203130288086 -0.0093583453932689423 -0.040395350162620136 0.0072712138670415621 -0.021038634214758406 0.026349873585107049
leaf_weight=1.7406584396958402 3.6189364455640307 2.2613816335797301 2.6257732510566738 2.5893246345221987 1.9352554976940139 1.5799785107374189 2.5358545333147049 4.0973599031567574 2.6130956336855888 1.9621677398681638 3.4514942243695259 1.2891682460904119 1.6248643547296522
leaf_count=11 65 27 13 17 11 10 15 32 17 15 17 8 10
internal_value=-0.000213075 -0.00659456 -0.00187581 -0.0138494 -0.0265755 0.0163678 0.0374806 -0.0381566 0.0142927 -0.0130081 -0.00629783 -0.0548728 0.0532004
internal_weight=33.9253 30.3064 28.045 17.1121 11.9097 10.9329 5.7407 9.28395 5.20242 3.89742 5.19215 5.38653 4.16072
internal_count=268 203 176 113 79 63 35 66 34 26 28 40 25
is_linear=0
shrinkage=0.05


Tree=48
num_leaves=15
num_cat=0
split_feature=11 6 1 6 3 33 35 11 33 22 21 26 31 20
split_gain=4.09649 2.79532 2.26328 2.15332 2.29591 2.17221 2.29489 1.90065 1.84165 1.67181 1.47494 1.31919 1.03071 0.453124
threshold=0.39500000000000007 0.59795088840681576 0.91560000000000008 0.078071934814594249 0.4484652466367714 0.22500000000000003 0.2678571428571429 -0.042066312558115763 0.61250000000000016 6.7500000000000009 2.1450000000000005 1.0000000180025095e-35 0.4188596491228071 2.3250000000000006
decision_type=2 2 2 2 2 2 2 2 2 2 2 2 2 2
left_child=1 2 3 5 -5 -1 8 -6 11 10 -8 12 -7 -4
right_child=-2 -3 13 4 7 6 9 -9 -10 -11 -12 -13 -14 -15
leaf_value=-0.055959609206463978 0.050340098472084066 -0.059660635710263567 -0.053868209478639732 0.072741006611104386 0.04580092587088698 0.0052456210229614424 0.016448426433045813 -0.02912898276156799 0.052309242325685713 -0.055816351752555164 -0.035941187592002433 0.029826819658841038 -0.040473865910963705 -0.0053177059925656883
leaf_weight=1.7442834749817979 3.4619027562439433 2.1797597743570796 2.1760315559804435 1.9747631326317776 1.4281691312789915 2.8446221128106135 3.2733870670199385 1.763123691082001 2.5785676240921021 2.1671223044395447 2.096120648086071 2.8761364296078682 1.8683353662490843 0.94798778742551792
leaf_count=10 65 27 22 9 9 18 19 11 15 13 12 17 12 9
internal_value=-0.00020228 -0.00636539 -0.00179847 0.00316054 0.0316444 -0.00427291 0.000824295 0.00325728 0.016524 -0.0196404 -0.0033722 0.00319269 -0.0123042 -0.0413083
internal_weight=33.3803 29.9184 27.7387 24.6146 5.16606 19.4486 17.7043 3.19129 10.1677 7.53663 5.36951 7.58909 4.71296 3.12402
internal_count=268 203 176 145 29 116 106 20 62 44 31 47 30 31
is_linear=0
shrinkage=0.05


Tree=49
num_leaves=15
num_cat=0
split_feature=11 11 5 10 3 35 43 1 33 11 39 3 4 37
split_gain=3.86895 2.29392 1.42655 2.22783 1.7755 1.54714 2.0611 2.75653 1.23966 1.1409 1.09705 2.17669 1.99741 0.162736
threshold=0.39500000000000007 -0.38429999999999986 0.030700000000000036 0.089999999999999872 0.55791224205242618 -0.18333333333333332 1.0000000180025095e-35 0.70660000000000012 0.46428571428571436 -0.25431763236763233 1511.0007399335884 0.43855000000000005 0.0014000000000000126 0.15972222222222224
decision_type=2 2 2 2 2 2 2 2 2 2 2 2 2 2
left_child=1 -1 3 -3 -5 6 7 -4 -9 13 12 -12 -11 -7
right_child=-2 2 5 4 -6 9 -8 8 -10 10 11 -13 -14 -15
leaf_value=-0.050688842414537361 0.050060044957946408 -0.052781677507597817 0.048882252001764805 -0.025180481703784893 0.037942632861983301 -0.050670854036036023 0.063325629938883563 -0.043868878533916029 0.011084974087883233 0.016379685438307211 0.066395462691166363 -0.011103025325575666 -0.039468813191037039 -0.011088128810440724
leaf_weight=2.5422308668494251 3.311569206416606 3.0082664191722897 2.2549491375684791 2.401574045419693 1.8904360458254812 1.2953772321343469 2.1204059608280659 2.1612678170204167 1.6097377985715864 3.0170323401689423 1.532990947365761 1.7862466052174566 3.0574382692575455 0.87650000303983677
leaf_count=40 65 16 13 14 11 12 13 15 9 14 8 12 18 8
internal_value=-0.00020676 -0.00615757 -0.00161063 -0.020476 0.00171483 0.00519183 0.0218856 0.0056919 -0.0194386 -0.00622487 0.000939129 0.0241224 -0.0111045 -0.0380886
internal_weight=32.866 29.5545 27.0122 7.30028 4.29201 19.7119 8.14636 6.02595 3.77101 11.5656 9.39371 3.31924 6.07447 2.17188
internal_count=268 203 163 41 25 122 50 37 24 72 52 20 32 20
is_linear=0
shrinkage=0.05


end of trees

feature_importances:
Column_11=100
Column_7=47
Column_5=37
Column_23=36
Column_3=32
Column_16=28
Column_6=25
Column_20=24
Column_24=22
Column_44=22
Column_9=21
Column_39=21
Column_38=20
Column_40=20
Column_2=19
Column_22=19
Column_27=19
Column_35=19
Column_4=17
Column_0=16
Column_1=12
Column_21=12
Column_15=11
Column_33=10
Column_37=10
Column_32=9
Column_31=8
Column_36=8
Column_18=6
Column_29=5
Column_10=4
Column_43=4
Column_28=2
Column_30=2
Column_34=2
Column_26=1
Column_41=1

parameters:
[boosting: gbdt]
[objective: binary]
[metric: binary_logloss]
[tree_learner: serial]
[device_type: cpu]
[data_sample_strategy: bagging]
[data: ]
[valid: ]
[num_iterations: 50]
[learning_rate: 0.05]
[num_leaves: 31]
[num_threads: -1]
[seed: 0]
[deterministic: 0]
[force_col_wise: 0]
[force_row_wise: 0]
[histogram_pool_size: -1]
[max_depth: -1]
[min_data_in_leaf: 10]
[min_sum_hessian_in_leaf: 0.001]
[bagging_fraction: 0.8]
[pos_bagging_fraction: 1]
[neg_bagging_fraction: 1]
[bagging_freq: 5]
[bagging_seed: 3]
[bagging_by_query: 0]
[feature_fraction: 0.8]
[feature_fraction_bynode: 1]
[feature_fraction_seed: 2]
[extra_trees: 0]
[extra_seed: 6]
[early_stopping_round: 0]
[early_stopping_min_delta: 0]
[first_metric_only: 0]
[max_delta_step: 0]
[lambda_l1: 0.1]
[lambda_l2: 0.1]
[linear_lambda: 0]
[min_gain_to_split: 0]
[drop_rate: 0.1]
[max_drop: 50]
[skip_drop: 0.5]
[xgboost_dart_mode: 0]
[uniform_drop: 0]
[drop_seed: 4]
[top_rate: 0.2]
[other_rate: 0.1]
[min_data_per_group: 100]
[max_cat_threshold: 32]
[cat_l2: 10]
[cat_smooth: 10]
[max_cat_to_onehot: 4]
[top_k: 20]
[monotone_constraints: ]
[monotone_constraints_method: basic]
[monotone_penalty: 0]
[feature_contri: ]
[forcedsplits_filename: ]
[refit_decay_rate: 0.9]
[cegb_tradeoff: 1]
[cegb_penalty_split: 0]
[cegb_penalty_feature_lazy: ]
[cegb_penalty_feature_coupled: ]
[path_smooth: 0]
[interaction_constraints: ]
[verbosity: -1]
[saved_feature_importance_type: 0]
[use_quantized_grad: 0]
[num_grad_quant_bins: 4]
[quant_train_renew_leaf: 0]
[stochastic_rounding: 1]
[linear_tree: 0]
[max_bin: 255]
[max_bin_by_feature: ]
[min_data_in_bin: 3]
[bin_construct_sample_cnt: 200000]
[data_random_seed: 1]
[is_enable_sparse: 1]
[enable_bundle: 1]
[use_missing: 1]
[zero_as_missing: 0]
[feature_pre_filter: 1]
[pre_partition: 0]
[two_round: 0]
[header: 0]
[label_column: ]
[weight_column: ]
[group_column: ]
[ignore_column: ]
[categorical_feature: ]
[forcedbins_filename: ]
[precise_float_parser: 0]
[parser_config_file: ]
[objective_seed: 5]
[num_class: 1]
[is_unbalance: 0]
[scale_pos_weight: 1]
[sigmoid: 1]
[boost_from_average: 1]
[reg_sqrt: 0]
[alpha: 0.9]
[fair_c: 1]
[poisson_max_delta_step: 0.7]
[tweedie_variance_power: 1.5]
[lambdarank_truncation_level: 30]
[lambdarank_norm: 1]
[label_gain: ]
[lambdarank_position_bias_regularization: 0]
[eval_at: ]
[multi_error_top_k: 1]
[auc_mu_weights: ]
[num_machines: 1]
[local_listen_port: 12400]
[time_out: 120]
[machine_list_filename: ]
[machines: ]
[gpu_platform_id: -1]
[gpu_device_id: -1]
[gpu_use_dp: 0]
[num_gpu: 1]

end of parameters

pandas_categorical:null
