tree
version=v4
num_class=3
num_tree_per_iteration=3
label_index=0
max_feature_idx=38
objective=multiclass num_class:3
feature_names=Column_0 Column_1 Column_2 Column_3 Column_4 Column_5 Column_6 Column_7 Column_8 Column_9 Column_10 Column_11 Column_12 Column_13 Column_14 Column_15 Column_16 Column_17 Column_18 Column_19 Column_20 Column_21 Column_22 Column_23 Column_24 Column_25 Column_26 Column_27 Column_28 Column_29 Column_30 Column_31 Column_32 Column_33 Column_34 Column_35 Column_36 Column_37 Column_38
feature_infos=[0.038461539894342422:0.96153843402862549] [0.058823529630899429:0.52356022596359253] [0.029411764815449715:0.93457943201065063] [0.02536783367395401:0.96153843402862549] [0.055157199501991272:0.50761419534683228] [0.019642505794763565:0.92592591047286987] [0.034530386328697205:0.96153843402862549] [0.060864273458719254:0.53191488981246948] [0.024260068312287331:0.92592591047286987] [0.02380952425301075:0.62820512056350708] [0.029411764815449715:0.36363637447357178] [0.00027027027681469917:0.25356021523475647] [0.027616279199719429:0.1666666716337204] [0:0.29875493049621582] [0.0045773573219776154:0.091715976595878601] [0.0035796104930341244:0.066268637776374817] [0.0038408779073506594:0.076204024255275726] none [0.36764705181121826:0.86206895112991333] [0.19723865389823914:0.68027210235595703] [0.46728971600532532:0.57471263408660889] [0.46948355436325073:0.57142859697341919] [0.41481480002403259:0.46918490529060364] [0.21968190371990204:0.31851851940155029] [2.1933293342590332:3.1580517292022705] [0.083333335816860199:1] none [0.11053404957056046:2.6656889915466309] [0.066713497042655945:2.1572117805480957] [-2.0466775894165039:2.5989754199981689] [-0.45586073398590088:0.43275928497314453] [-0.17169712483882904:0.23409132659435272] [-0.58500272035598755:0.2985091507434845] [-0.43072333931922913:0.51657849550247192] [0.082219719886779785:3.4589066505432129] [0:0.88571429252624512] [0.030556457117199898:0.99750626087188721] [0.5:0.99354243278503418] [0.067873306572437286:1]
tree_sizes=2631 2217 2748 2623 2636 2819 2720 2587 2943 2700 2426 2730 2942 2620 2835 2738 2426 2496 2941 2869 2948 2834 2097 2838 3025 2641 2914 3062 2411 2730 2520 2432 2622 2627 1993 2505 2624 2408 2367 2849 2638 2846 2508 2215 2629 2918 2614 3041 2502 2424 2842 2748 1988 2843 2749 2205 2729 2520 2328 3067 2529 1877 2730 2641 2421 2860 2617 2185 2831 2929 2635 2714 2948 1882 2750 3197 1672 2626 2599 2202 2413 2405 1853 2751 2958 1863 2532 2440 2757 2715 2176 2316 1952 2524 2390 2181 2520 1996 2069 2528 2529 2183 2415 2762 2191 2214 1755 2533 2325 1219 2323 2450 2114 2416 1666 1447 2635 2103 1236 2429 1784 2424 2430 1885 2078 2544 1894 1345 1561 2011 2209 2221 1888 2112 2431 2559 1017 2310 2226 1239 2316 2428 1011 2098 2535 994 2422 2306 1019 2219 1457 2516 1998 1566 2655 2001 1667 2855 2323 1436 2974 1779 1681 1235 1973 2108 1328 1536 2107 1683 1455 1969 1439 1787 2003 1241 1887 2202 1105 1646 2298 1327 1557 1573 1543 1552 1677 1457 1548

Tree=0
num_leaves=24
num_cat=0
split_feature=3 3 3 30 10 5 38 8 13 16 15 34 13 12 37 36 34 0 37 3 5 37 14
split_gain=725.944 171.429 105.039 28.1295 15.6061 14.3566 10.6135 8.6774 4.95375 4.9432 4.89908 4.82549 4.4054 3.46693 3.07244 2.17906 2.64558 2.00161 2.01157 1.94641 1.94309 1.92338 2.38832
threshold=0.51414221525192272 0.3478271365165711 0.67797389626503002 0.23890746384859088 0.26491229236125952 0.061087446287274368 0.61882615089416515 0.3478271365165711 0.029873966239392761 0.020464069209992889 0.012794306967407467 1.3811206221580508 0.026433040387928489 0.057156214490532882 0.94662311673164379 0.68111145496368419 0.63889104127883922 0.17786561697721484 0.94764292240142833 0.4773296862840653 0.43196745216846472 0.96586552262306224 0.026003857143223289
decision_type=2 2 2 2 2 2 2 2 2 2 2 2 2 2 2 2 2 2 2 2 2 2 2
left_child=1 3 6 15 8 -4 9 12 -3 10 -2 14 -6 -9 -8 16 -1 -5 -19 -10 -17 22 -7
right_child=2 4 5 17 7 21 11 13 19 -11 -12 -13 -14 -15 -16 20 -18 18 -20 -21 -22 -23 -24
leaf_value=-1.1198141741167358 -1.0759561399986963 -1.0819472602812652 -1.0240760711978483 -1.1379510985345584 -1.0939019400375871 -1.0567872852407874 -1.086416171538815 -1.1141023108836421 -1.1016295090592427 -1.0835411434839053 -1.0642382764762131 -1.0960919313869779 -1.1023478750414917 -1.1051075193065287 -1.0766381834730885 -1.1181160864371948 -1.1293641972746284 -1.1369802906209241 -1.1240297041089435 -1.092096217836005 -1.1082291063182912 -1.0413644622075962 -1.0433835080007352
leaf_weight=423.89415833353996 211.30758139491081 98.349442511796951 58.951257675886154 269.61427423357964 183.0074343085289 258.69748106598854 175.25561562180519 203.13493072986603 79.769825041294098 96.600737154483795 197.97161659598351 69.616352736949921 913.02052044868469 259.93556588888168 188.00164216756821 402.805251121521 110.84773787856102 70.448353677988052 102.45364490151405 146.27942842245102 70.810334295034409 60.944607734680176 63.228679478168488
leaf_count=1211 669 307 215 745 554 863 541 580 236 300 651 208 2690 766 596 1142 305 191 291 442 207 212 220
internal_value=-1.09862 -1.11125 -1.06814 -1.12417 -1.10128 -1.04801 -1.07767 -1.10337 -1.09134 -1.07267 -1.07019 -1.08359 -1.10091 -1.10912 -1.08126 -1.11948 -1.12187 -1.13476 -1.12955 -1.09557 -1.1167 -1.05185 -1.054
internal_weight=4714.95 3334.37 1380.58 1450.87 1883.5 441.822 938.754 1559.1 324.399 505.88 409.279 432.874 1096.03 463.07 363.257 1008.36 534.742 442.516 172.902 226.049 473.616 382.871 321.926
internal_count=14142 9667 4475 4092 5575 1510 2965 4590 985 1620 1320 1345 3244 1346 1137 2865 1516 1227 482 678 1349 1295 1083
is_linear=0
shrinkage=1


Tree=1
num_leaves=20
num_cat=0
split_feature=4 4 30 12 34 13 4 3 4 3 13 38 2 27 22 15 32 15 12
split_gain=137.956 24.6008 15.1849 10.4163 6.99717 6.41141 6.66099 6.37837 6.02998 5.89755 6.81847 8.50212 5.29052 4.04204 3.77453 3.54421 3.24436 2.99395 2.15048
threshold=0.26143835484981542 0.23175001889467242 0.14520172029733661 0.073610119521617903 0.2535932213068009 0.03906641528010369 0.30349084734916693 0.26702317595481878 0.28208801150321966 0.54496318101882946 0.034463718533515937 0.96120965480804454 0.069047622382640853 2.0228154659271245 0.44370236992836004 0.01292280061170459 0.040021223947405822 0.012232086621224882 0.057414224371314056
decision_type=2 2 2 2 2 2 2 2 2 2 2 2 2 2 2 2 2 2 2
left_child=1 4 9 7 -1 6 8 14 -4 10 16 -12 -6 -11 -3 -9 -2 -14 -15
right_child=2 3 5 -5 12 -7 -8 15 -10 13 11 -13 17 18 -16 -17 -18 -19 -20
leaf_value=-1.1302037366032442 -1.0941046983832503 -1.1161437434530903 -1.1014698983722053 -1.1192061758891472 -1.127526169302844 -1.0915882232872542 -1.0912505156029828 -1.0938002524257451 -1.1174888681381245 -1.109054849149264 -1.085730343955428 -1.0973374698545471 -1.1091666943592728 -1.087564460351794 -1.101537730470141 -1.1022049104027727 -1.0864601938416298 -1.1158379408517991 -1.1000365882726537
leaf_weight=77.915635198354721 904.75516092777252 94.681537389755249 147.01601698994637 91.669781982898712 70.962195664644241 142.79204487800598 73.484847545623779 234.09061712026596 102.86555054783821 64.814443945884705 1108.5520369410515 189.74230733513832 344.4091457426548 66.942506104707718 92.060471147298813 268.09942880272865 170.71589377522469 404.952308177948 64.424414277076721
leaf_count=217 2676 269 416 284 254 399 207 719 299 205 3238 552 1086 205 257 837 516 1301 205
internal_value=-1.09843 -1.10992 -1.09206 -1.10338 -1.11557 -1.10032 -1.10426 -1.10122 -1.10819 -1.09055 -1.08987 -1.08741 -1.11413 -1.09876 -1.1091 -1.09834 -1.09286 -1.11281 -1.09385
internal_weight=4714.95 1678.84 3036.11 780.602 898.239 466.158 323.366 688.932 249.882 2569.95 2373.77 1298.29 820.324 196.181 186.742 502.19 1075.47 749.361 131.367
internal_count=14142 5224 8918 2366 2858 1321 922 2082 715 7597 6982 3790 2641 615 526 1556 3192 2387 410
is_linear=0
shrinkage=1


Tree=2
num_leaves=25
num_cat=0
split_feature=8 5 5 5 33 33 8 31 31 14 37 15 4 2 36 14 10 14 34 1 38 35 35 7
split_gain=750.471 169.371 109.413 31.9145 23.8641 16.4011 10.8358 8.27933 6.9353 7.52844 6.34154 5.62018 4.8923 4.37036 4.16299 4.1437 4.12498 4.04149 4.6662 3.50357 2.5439 3.67707 1.54886 0.871974
threshold=0.37807318568229681 0.57307061553001415 0.24360572546720508 0.15372799336910251 -0.13337830454111096 -0.0023968106834217902 0.64725595712661754 -0.030621544457972046 1.0000000180025095e-35 0.016810255125164989 0.9615997076034547 0.016917653381824497 0.2773930579423905 0.43961352109909063 0.30404560267925268 0.015732852742075924 0.23312050104141238 0.025013549253344539 1.3112249374389651 0.31009615957736975 0.36786819994449621 0.49085932970047003 0.72028967738151561 0.23724825680255893
decision_type=2 2 2 2 2 2 2 2 2 2 2 2 2 2 2 2 2 2 2 2 2 2 2 2
left_child=2 4 3 22 7 12 14 -2 13 -10 11 -7 -4 -6 -3 -14 -9 19 -19 -5 -8 -22 23 -1
right_child=1 6 5 17 8 10 20 16 9 -11 -12 -13 15 -15 -16 -17 -18 18 -20 -21 21 -23 -24 -25
leaf_value=-1.1299156995040931 -1.0842888197566758 -1.0640881487867719 -1.0865147941170219 -1.1172331159437001 -1.0857043156828976 -1.1101181754532159 -1.0256170090832546 -1.0792833123338641 -1.0835095932179239 -1.1014565964172576 -1.1222292708172485 -1.1012786288115937 -1.1043166843994001 -1.0713968495918662 -1.0456086941023808 -1.0964369157277722 -1.0665891335609989 -1.0986122630540232 -1.1174204187525416 -1.1285933616615687 -1.0324081556544515 -1.0507761249945193 -1.1417361700990156 -1.1384660439385601
leaf_weight=417.50834009051323 130.35363245010376 71.454965263605118 74.705208241939545 703.69356599450111 309.39338210225105 566.48264247179031 76.321763217449188 97.408129960298538 98.759373694658279 137.59687471389771 79.608869761228561 275.89344370365143 302.20569092035294 70.529824793338776 89.650307387113571 365.85378161072731 333.17031660676003 63.169800460338593 70.740339159965515 86.087721645832062 89.222863435745239 74.430363953113556 62.053010910749435 68.65237221121788
leaf_count=1408 370 198 221 2209 891 1694 211 278 285 389 244 804 892 202 253 1066 942 199 226 263 248 206 224 219
internal_value=-1.09878 -1.07067 -1.11294 -1.12287 -1.08028 -1.10414 -1.0426 -1.07278 -1.08716 -1.09405 -1.10859 -1.10726 -1.09861 -1.08295 -1.05352 -1.09997 -1.06938 -1.11712 -1.10865 -1.11852 -1.03548 -1.04044 -1.13249 -1.13121
internal_weight=4714.95 1578.29 3136.65 1471.91 1177.21 1664.75 401.08 560.932 616.279 236.356 921.985 842.376 742.765 379.923 161.105 668.059 430.578 923.691 133.91 789.781 239.975 163.653 548.214 486.161
internal_count=14142 4473 9669 4748 3357 4921 1116 1590 1767 674 2742 2498 2179 1093 451 1958 1220 2897 425 2472 665 454 1851 1627
is_linear=0
shrinkage=1


Tree=3
num_leaves=23
num_cat=0
split_feature=27 3 27 6 5 5 35 7 27 15 13 31 37 3 31 4 15 13 27 33 34 31
split_gain=651.249 142.792 105.805 23.7801 14.2363 11.2847 10.2565 4.63337 5.41045 4.57241 6.11831 4.34082 4.07511 3.8379 3.28701 3.13619 3.09314 3.08596 2.71538 3.78563 1.77367 0.160614
threshold=1.830922603607178 0.34305419027805334 2.2309498786926274 0.19782412797212603 0.061087446287274368 0.31796583533287054 0.29779669642448431 0.23446691036224368 2.1314368247985844 0.017337362281978134 0.030433370731770996 0.036214439198374755 0.94427672028541576 0.42105449736118322 0.095794018357992186 0.31898008286952978 0.010076479986310007 0.042090218514204032 1.1141770482063296 -0.083498816937208162 0.63889104127883922 0.041275588795542724
decision_type=2 2 2 2 2 2 2 2 2 2 2 2 2 2 2 2 2 2 2 2 2 2
left_child=1 3 6 21 -4 12 9 -8 -9 10 -2 -6 17 16 -13 -14 -7 -3 20 -20 -5 -1
right_child=2 5 4 18 11 13 7 8 -10 -11 -12 14 15 -15 -16 -17 -18 -19 19 -21 -22 -23
leaf_value=-0.033302397301220261 0.017529011003431235 -0.0085543836745854192 0.068559445304609543 -0.022013723823062215 0.02866123256370991 0.00034010921799653489 0.032346386658785108 0.022886619508830766 0.010113778391301011 0.020916392822800139 0.003515092178460215 0.047403530346254781 0.0012923892619793374 0.0025410920907943104 0.035718057456444394 0.01234814353125847 -0.010345113123357789 -0.0003392805354926092 -0.015196380030166858 -0.02763600397479743 -0.030023589389647443 -0.03929445642055833
leaf_weight=142.47532758116722 124.52174720168114 180.51574832201004 60.964115560054779 521.58451384305954 68.605128258466721 70.643383264541626 95.145400613546371 339.96327465772629 121.96802622079849 102.96718928217888 223.63186049461365 274.91210189461708 431.32948389649391 72.617608428001404 118.98021930456161 76.581507563591003 641.60187059640884 328.93341007828712 332.63377463817596 84.818672716617584 110.69879084825516 187.5445231795311
leaf_count=405 388 524 215 1501 218 213 309 1073 370 324 668 921 1287 221 385 238 1869 979 963 235 309 527
internal_value=-1.05522e-05 -0.0129099 0.0267666 -0.0250152 0.0450275 -0.00362394 0.017243 0.0218346 0.0195827 0.0114997 0.00861701 0.041801 -0.000123144 -0.00812697 0.0439869 0.00301902 -0.00925074 -0.00330474 -0.0212589 -0.0178137 -0.0234782 -0.0368375
internal_weight=4713.64 3181.98 1531.66 1379.76 523.462 1802.22 1008.2 557.077 461.931 451.121 348.154 462.497 1017.36 784.863 393.892 507.911 712.245 509.449 1049.74 417.452 632.283 330.02
internal_count=14142 9271 4871 3940 1739 5331 3132 1752 1443 1380 1056 1524 3028 2303 1306 1525 2082 1503 3008 1198 1810 932
is_linear=0
shrinkage=0.05


Tree=4
num_leaves=23
num_cat=0
split_feature=7 7 30 14 22 6 14 6 13 7 12 7 24 32 33 13 15 24 1 12 15 14
split_gain=121.123 24.0592 15.4523 9.84192 11.1008 6.99883 6.71072 6.54123 6.34358 5.46969 6.14044 4.82403 4.69435 6.43962 4.68782 4.17146 4.08504 3.7729 3.48013 3.225 3.05167 2.62128
threshold=0.26990601420402532 0.23557158559560779 0.14520172029733661 0.015668104402720932 0.45003671944141393 0.26281255483627325 0.024610309861600402 0.11229677870869638 0.03906641528010369 0.31796583533287054 0.06494502350687982 0.30349084734916693 2.8726851940155034 0.0080792820081114786 0.39966337382793432 0.034463718533515937 0.013023664243519308 2.9627956151962285 0.28991597890853887 0.069698207080364241 0.015098772011697294 0.017519319429993633
decision_type=2 2 2 2 2 2 2 2 2 2 2 2 2 2 2 2 2 2 2 2 2 2
left_child=1 7 6 4 5 -3 12 -1 11 10 -8 18 15 -14 17 -2 -6 -9 -4 21 -10 -5
right_child=2 3 8 19 16 -7 9 14 20 -11 -12 -13 13 -15 -16 -17 -18 -19 -20 -21 -22 -23
leaf_value=-0.03239140668208753 0.0070200856721485119 -0.030555844406280886 -0.005683206684528039 0.0090028075829113857 0.0038829044126145774 -0.010767339941923415 0.0021329892011450603 -0.016055375518808795 0.013589203155924929 0.011361743844112893 -0.017211327784600376 0.0027396557146088223 2.8439589212010183e-05 0.011740627189316885 -0.027674764762970767 0.011980366026373056 -0.01139692501027576 -0.0073872636988027568 -0.019627339352690829 -0.0080869523489543443 -0.00060729258666734497 -0.00020588273204773805
leaf_weight=62.620480448007584 808.28386196494102 78.46624031662941 136.83895462751389 102.66081061959267 117.09646412730217 118.84779700636864 106.12104403972626 519.72795897722244 71.119638085365295 71.494860917329788 64.478699207305908 94.299483150243759 332.76341551542282 184.51982146501541 72.008655458688736 991.94733250141144 68.251704454421997 183.63141059875488 72.728507786989212 95.01742747426033 73.47695592045784 288.40832298994064
leaf_count=176 2397 226 391 302 343 375 320 1678 197 209 203 266 973 546 263 2889 207 579 213 298 206 885
internal_value=0.000181249 -0.0104508 0.00622276 -0.00457645 -0.0105696 -0.0188204 0.00772482 -0.0165046 -0.00229364 -9.46476e-05 -0.00506107 -0.00643332 0.00855229 0.00426187 -0.0151693 0.00976971 -0.00162467 -0.0138347 -0.0106766 9.62024e-05 0.0062257 0.00215608
internal_weight=4714.81 1706.74 3008.07 868.749 382.662 197.314 2559.61 837.989 448.464 242.095 170.6 303.867 2317.51 517.283 775.368 1800.23 185.348 703.359 209.567 486.087 144.597 391.069
internal_count=14142 5332 8810 2636 1151 601 7537 2696 1273 732 523 870 6805 1519 2520 5286 550 2257 604 1485 403 1187
is_linear=0
shrinkage=0.05


Tree=5
num_leaves=25
num_cat=0
split_feature=5 5 5 5 30 5 5 31 14 12 12 37 15 1 15 12 16 31 14 38 35 32 15 7
split_gain=669.084 148.483 101.038 30.1666 23.6751 15.4092 8.65794 5.935 5.39693 5.20265 4.9994 4.64325 4.25572 3.85093 3.81338 5.05409 4.94009 3.71686 3.25558 1.89878 3.4192 1.68868 1.56222 1.09169
threshold=0.36563193798065191 0.57307061553001415 0.24360572546720508 0.15372799336910251 0.14520172029733661 0.29542163014411932 0.64309346675872814 -0.030621544457972046 0.016262554563581947 0.059617716819047935 0.051209157332777984 0.96226137876510631 0.011442793533205988 0.31009615957736975 0.016129386611282829 0.052740659564733512 0.016743463464081291 -0.040214149281382554 0.024043470621109012 0.36786819994449621 0.49085932970047003 0.23413293063640597 0.013453789521008732 0.23724825680255893
decision_type=2 2 2 2 2 2 2 2 2 2 2 2 2 2 2 2 2 2 2 2 2 2 2 2
left_child=2 4 3 21 10 11 9 22 -9 -3 -2 17 -12 18 16 -16 -7 -4 -5 -8 -21 23 -6 -1
right_child=1 6 5 13 7 14 19 8 -10 -11 12 -13 -14 -15 15 -17 -18 -19 -20 20 -22 -23 -24 -25
leaf_value=-0.029742310864441623 0 0.03391152374037517 -0.01830797896589572 -0.01803094928869544 0.008501181210604173 0.00032413949205428011 0.06713256517423738 0.031668700140802745 0.020234012145755348 0.053344386728040233 0.023067523913111537 -0.022964541725851256 0.0097433676948614698 -0.027516107722946964 -0.0082504817787311495 0.0059515314217712945 -0.0094702328821896428 -0.007584431325318575 -0.0093001483691799759 0.061975027580074976 0.044228804740354219 -0.040511675782567959 0.019931392667258806 -0.038834199365458955
leaf_weight=383.89069065451622 104.06055876612663 98.484930098056793 99.43791589140892 671.76492071151733 70.398487985134125 312.87078008055687 78.895599633455276 263.12510716915131 207.00316587090492 73.763559818267822 75.023559510707855 70.765130311250687 405.06137803196907 98.463863164186478 77.462602525949478 300.49557575583458 212.82665228843689 575.81220045685768 144.66014719009399 84.132260262966156 76.236759662628174 87.601764738559723 73.564738839864731 67.432659596204758
leaf_count=1315 296 268 299 2128 201 932 211 738 578 204 213 217 1156 306 228 873 629 1713 463 227 206 317 205 219
internal_value=-0.000165453 0.025982 -0.0137379 -0.0233509 0.0170389 -0.00524658 0.0519094 0.0239203 0.0267138 0.0425085 0.00974758 -0.0105654 0.0118994 -0.0177462 -0.00082455 0.00296771 -0.0035988 -0.00921296 -0.0165212 0.0584702 0.0538579 -0.032794 0.0145638 -0.0311975
internal_weight=4713.24 1609.75 3103.48 1453.81 1198.24 1649.67 411.513 614.091 470.128 172.248 584.145 746.015 480.085 914.889 903.656 377.958 525.697 675.25 816.425 239.265 160.369 538.925 143.963 451.323
internal_count=14142 4503 9639 4748 3387 4891 1116 1722 1316 472 1665 2229 1369 2897 2662 1101 1561 2012 2591 644 433 1851 406 1534
is_linear=0
shrinkage=0.05


Tree=6
num_leaves=24
num_cat=0
split_feature=27 3 38 30 6 8 31 35 38 28 37 15 7 30 36 24 15 27 37 10 37 36 9
split_gain=584.885 132.02 93.5028 23.5505 13.437 11.7831 7.57631 6.15871 5.73247 4.96912 4.57411 4.20494 3.91752 3.8877 3.83049 4.35133 2.79009 2.63936 1.7911 1.75739 2.0148 1.69707 5.10209
threshold=1.830922603607178 0.34305419027805334 0.51411169767379772 0.23890746384859088 0.85107925534248363 0.3478271365165711 0.034820945933461196 0.29779669642448431 0.54509520530700695 0.60529616475105297 0.94427672028541576 0.017337362281978134 0.29197141528129583 0.01416182052344084 0.95663094520568859 2.6940463781356816 0.016917653381824497 2.2757276296615605 0.95059892535209667 0.17786561697721484 0.94764292240142833 0.87823116779327404 0.085084035992622389
decision_type=2 2 2 2 2 2 2 2 2 2 2 2 2 2 2 2 2 2 2 2 2 2 2
left_child=1 3 4 21 6 10 -2 11 -9 -10 16 12 -4 -12 15 -7 -3 -8 -16 -5 -21 22 -1
right_child=2 5 7 19 -6 14 17 8 9 -11 13 -13 -14 -15 18 -17 -18 -19 -20 20 -22 -23 -24
leaf_value=-0.009172044862878757 0.024175417598854779 -0.00071245209719146064 0.012634549564006567 -0.03702448269618714 0.063023964545626643 -0.019835088669283765 0.032285124149824942 0.0073857006954659021 0.025214602840175317 0.01190717263903599 0.0058974308440021524 0.019885915101861988 0.0016886180333869503 -0.0018380630492968572 0.00223011401432124 -0.0082379764161294028 -0.007450504937592306 0.043082888596739206 -0.0084982810314446402 -0.036430492890840847 -0.023413281534829123 -0.027802653379074595 -0.020475149820835391
leaf_weight=126.88173976540565 96.536378026008606 342.00451076030731 203.1107049882412 258.40195862948895 63.282115131616592 134.49331447482109 105.86819013953209 90.863954931497574 295.00777634978294 104.7945142686367 330.7183772623539 103.82702216506004 146.56401643157005 311.60010319948196 77.361969441175461 237.24059936404228 292.90340965986252 339.93260222673416 72.539338648319244 68.054514601826668 99.561367675662041 72.721727430820465 735.72812713682652
leaf_count=376 301 1018 623 745 217 382 338 273 931 319 997 324 433 929 236 701 855 1112 213 191 291 203 2134
internal_value=-1.5109e-05 -0.0123589 0.0251352 -0.0241065 0.0404898 -0.0034504 0.0377587 0.0152436 0.0191985 0.0218082 -0.000841607 0.0108931 0.00812698 0.0021074 -0.00978324 -0.012522 -0.00386369 0.0406137 -0.00280628 -0.0339398 -0.0289398 -0.0195852 -0.0188478
internal_weight=4710 3160.21 1549.79 1361.35 605.619 1798.86 542.337 944.168 490.666 399.802 1277.23 453.502 349.675 642.318 521.635 371.734 634.908 445.801 149.901 426.018 167.616 935.332 862.61
internal_count=14142 9271 4871 3940 1968 5331 1751 2903 1523 1250 3799 1380 1056 1926 1532 1083 1873 1450 449 1227 482 2713 2510
is_linear=0
shrinkage=0.05


Tree=7
num_leaves=23
num_cat=0
split_feature=4 4 30 6 12 37 14 37 6 12 3 23 24 14 34 14 4 12 33 15 32 30
split_gain=113.184 20.6069 12.1954 9.34292 7.83807 6.89942 6.23391 5.45847 5.44647 4.54221 4.40679 4.28346 4.0089 6.67321 6.51833 3.92909 4.1602 3.1691 3.11674 2.85686 2.66876 2.60207
threshold=0.26143835484981542 0.22197585552930835 0.14520172029733661 0.26845686137676245 0.062033522874116905 0.932817041873932 0.025013549253344539 0.94726526737213146 0.11229677870869638 0.07395923882722856 0.51414221525192272 0.24484942853450778 2.7763006687164311 0.017772022634744648 1.8909368515014651 0.01275621820241213 0.28208801150321966 0.063520200550556197 0.070730324834585204 0.015098772011697294 -0.094270382076501832 0.25663568079471594
decision_type=2 2 2 2 2 2 2 2 2 2 2 2 2 2 2 2 2 2 2 2 2 2
left_child=1 8 5 4 21 11 10 17 -1 20 -7 -2 14 -14 -10 -9 -17 -4 -13 -8 -5 -3
right_child=2 3 7 9 -6 6 19 15 12 -11 -12 18 13 -15 -16 16 -18 -19 -20 -21 -22 -23
leaf_value=-0.031309483587628938 0.0030570027709879389 -0.01266580863267717 0.010765760292142651 0.0086040595408422172 -0.024230656084515127 0.0074169030352559083 0.0025272501025450384 0.0022625785753457089 -0.015442896323349968 -0.013657311096770382 0 0.015657089714240516 -0.01860179093074036 -0.0021637298464694996 -0.033063090766087946 -0.0017640215549622779 -0.017679797953360353 -0.0013996041344716222 0.0066588880761113984 -0.011791461864660888 -0.0019431003830669474 0
leaf_weight=61.482087299227715 128.57499009370804 78.246460735797882 101.6328133046627 66.651458889245987 102.86527922749519 1535.9178855419159 65.56750550866127 83.517450094223022 338.71810868382454 76.89499169588089 229.39611482620239 420.73390206694603 121.07562619447708 133.68390688300133 66.564767196774483 78.353756457567215 95.895178705453873 105.76622265577316 140.5017018020153 68.465428620576859 533.02976503968239 80.311547428369522
leaf_count=176 383 225 281 190 298 4471 197 237 1106 247 714 1199 391 439 244 223 281 299 423 210 1686 222
internal_value=0.000183812 -0.0103198 0.00589975 -0.00538922 -0.013427 0.0072404 0.00565643 -0.00150847 -0.0166869 -0.00223894 0.00645175 0.0115583 -0.0152643 -0.0100951 -0.0184357 -0.00640134 -0.0106916 0.00445316 0.0134569 -0.00461771 -0.000722993 -0.00620677
internal_weight=4713.85 1659.52 3054.32 938 261.423 2589.16 1899.35 465.165 721.524 676.576 1765.31 689.811 660.042 254.76 405.283 257.766 174.249 207.399 561.236 134.033 599.681 158.558
internal_count=14142 5224 8918 2868 745 7597 5592 1321 2356 2123 5185 2005 2180 830 1350 741 504 580 1622 407 1876 447
is_linear=0
shrinkage=0.05


Tree=8
num_leaves=26
num_cat=0
split_feature=5 5 5 5 30 33 5 15 25 34 12 12 13 11 13 1 32 10 10 4 37 32 38 35 14
split_gain=601.169 129.353 93.3313 28.592 20.724 14.3004 7.33245 5.78628 4.98365 7.61361 4.62239 4.60667 4.46804 3.98145 3.89684 3.70849 3.46616 12.7632 3.46536 3.24862 3.18358 1.62566 1.45972 3.04847 0.977098
threshold=0.36563193798065191 0.57307061553001415 0.24360572546720508 0.15372799336910251 0.14520172029733661 -0.0023968106834217902 0.64309346675872814 0.016917653381824497 0.45833332836627966 0.99695926904678356 0.051209157332777984 0.059617716819047935 0.03206030651926995 0.017857142724096779 0.035047693178057678 0.31009615957736975 -0.20578654855489728 0.23312050104141238 0.28991597890853887 0.29112142324447637 0.9561346471309663 0.23413293063640597 0.36786819994449621 0.49085932970047003 0.01875395700335503
decision_type=2 2 2 2 2 2 2 2 2 2 2 2 2 2 2 2 2 2 2 2 2 2 2 2 2
left_child=2 4 3 21 10 8 11 20 14 -10 -2 -3 -12 -9 -4 19 17 -6 -18 -5 -7 24 -8 -24 -1
right_child=1 6 5 15 16 7 22 13 9 -11 12 -13 -14 -15 -16 -17 18 -19 -20 -21 -22 -23 23 -25 -26
leaf_value=-0.034229387001884555 -9.171456793202355e-05 0.031607225044734448 0.0010553064746179743 -0.017043110080435638 0.015162732110002387 -0.0098737731536722387 0.062098430706966523 0.0057176650717320658 0.0085471521128655872 -0.0095734269093672789 0.018439644468397805 0.049778755870149044 0.0078423226916129705 -0.0070679246408496058 -0.0088291547084318241 -0.026650783078056524 0.016811770877401516 0.041058443007484499 0.028110084460182167 -0.007077520148673919 -0.018875917573773295 -0.0394184603943636 0.057700673489372183 0.04107382187238557 -0.027700670230901676
leaf_weight=162.67725855112076 104.2044532597065 100.04686933755875 202.92914611101151 705.00779297947884 100.83057376742363 496.18442335724831 81.002930015325546 85.646600097417831 268.41853830218315 72.302390545606613 153.6970928311348 75.347764432430267 328.96510073542595 196.73995053768158 188.22789689898491 97.178668946027756 320.05371648073196 99.249335259199142 100.898756980896 103.94206464290619 134.86064356565475 85.687903061509132 86.138218402862549 77.761217564344406 281.17364117503166
leaf_count=568 296 268 597 2268 280 1498 211 256 784 216 436 204 933 574 553 306 885 274 283 323 413 317 227 206 966
internal_value=-0.000163575 0.0244013 -0.0131553 -0.0224743 0.0160451 -0.00500412 0.0483093 -0.00917544 0.000170529 0.00462023 0.00922338 0.039675 0.0112842 -0.00309848 -0.00364254 -0.0170042 0.0224387 0.0282032 0.0196093 -0.0157987 -0.0118506 -0.0317626 0.0542977 0.0501131 -0.0301856
internal_weight=4709.17 1628.2 3080.98 1435.67 1207.9 1645.31 420.297 913.432 731.878 340.721 586.867 175.395 482.662 282.387 391.157 906.129 621.032 200.08 420.952 808.95 631.045 529.539 244.902 163.899 443.851
internal_count=14142 4503 9639 4748 3387 4891 1116 2741 2150 1000 1665 472 1369 830 1150 2897 1722 554 1168 2591 1911 1851 644 433 1534
is_linear=0
shrinkage=0.05


Tree=9
num_leaves=24
num_cat=0
split_feature=27 3 38 30 5 8 31 13 38 27 13 16 28 10 13 13 24 34 31 0 37 28 9
split_gain=524.637 122.178 81.6526 22.3126 12.4197 10.6229 6.60712 5.84639 5.14454 7.42659 4.97124 4.104 3.86287 3.73388 3.64443 3.60587 2.7131 2.48648 2.45183 1.64674 1.96018 1.46067 4.21942
threshold=1.830922603607178 0.34305419027805334 0.51411169767379772 0.23890746384859088 0.061087446287274368 0.3478271365165711 0.034820945933461196 0.026433040387928489 0.61882615089416515 2.0593441724777226 0.029130904003977779 0.014617212116718294 0.48922006785869604 0.28991597890853887 0.050859356299042709 0.023714046925306324 2.6429229974746709 1.2211079001426699 0.095794018357992186 0.17786561697721484 0.94764292240142833 1.1877377629280093 0.085084035992622389
decision_type=2 2 2 2 2 2 2 2 2 2 2 2 2 2 2 2 2 2 2 2 2 2 2
left_child=1 3 4 21 -2 7 -6 13 9 -4 15 -12 -11 -3 16 -10 -7 -9 -8 -5 -21 -1 -23
right_child=2 5 8 19 6 14 18 17 10 12 11 -13 -14 -15 -16 -17 -18 -19 -20 20 -22 22 -24
leaf_value=-0.026833338475875008 0.059397462328786947 0.011683616559101037 0.034266369069691688 -0.035950655936463287 0.02256368241268988 -0.01720794283169181 0.040455273107054823 -0.0030459391783660898 0.010052025863902539 0.006580793302673197 0 0.011263135440984028 0.019270141465494793 -0.0012485063887708551 0.0001284970173593387 0.025466440339309879 -0.0083064901872038337 0.0066256228838437684 0.030618751581179011 -0.035470102635546612 -0.02254362557738783 -0.0094390831842211011 -0.019664639369309286
leaf_weight=67.646362483501434 63.798627495765686 136.18559998273849 67.960008531808853 252.60665972530842 97.636655062437057 134.27448362112045 330.07783007621765 982.34019792079926 78.604349821805954 93.598996996879578 113.79001376032829 290.10088568925858 215.25072139501572 88.744599252939224 81.080347269773483 91.513619482517242 303.37910506129265 69.340867519378662 123.70339730381966 66.753214448690414 98.237142369151115 130.65048207342625 727.05667191743851
leaf_count=191 215 417 219 745 301 386 1065 2907 238 279 334 880 664 264 246 289 900 211 387 191 291 389 2133
internal_value=-2.36818e-05 -0.0118238 0.0236038 -0.0232308 0.0378178 -0.00327325 0.0352243 -0.000798969 0.0143655 0.01901 0.0112592 0.00811114 0.0155222 0.00647899 -0.00930771 0.0185409 -0.0111111 -0.00238165 0.0378655 -0.0329127 -0.028016 -0.018819 -0.0181426
internal_weight=4704.33 3138.3 1566.04 1342.95 615.217 1795.35 551.418 1276.61 950.819 376.81 574.009 403.891 308.85 224.93 518.734 170.118 437.654 1051.68 453.781 417.597 164.99 925.354 857.707
internal_count=14142 9271 4871 3940 1968 5331 1753 3799 2903 1162 1741 1214 943 681 1532 527 1286 3118 1452 1227 482 2713 2522
is_linear=0
shrinkage=0.05


Tree=10
num_leaves=21
num_cat=0
split_feature=4 4 30 6 37 34 15 8 37 31 5 24 30 2 23 31 25 31 15 30
split_gain=102.488 18.8842 10.8857 8.02816 6.25996 5.82729 5.45199 6.41498 5.10111 6.21032 5.02786 4.74282 4.37722 4.36633 3.93827 3.83412 4.13118 3.53217 2.88603 2.34886
threshold=0.26143835484981542 0.23175001889467242 0.14520172029733661 0.26845686137676245 0.932817041873932 0.2535932213068009 0.01292280061170459 0.1863934472203255 0.94726526737213146 -0.029350680299103257 0.18501403182744983 2.6940463781356816 0.25066177546978002 0.069047622382640853 0.24484942853450778 0.032330570742487914 0.95833334326744091 0.0044378987513482579 0.012232086621224882 -0.040713500231504433
decision_type=2 2 2 2 2 2 2 2 2 2 2 2 2 2 2 2 2 2 2 2
left_child=1 5 4 12 14 -1 7 -5 17 -10 -8 -11 -3 -7 -2 16 -6 -4 -15 -16
right_child=2 3 8 6 15 13 10 -9 9 11 -12 -13 -14 18 19 -17 -18 -19 -20 -21
leaf_value=-0.028596798647115014 0.0028218228203642126 -0.019334285162264448 0.0098660752899624587 0.017555139036480268 0.0067168835219746014 -0.026037246848203355 -0.016843772305594286 -0.00028927100822726735 0.0043792480117157591 -0.019026233463165412 -0.0018760940378882698 -0.0016661439111069752 -0.0039552689222271528 -0.0087704101354355007 0.0067306839800201071 -0.0030878849479661942 -0.0015286203441859001 -0.0031880923289784127 -0.015356907361329473 0.014674547940066835
leaf_weight=74.191488951444626 128.85682874917984 112.16085593402386 121.85554480552673 67.024382561445236 1620.8472269773483 67.85992506146431 74.226948261260986 187.90004509687424 88.365862190723419 96.676414042711258 246.59834161400795 71.969754666090012 87.126675873994827 337.33198134601116 137.76529163122177 121.47018197178841 162.10813382267952 85.723814338445663 395.47947829961777 426.64051377773285
leaf_count=217 383 330 337 203 4734 254 250 581 254 283 759 204 243 1086 414 378 480 243 1301 1208
internal_value=0.00019199 -0.00984667 0.00560953 -0.00411478 0.00687169 -0.0148907 -0.00106961 0.00432966 -0.00139371 -0.0061375 -0.00543768 -0.0117924 -0.0127626 -0.0135724 0.0109746 0.00536252 0.00595296 0.00436026 -0.0123671 0.0127875
internal_weight=4712.18 1649.9 3062.28 775.037 2597.69 874.863 575.75 254.924 464.591 257.012 320.825 168.646 199.288 800.671 693.263 1904.43 1782.96 207.579 732.811 564.406
internal_count=14142 5224 8918 2366 7597 2858 1793 784 1321 741 1009 487 573 2641 2005 5592 5214 580 2387 1622
is_linear=0
shrinkage=0.05


Tree=11
num_leaves=24
num_cat=0
split_feature=5 5 5 5 30 5 5 25 31 31 12 37 4 12 37 1 31 4 5 37 15 35 7
split_gain=541.325 112.878 86.5027 26.9133 18.0405 13.2227 6.25819 5.65082 5.32224 5.26291 4.33253 4.30356 4.28798 3.94624 3.83969 3.60096 3.56025 3.03007 2.95657 1.55095 1.46802 1.4012 1.01055
threshold=0.36563193798065191 0.57307061553001415 0.24360572546720508 0.15372799336910251 0.14520172029733661 0.29542163014411932 0.64309346675872814 0.45833332836627966 0.0062923652585595855 -0.030621544457972046 0.051757493987679488 0.96226137876510631 0.28129450976848608 0.059617716819047935 0.95834505558013927 0.31009615957736975 -0.040214149281382554 0.29112142324447637 0.35398341715335851 0.95310303568840038 0.013384375255554916 0.72028967738151561 0.23724825680255893
decision_type=2 2 2 2 2 2 2 2 2 2 2 2 2 2 2 2 2 2 2 2 2 2 2
left_child=2 4 3 21 10 11 13 18 -9 20 -2 16 -12 -3 -11 17 -4 -5 -7 -8 -6 22 -1
right_child=1 6 5 15 9 7 19 8 -10 14 12 -13 -14 -15 -16 -17 -18 -19 -20 -21 -22 -23 -24
leaf_value=-0.028186103707068467 0.00053656494699973992 0.029618853762330411 -0.01736692093840184 -0.016354478851783351 0.0064559855714518503 -0.0027344745049411191 0.045362242306751725 0.0067823729712230109 -0.0054214469386306714 0.020775039191141636 0.0044091618746748785 -0.021763616508926956 0.014743483063738381 0.046418331291123535 0.031726540114471749 -0.025891834809921729 -0.0068252869528750678 -0.006694840043358458 -0.013848367565954318 0.05648457374397179 0.017335213280885893 -0.039839081423213601 -0.037062015328540844
leaf_weight=396.98259648680687 130.3431057035923 101.34470796585083 98.239798903465271 698.57275497913361 69.869590848684311 389.62077933549881 137.0271672308445 318.17594534158707 121.53719589114189 356.82576707005501 165.6873300075531 69.572786867618561 293.06727412343025 76.762658268213272 123.80266898870468 96.012654572725296 570.93067181110382 103.476577937603 72.868216514587402 112.54970592260361 76.725604563951492 57.892860263586044 65.089999675750732
leaf_count=1408 369 268 299 2268 196 1156 351 936 364 977 473 217 823 204 339 306 1713 323 206 293 210 224 219
internal_value=-0.000163362 0.0229664 -0.012604 -0.0216518 0.0151553 -0.00476596 0.0450788 -0.000673583 0.00335011 0.0210844 0.00878761 -0.00972619 0.0110744 0.0371089 0.023678 -0.016335 -0.00842203 -0.0151443 -0.0045526 0.0505809 0.0123595 -0.0307623 -0.0295292
internal_weight=4702.98 1644.01 3058.97 1418.03 1216.32 1640.95 427.684 902.202 439.713 627.224 589.098 738.743 458.755 178.107 480.628 898.062 669.17 802.049 462.489 249.577 146.595 519.965 462.073
internal_count=14142 4503 9639 4748 3387 4891 1116 2662 1300 1722 1665 2229 1296 472 1316 2897 2012 2591 1362 644 406 1851 1627
is_linear=0
shrinkage=0.05


Tree=12
num_leaves=26
num_cat=0
split_feature=27 6 38 30 5 8 13 35 38 28 4 15 13 38 12 34 34 23 36 16 34 37 0 37 37
split_gain=471.264 112.342 71.4309 23.314 10.9355 6.88919 5.60125 4.98653 5.15081 4.2065 4.13099 3.86401 5.26636 3.51504 4.01249 3.36181 2.4925 2.3377 2.08353 2.86181 2.57978 1.68591 1.56059 1.63387 1.12341
threshold=1.830922603607178 0.36166483163833624 0.51411169767379772 0.23890746384859088 0.061087446287274368 0.3478271365165711 0.026433040387928489 0.29779669642448431 0.54509520530700695 0.60529616475105297 0.20597343891859057 0.017337362281978134 0.030433370731770996 0.98430448770523082 0.057156214490532882 0.95332038402557384 1.2211079001426699 0.25836539268493658 0.68111145496368419 0.021378044039011005 0.63889104127883922 0.96434906125068676 0.17786561697721484 0.94779217243194591 0.94867834448814403
decision_type=2 2 2 2 2 2 2 2 2 2 2 2 2 2 2 2 2 2 2 2 2 2 2 2 2
left_child=1 3 4 18 -2 6 15 11 -9 -10 21 12 -4 14 -7 -3 -8 -12 20 -20 -1 -6 -5 -24 -15
right_child=2 5 7 22 10 13 16 8 9 -11 17 -13 -14 24 -16 -17 -18 -19 19 -21 -22 -23 23 -25 -26
leaf_value=-0.01795446648793109 0.055515311805934248 0.015025355627097312 0.015183823307338818 -0.034920585623261127 0.034233464794218647 -0.018231607380780151 -0.0030271941323467793 0.0059705380199454525 0.022642234667945984 0.010457954705083372 0.018630125984266548 0.018205444855937392 0.0022996277724379589 0.0031261098957653145 -0.0061138971824006069 0.0018137423636390264 0.006672855607204365 0.031179649290313756 -0.016739712123225829 -0.0058655786148318866 -0.027503622860046425 0.045257307957992897 -0.034054786175165837 -0.02192643943500866 -0.0058050463204407142
leaf_weight=405.57340860366821 64.803331196308136 74.308055818080902 126.90175884962082 246.72544410824776 289.15827512741089 121.9484700858593 980.15583822131157 91.939553111791611 300.50205934047699 106.03454312682152 76.446645081043243 105.19598352909088 226.16287413239479 66.870356544852257 177.33150187134743 150.74942260980606 69.108232647180557 125.39817488193512 405.97247819602489 80.840113788843155 105.18215723335743 67.54913330078125 65.984677970409393 96.306282073259354 69.704399734735489
leaf_count=1212 215 232 388 745 909 351 2904 273 931 319 232 324 668 206 531 448 210 393 1192 245 305 219 193 289 208
internal_value=-3.29629e-05 -0.0113148 0.0222014 -0.0217818 0.0353929 -0.00268748 -0.000808588 0.0135665 0.0170978 0.0195425 0.032966 0.0096563 0.00701622 -0.00811635 -0.0111571 0.00631034 -0.00236163 0.026608 -0.0175878 -0.0149931 -0.0199948 0.0364514 -0.0319157 -0.0271006 -0.0012543
internal_weight=4696.85 3116.76 1580.09 1406.58 623.356 1710.18 1274.32 956.737 498.476 406.537 558.552 458.261 353.065 435.855 299.28 225.057 1049.26 201.845 997.568 486.813 510.756 356.707 409.016 162.291 136.575
internal_count=14142 9271 4871 4181 1968 5090 3794 2903 1523 1250 1753 1380 1056 1296 882 680 3114 625 2954 1437 1517 1128 1227 482 414
is_linear=0
shrinkage=0.05


Tree=13
num_leaves=23
num_cat=0
split_feature=4 4 37 6 6 22 31 38 32 37 32 35 35 32 34 31 12 16 25 31 31 12
split_gain=92.7503 17.1042 8.65325 11.458 7.79446 7.35811 6.02857 5.8562 5.66937 5.5165 5.13948 4.96994 4.77083 5.1917 8.24383 4.33744 4.25733 5.53985 3.94704 2.88077 2.80612 2.15729
threshold=0.26143835484981542 0.22197585552930835 0.9440932869911195 0.32626514136791235 0.26845686137676245 0.45717541873455053 -0.030067718587815758 0.96120965480804454 -0.089970819652080522 0.95401909947395336 -0.069884836673736558 0.29297912120819097 0.72290223836898815 0.13474857807159427 1.3693417906761172 -0.0070305967237800351 0.07395923882722856 0.015486614778637888 0.12500000372529033 0.071791402995586409 -0.0032529503805562849 0.062033522874116905
decision_type=2 2 2 2 2 2 2 2 2 2 2 2 2 2 2 2 2 2 2 2 2 2
left_child=1 12 7 6 5 21 -4 11 9 -5 -9 18 13 19 -15 -10 17 -6 -2 -1 -8 -3
right_child=2 4 3 8 16 -7 20 10 15 -11 -12 -13 -14 14 -16 -17 -18 -19 -20 -21 -22 -23
leaf_value=-0.015317946746374834 0.0019521613543821274 -0.012097336859602598 0.0048756014293836678 0.0032549887354593105 -0.0049936332329101607 -0.00016877062360739342 -0.0162544893219204 0.0072828717544404292 0.0062398933620993339 0.02300784886276204 -0.010558580394600905 -0.0026246133204621538 -0.028753701224741704 0.0068135249941248801 -0.013195678146012017 0 -0.013115334068501792 0.0046459135449265559 0.011076682232404066 -0.027453407078515915 -0.0047273870846933899 -0.024376084102416193
leaf_weight=165.89908555150032 141.06620535254478 86.944600090384483 94.132641196250916 68.90627458691597 325.6890829205513 86.989685475826263 102.00321500003338 87.654301226139069 672.08438369631767 80.565251186490059 73.541523456573486 79.196191698312759 63.110386192798615 58.75075289607048 334.07886849343777 464.43901160359383 76.375480860471725 272.91115379333496 1078.61391466856 85.804474994540215 127.39591838419437 83.779428035020828
leaf_count=493 408 251 269 199 1032 244 299 244 1963 220 217 245 236 195 1168 1406 247 844 3082 264 366 250
internal_value=0.000204147 -0.00938697 0.00533829 0.00278482 -0.00489599 -0.0123038 -0.0055839 0.0081341 0.00491102 0.0141097 -0.000709709 0.00925074 -0.0152632 -0.0138823 -0.0101347 0.00367358 -0.00202357 -0.000556875 0.0100431 -0.0196002 -0.00998591 -0.0183225
internal_weight=4709.93 1640.33 3069.6 1609.53 932.689 257.714 323.532 1460.07 1285.99 149.472 161.196 1298.88 707.644 644.533 392.83 1136.52 674.976 598.6 1219.68 251.704 229.399 170.724
internal_count=14142 5224 8918 4722 2868 745 934 4196 3788 419 461 3735 2356 2120 1363 3369 2123 1876 3490 757 665 501
is_linear=0
shrinkage=0.05


Tree=14
num_leaves=25
num_cat=0
split_feature=5 5 5 5 5 30 5 14 25 27 32 38 31 15 31 14 32 5 23 31 32 25 37 7
split_gain=487.569 99.241 80.177 20.345 16.8254 15.7043 5.41656 5.27025 5.26869 4.96224 4.67133 4.81905 4.60568 4.23024 3.69978 3.54127 3.26911 2.83438 2.7488 2.45525 1.5568 1.5405 1.38735 1.20982
threshold=0.36563193798065191 0.57307061553001415 0.22497216612100604 0.15372799336910251 0.29542163014411932 0.14520172029733661 0.64309346675872814 0.025811702013015751 0.45833332836627966 1.4516794681549074 -0.094270382076501832 0.98430448770523082 -0.034002473577857011 0.017469758167862896 0.033341765403747566 0.015874171629548076 -0.28491519391536707 0.35398341715335851 0.24175909161567691 -0.040214149281382554 0.23413293063640597 0.62500000000000011 0.95310303568840038 0.23724825680255893
decision_type=2 2 2 2 2 2 2 2 2 2 2 2 2 2 2 2 2 2 2 2 2 2 2 2
left_child=2 5 3 20 7 10 16 19 17 -10 13 -12 -7 -2 18 -14 -3 -6 -5 -4 23 -16 -8 -1
right_child=1 6 4 14 8 12 22 -9 9 -11 11 -13 15 -15 21 -17 -18 -19 -20 -21 -22 -23 -24 -25
leaf_value=-0.02676047604924689 0.008222483749348683 0.027489036332894047 -0.018589443697084398 -0.012992348001977769 -0.0025930415367104026 0.010465762819246837 0.042372013497985507 0.0025103164001408348 0.012530454217358765 0.00014430576743137174 0.017705616904783349 0.0018611921392833243 0.026040139294209265 -0.0036967304295995249 -0.0073719105283107924 0.017129967775503067 0.042751734660595439 -0.01349509188575262 -0.022201428567989043 -0.010185146712359549 -0.037440630484760429 -0.015939465775230765 0.052871461543618117 -0.036162558905884261
leaf_weight=364.87540277838707 228.8786672949791 96.88063845038414 108.94313429296017 139.10473696887493 389.03570371866226 118.88797718286514 138.96009308099747 72.013595819473267 108.27120491862297 331.81651443243027 186.13863885402679 69.723788887262344 271.93615558743477 106.4935254752636 138.40762823820114 242.02904665470123 83.530898541212082 72.56602469086647 292.77995489537716 765.7472917586565 81.828292086720467 108.0856069624424 114.35524141788483 63.795673400163651
leaf_count=1315 636 252 337 463 1156 327 351 220 316 984 528 204 739 297 458 656 220 206 948 2351 317 349 293 219
internal_value=-0.000166493 0.0216335 -0.0120753 -0.0222091 -0.00553953 0.0143102 0.0422041 -0.0101951 -0.000620942 0.00325907 0.00836657 0.0134975 0.0198124 0.00436337 -0.0164313 0.0219136 0.0347925 -0.00437374 -0.0193116 -0.0112705 -0.0298144 -0.0112546 0.0473051 -0.0282585
internal_weight=4695.09 1657.81 3037.27 1188.88 1848.39 1224.09 433.727 946.704 901.689 440.088 591.235 255.862 632.853 335.372 678.378 513.965 180.412 461.602 431.885 874.69 510.499 246.493 253.315 428.671
internal_count=14142 4503 9639 4069 5570 3387 1116 2908 2662 1300 1665 732 1722 933 2218 1395 472 1362 1411 2688 1851 807 644 1534
is_linear=0
shrinkage=0.05


Tree=15
num_leaves=24
num_cat=0
split_feature=29 6 29 30 35 5 5 13 13 15 15 7 5 2 3 12 24 31 33 34 15 14 31
split_gain=421.883 102.064 81.2449 27.0106 11.0966 7.55172 6.99725 4.15857 3.79551 3.36372 3.35492 5.81048 3.25337 5.32765 2.90118 2.70345 2.23538 2.19776 2.04648 1.90316 2.05501 1.44394 0.837734
threshold=1.0819088220596316 0.36166483163833624 1.8904795050621035 0.23890746384859088 0.30828133225440985 0.3294901847839356 0.061087446287274368 0.027335789985954765 0.052652953192591674 0.012427308131009342 0.017469758167862896 0.29282638430595404 0.20263445377349856 0.19523809850215915 0.28777037560939794 0.051879392936825759 2.5944312810897832 0.041275588795542724 -0.084973771125078187 1.5545286536216738 0.011793121695518495 0.012348381802439691 0.0052334356587380179
decision_type=2 2 2 2 2 2 2 2 2 2 2 2 2 2 2 2 2 2 2 2 2 2 2
left_child=1 3 4 14 10 7 -4 9 16 -3 11 -2 13 -6 21 -9 -7 22 -16 -8 -21 -1 -5
right_child=2 5 6 17 12 8 19 15 -10 -11 -12 -13 -14 -15 18 -17 -18 -19 -20 20 -22 -23 -24
leaf_value=-0.012664865193256568 0.010648469615728112 -0.00105250955753004 0.054697555305929672 -0.032927304257962871 0.017599343224432747 -0.015170173490186357 0.042419838139566027 -0.0081787433146714907 0.0028029524119265879 0.010479239244494259 0.016195513179434337 -0.0015330990505936521 0.010237968372496617 0.031351386597394219 -0.011988342814460541 -0.00065826085156131921 -0.006924627727731481 -0.036408396861335193 -0.020070880808131426 0.025792736174410077 0.036781739696177471 -0.021110825687423181 -0.024439273582623197
leaf_weight=83.063057735562325 272.34952786564827 107.07379892468452 68.094081252813339 84.348636209964752 393.10215243697166 121.54894924163818 118.47399878501892 142.29013097286224 73.376739501953125 141.95988512039185 115.0526310801506 147.3513306081295 110.02261146903038 95.060046404600143 448.9503345489502 798.0768064558506 335.71320706605911 178.91841500997543 112.31337854266167 93.414547950029373 171.11623221635818 335.19333863258362 144.79617570340633
leaf_count=253 821 316 225 251 1191 354 379 413 224 434 351 427 328 301 1354 2383 1006 548 328 286 540 1004 449
internal_value=2.17768e-05 -0.0106772 0.021024 -0.0207658 0.0138338 -0.0025204 0.0389913 -0.000284786 -0.00747937 0.00542872 0.00850101 0.00631545 0.0185483 0.0203578 -0.0161961 -0.00182652 -0.00918524 -0.0316404 -0.0136667 0.0360661 0.0330515 -0.0195103 -0.0277375
internal_weight=4691.66 3107.62 1584.04 1387.58 1132.94 1720.04 451.099 1189.4 530.639 249.034 534.753 419.701 598.185 488.162 979.52 940.367 457.262 408.063 561.264 383.005 264.531 418.256 229.145
internal_count=14166 9317 4849 4187 3419 5130 1430 3546 1584 750 1599 1248 1820 1492 2939 2796 1360 1248 1682 1205 826 1257 700
is_linear=0
shrinkage=0.05


Tree=16
num_leaves=21
num_cat=0
split_feature=4 7 34 8 12 4 37 9 24 35 22 13 35 34 34 31 25 16 22 12
split_gain=91.0385 21.9774 11.4258 10.6839 7.61322 6.74066 6.69168 6.39193 5.56335 5.32689 4.46678 4.23651 6.94492 5.16496 4.03575 3.93601 3.56034 4.37037 3.55984 0.0800889
threshold=0.26631206274032598 0.22909536957740786 0.9036119580268861 0.17050310969352725 0.060335917398333556 0.32414995133876806 0.95834505558013927 0.49316939711570745 2.6940463781356816 0.29388423264026647 0.43893910944461828 0.037905953824520118 0.053066762164235122 0.65651544928550731 1.1223728656768801 0.00022940039343666288 0.70833334326744091 0.014232276473194362 0.45003671944141393 0.058361211791634567
decision_type=2 2 2 2 2 2 2 2 2 2 2 2 2 2 2 2 2 2 2 2
left_child=1 7 5 -3 6 11 -5 16 -6 10 15 12 -2 -13 -12 -4 17 -1 -18 -9
right_child=2 3 9 4 8 -7 -8 19 -10 -11 14 13 -14 -15 -16 -17 18 -19 -20 -21
leaf_value=-0.010554250387997347 0.0053158344059661836 0.010094524536905777 0.0071873217694345768 0.0012900143795263246 -0.023328952229847058 0.013111058759683684 -0.009592596404715277 -0.022711264423897093 -0.008503996815787368 -0.0038860648637895514 0.0077557063437778614 0.012527020338025 -0.0049994134199511609 0.00092350271890717824 -0.0020129338258127951 0.013801164868810901 -0.014868558540505223 -0.021740020811445437 -0.0014618787460279107 -0.030710247613387965
leaf_weight=175.23075877130032 237.87302768230438 108.62925525009632 435.75873467326164 380.62575134634972 82.623976558446884 119.10870584845543 221.16189958155155 61.102438032627106 325.0476650595665 84.336951702833176 358.69659620523453 137.20659738779068 508.94690148532391 334.38693782687187 144.45321309566498 526.40796166658401 101.94279651343822 206.68961356580257 104.94934901595116 56.411809206008911
leaf_count=599 678 347 1263 1142 259 330 678 223 1001 270 1046 378 1478 955 438 1525 338 666 340 212
internal_value=-0.000335163 -0.009082 0.00518395 -0.0046851 -0.00630452 0.00177332 -0.00267257 -0.0159985 -0.0115948 0.00811006 0.00881865 0.000639535 -0.00167905 0.00436211 0.0049023 0.0108371 -0.0137641 -0.0166937 -0.00820827 -0.0268768
internal_weight=4711.59 1824.42 2887.18 1118.09 1009.46 1337.52 601.788 706.327 407.672 1549.65 1465.32 1218.41 746.82 471.594 503.15 962.167 588.813 381.92 206.892 117.514
internal_count=14166 5805 8361 3427 3080 3819 1820 2378 1260 4542 4272 3489 2156 1333 1484 2788 1943 1265 678 435
is_linear=0
shrinkage=0.05


Tree=17
num_leaves=22
num_cat=0
split_feature=5 6 5 5 5 10 33 22 3 5 16 12 12 31 7 12 6 37 25 12 16
split_gain=445.646 88.4264 81.3508 29.9185 20.0517 10.5201 8.14529 6.05087 5.94016 5.63919 5.50525 5.06206 3.75441 3.59387 2.99672 2.63592 2.49699 1.42643 1.28101 1.62489 0.107942
threshold=0.36563193798065191 0.26560471951961523 0.16326541453599933 0.27894055843353277 0.62696540355682384 0.27402402460575109 -0.0013944523525424299 0.44370236992836004 0.6116265356540681 0.22099474817514422 0.022574981674551967 0.048463331535458572 0.051042815670371063 0.070417255163192763 0.26917949318885809 0.056269899010658271 0.78432577848434459 0.94867834448814403 0.87500000000000011 0.050917508080601699 0.012232040055096151
decision_type=2 2 2 2 2 2 2 2 2 2 2 2 2 2 2 2 2 2 2 2 2
left_child=2 4 16 8 7 -5 -7 14 9 -4 11 -3 -13 17 -2 -9 18 -6 19 -1 -18
right_child=1 10 3 5 13 6 -8 15 -10 -11 -12 12 -14 -15 -16 -17 20 -19 -20 -21 -22
leaf_value=-0.018244286363422537 0.038694829479020892 0.025026834736101618 -0.017915691429142146 0.017132762172715289 0.032964401844982102 0.00047787627422918219 -0.0086201912593713032 0.014522891834341203 -0.0009309063432798439 -0.010660405760927607 0.00084015251095821263 0 0.012304103813918608 0.053130498680436823 0.025323000755571937 0.0270830457069502 -0.036989463948240681 0.044404912775777843 -0.017888550994369305 -0.029168981121658895 -0.028341418778763547
leaf_weight=58.292218878865242 122.40883174538612 76.040052145719528 457.13736622035503 71.205867081880569 85.248610258102417 713.40351021289825 371.26656699180603 110.43403413891792 107.39711071550846 736.45515315234661 121.15692344307899 72.39344522356987 693.88336369395256 101.15794602036476 96.218715339899063 88.794935554265976 105.4430216550827 110.16046074032784 63.072395250201225 280.46872510015965 50.486335158348083
leaf_count=212 322 214 1499 216 213 2100 1120 294 361 2298 340 204 1915 254 258 231 417 280 224 1001 193
internal_value=0.000309425 0.0209646 -0.0111802 -0.00724988 0.0343061 -0.00137068 -0.00261576 0.0270334 -0.0124516 -0.0134664 0.0110332 0.0124683 0.0111739 0.0444063 0.0329951 0.0202998 -0.0284261 0.0396384 -0.0259869 -0.0273925 -0.0344488
internal_weight=4692.53 1677.9 3014.63 2456.87 714.424 1155.88 1084.67 417.857 1300.99 1193.59 963.474 842.317 766.277 296.567 218.628 199.229 557.763 195.409 401.833 338.761 155.929
internal_count=14166 4525 9641 7594 1852 3436 3220 1105 4158 3797 2673 2333 2119 747 580 525 2047 493 1437 1213 610
is_linear=0
shrinkage=0.05


Tree=18
num_leaves=26
num_cat=0
split_feature=27 6 27 30 4 38 8 28 2 16 13 15 16 13 6 8 15 24 31 4 34 2 32 31 35
split_gain=379.147 94.4037 72.0204 25.5393 10.6118 6.60999 6.16566 4.64957 7.94078 4.96616 4.10113 3.284 3.24311 2.73678 2.31599 2.43157 2.23689 2.36208 2.11068 2.09741 1.91744 1.17831 1.03338 0.841814 0.311686
threshold=1.830922603607178 0.36166483163833624 2.2757276296615605 0.23890746384859088 0.2713709175586701 0.88724616169929515 0.093414314091205611 0.60529616475105297 0.20942982286214831 0.014469464309513571 0.029004097916185859 0.017469758167862896 0.020714070647954944 0.029963870532810691 0.30627943575382238 0.43763884902000433 0.02264256123453379 2.5944312810897832 0.041275588795542724 0.28129450976848608 1.6822793483734133 0.45983088016510015 0.22794906795024875 0.0052334356587380179 0.53678900003433239
decision_type=2 2 2 2 2 2 2 2 2 2 2 2 2 2 2 2 2 2 2 2 2 2 2 2 2
left_child=1 3 4 14 7 10 22 8 -2 -9 19 13 -12 -6 21 -16 17 -7 23 -3 24 -1 -4 -5 -8
right_child=2 5 6 18 11 16 20 9 -10 -11 12 -13 -14 -15 15 -17 -18 -19 -20 -21 -22 -23 -24 -25 -26
leaf_value=-0.02537699080151647 0.01657094617535743 0.012259623614297735 0.037713775333944211 -0.032065471863967729 0.0092462822186421701 -0.010398910690393224 0.04049309004420365 0.0014256467417047437 0.034814957982938585 0.016753737493341771 0.00070297876694651058 0.013805386080549749 -0.006927981899751229 -0.0006079445042798501 -0.015017386374573623 -0.0064388369634966816 0.0023325312704478391 -0.0043132866737715658 -0.035460787149552787 0.0023442308519947934 0.025829439656260295 -0.016977085299662919 0.049234647885983258 -0.023561261038306608 0.031450918817023811
leaf_weight=65.802366077899933 452.33592638373375 88.675902754068375 77.210563451051712 82.696511194109917 115.33702674508095 262.20718228816986 70.693122982978821 97.135728269815445 72.775651752948761 126.63674840331078 471.92734658718109 106.10365235805511 194.36264860630035 168.87047240138054 377.31849870085716 122.05803135037422 74.22701895236969 471.78106784820557 174.2824849486351 154.31355383992195 122.6030800640583 405.12315633893013 98.554190307855606 142.29923374950886 86.311787903308868
leaf_count=194 1361 271 243 251 343 769 225 284 233 386 1413 320 567 492 1128 379 228 1422 548 460 374 1238 321 449 267
internal_value=4.50874e-06 -0.0102162 0.0198045 -0.0200076 0.0130421 -0.00239021 0.0366341 0.0165459 0.0191777 0.0102296 0.000509226 0.00624291 -0.00148907 0.0033125 -0.0155612 -0.0129792 -0.00568142 -0.00652693 -0.0307175 0.00608315 0.0315693 -0.0182295 0.0444369 -0.026862 0.0357966
internal_weight=4681.64 3087.08 1594.57 1369.58 1139.2 1717.49 455.373 748.884 525.112 223.772 909.279 390.311 666.29 284.207 970.302 499.377 808.215 733.988 399.278 242.989 279.608 470.926 175.765 224.996 157.005
internal_count=14166 9317 4849 4187 3419 5130 1430 2264 1594 670 2711 1155 1980 835 2939 1507 2419 2191 1248 731 866 1432 564 700 492
is_linear=0
shrinkage=0.05


Tree=19
num_leaves=25
num_cat=0
split_feature=4 4 12 4 33 14 9 12 16 38 12 23 6 16 12 13 14 15 6 30 8 32 1 12
split_gain=82.0322 19.5507 9.45237 9.06756 7.71011 12.4864 6.09324 5.94765 5.94616 5.85092 5.63828 4.99499 4.54075 4.81174 4.31357 4.26714 4.15953 3.50079 3.34636 8.90136 5.00695 2.46788 1.9014 0.082733
threshold=0.26631206274032598 0.22296571731567386 0.060335917398333556 0.29895432293415075 0.028538051992654804 0.021733281202614311 0.49316939711570745 0.056085962802171714 0.016261115670204166 0.56554353237152111 0.048543777316808708 0.25836539268493658 0.26560471951961523 0.015486614778637888 0.063460983335971846 0.036017259582877166 0.01502329343929887 0.011420560069382192 0.47281587123870855 0.033073084428906448 0.24539913982152942 -0.39221404492855066 0.21980676054954532 0.058361211791634567
decision_type=2 2 2 2 2 2 2 2 2 2 2 2 2 2 2 2 2 2 2 2 2 2 2 2
left_child=1 6 7 4 10 16 21 9 11 -3 -2 -5 -4 -14 -13 -12 -6 -9 19 -10 -20 -1 -23 -8
right_child=3 2 12 8 5 -7 23 17 18 -11 15 14 13 -15 -16 -17 -18 -19 20 -21 -22 22 -24 -25
leaf_value=-0.022006159444070368 -0.011925796319119789 0.0057736295427516723 -0.018761326928012075 -0.005851694355383844 0.0045952447807208092 -0.0066291988468819008 -0.02181236048517432 0.015369395845525786 0.020151518756689205 -0.0070312496462955404 -0.0019369067732692279 0.0094020265326063522 -0.01406855914623696 -0.0016014193829449682 -0.0032691020914484177 0.0048975613727364311 0.014681618075398681 0.0013401285729720519 0.013102466357150303 0.0078479797175260955 -0.004649572825772625 -0.0093170798488285394 -0.016259368805945987 -0.029744894600249101
leaf_weight=73.372366353869438 92.923653990030289 116.31022521853447 116.71463456749916 107.31122040748596 174.95684921741486 128.83525225520134 60.119906514883041 70.549594327807426 232.76803514361382 357.59520244598389 531.81925995647907 274.54706092178822 138.62888741493225 186.57900941371918 85.146987617015839 396.35890656709671 281.24015530943871 131.38396154344082 75.31777286529541 431.86831486225128 80.368775099515915 340.63290898501873 166.46050399541855 55.275081321597099
leaf_count=222 273 359 347 314 521 399 223 207 652 1091 1548 783 449 581 243 1127 818 401 223 1219 241 1167 546 212
internal_value=-0.000289012 -0.00862991 -0.00449872 0.00493101 0.00240174 0.00697704 -0.015222 -0.000738841 0.00806509 -0.00383309 -0.000197301 0.00347618 -0.0101849 -0.00700608 0.00633273 0.000955754 0.0108774 0.00639089 0.0106434 0.0122064 0.00379287 -0.0130278 -0.011659 -0.0259398
internal_weight=4707.08 1813.62 1117.76 2893.46 1606.13 585.032 695.861 675.839 1287.33 473.905 1021.1 467.005 441.923 325.208 359.694 928.178 456.197 201.934 820.323 664.636 155.687 580.466 507.093 115.395
internal_count=14166 5805 3435 8361 4686 1738 2370 2058 3675 1450 2948 1340 1377 1030 1026 2675 1339 608 2335 1871 464 1935 1713 435
is_linear=0
shrinkage=0.05


Tree=20
num_leaves=26
num_cat=0
split_feature=2 6 27 2 3 6 11 16 13 15 33 15 32 6 16 2 31 3 6 6 30 1 12 16 16
split_gain=403.977 101.77 56.0283 16.1555 15.075 8.31166 8.22242 7.61671 7.89565 7.08217 5.62292 5.59197 5.46485 5.30023 4.78152 3.88696 3.84069 3.62728 4.50221 3.00157 2.13077 1.01413 0.917391 0.353664 0.260094
threshold=0.3478271365165711 0.26560471951961523 2.1805924177169804 0.64105197787284862 0.49383017420768743 0.33726909756660467 0.022058823145926002 0.014617212116718294 0.038026163354516036 0.016795618459582332 -0.0013944523525424299 0.017012132331728939 -0.096398565918207155 0.25220720469951635 0.021021613851189617 0.58481532335281383 0.070417255163192763 0.6116265356540681 0.60060602426528942 0.78432577848434459 0.14520172029733661 0.21980676054954532 0.052043959498405463 0.013789587654173376 0.012306341901421549
decision_type=2 2 2 2 2 2 2 2 2 2 2 2 2 2 2 2 2 2 2 2 2 2 2 2 2
left_child=2 3 4 13 6 11 9 8 -7 -1 -8 14 -9 15 -3 -2 21 18 -6 22 -13 -5 -4 -24 -21
right_child=1 5 19 16 17 7 10 12 -10 -11 -12 20 -14 -15 -16 -17 -18 -19 -20 24 -22 -23 23 -25 -26
leaf_value=-0.0025034032774653384 0.017212006391105573 0.018524821013815713 -0.018717349795852756 0.030697551141095909 -0.013528934645787891 0.0059252282981888948 -0.002924443960141106 -0.0095238103565338135 0.025115855559261675 0.014883709033310773 -0.010895563721594817 -0.00075462341825063741 0.0039178714314003068 0.038039455959057528 0.0042304815037081554 0.028599728797520475 0.050116655626244538 -0.0050823524491504244 -0.026084461452781232 -0.036221551252620325 0.010587912503313859 0.04081402764849551 -0.022848755593091744 -0.028841142096220643 -0.026908554279746241
leaf_weight=226.59062696993351 177.08745944499969 359.50828620791435 93.358758270740509 87.96589320898056 714.89055271446705 190.42197009921074 396.4061890989542 97.365717649459839 77.441012024879456 77.856637075543404 533.03131963312626 77.963225185871124 327.86698490381241 78.391891449689865 75.956749975681305 165.15429884195328 102.44563090801239 116.09986744821072 85.572282493114471 104.29581761360168 79.430785000324249 109.54583245515823 135.92538280785084 144.29024048149586 48.075194731354713
leaf_count=698 472 980 342 219 2317 542 1180 275 218 232 1632 218 943 207 204 424 255 389 295 422 216 275 502 521 188
internal_value=0.000280656 0.017244 -0.0124286 0.0322937 -0.00882975 0.00878219 -0.00518567 0.0050004 0.011603 0.00187815 -0.00752616 0.0131533 0.000773831 0.0257527 0.0160966 0.022814 0.041325 -0.0137027 -0.0149178 -0.0270737 0.00482659 0.0365236 -0.0243263 -0.0260693 -0.0335443
internal_weight=4682.94 2006.55 2676.39 720.591 2150.45 1285.95 1233.88 693.096 267.863 304.447 929.438 592.859 425.233 420.634 435.465 342.242 299.957 916.563 800.463 525.945 157.394 197.512 373.574 280.216 152.371
internal_count=14166 5448 8718 1852 6743 3596 3742 1978 760 930 2812 1618 1218 1103 1184 896 749 3001 2612 1975 434 494 1365 1023 610
is_linear=0
shrinkage=0.05


Tree=21
num_leaves=25
num_cat=0
split_feature=27 6 27 30 4 5 5 5 28 4 37 4 13 34 15 13 13 12 16 35 31 34 15 37
split_gain=341.255 87.2143 64.0872 24.178 9.2983 6.5156 5.79023 4.84875 5.32739 5.14097 4.27171 4.01495 4.84711 3.3531 3.05545 2.535 2.41149 2.16147 2.52321 2.33706 2.05335 1.75598 1.90098 0.910897
threshold=1.830922603607178 0.36166483163833624 2.2757276296615605 0.23890746384859088 0.2713709175586701 0.3294901847839356 0.061087446287274368 0.20263445377349856 0.54608044028282177 0.25031328201293951 0.92891183495521557 0.27972082793712622 0.02695410139858723 1.1387577652931216 0.017469758167862896 0.029963870532810691 0.037782851606607444 0.051289496943354614 0.01575100235641003 0.047112040221691139 0.041275588795542724 1.5545286536216738 0.011793121695518495 0.94951456785202037
decision_type=2 2 2 2 2 2 2 2 2 2 2 2 2 2 2 2 2 2 2 2 2 2 2 2
left_child=1 3 4 17 7 11 -4 8 -2 -9 -7 12 -3 -13 15 -6 -12 18 -1 -19 23 -8 -23 -5
right_child=2 5 6 20 14 10 21 9 -10 -11 16 13 -14 -15 -16 -17 -18 19 -20 -21 -22 22 -24 -25
leaf_value=-0.0033101354020750513 0.015993793477983142 0.016693605878693549 0.048744105625356665 -0.030371572063446962 0.00881409973355308 0.0029462027574252993 0.037829438895861198 0.0017659773203909223 0.030061829652029165 0.01579177083091601 -0.0063342615239661351 -0.0034072672027618241 0.0011365733615051497 0.0039360579612136258 0.013221293441036503 -0.00065759785242761818 -0.01471955301496952 -0.024409075015618099 -0.016043924915761423 -0.015026573077855824 -0.034571719430913805 0.022179127739488165 0.032535389410398824 -0.021950369473735451
leaf_weight=90.343917787075043 383.25062820315361 67.442045122385025 68.860180556774139 101.74499714374542 115.72694435715675 87.738755837082863 120.71719464659691 115.02304625511169 89.503124892711639 165.73240235447884 307.22407099604607 719.03782448172569 206.62663060426712 195.09964028000832 106.55583125352859 168.94247531890869 132.01340366899967 85.851340621709824 77.729860156774521 707.32920600473881 169.75787679851055 94.937297970056534 174.14917153120041 119.09370297193527
leaf_count=285 1148 208 225 320 343 269 379 332 280 504 927 2130 621 587 320 492 388 251 234 2169 548 286 540 380
internal_value=-4.33057e-07 -0.00977767 0.0186834 -0.0192749 0.0123126 -0.00227427 0.0344985 0.0155799 0.018739 0.0101478 -0.00690036 -0.000199506 0.00507928 -0.00181139 0.00594403 0.00311398 -0.0089252 -0.0149465 -0.00937761 -0.0160883 -0.0298304 0.0318587 0.0290222 -0.026003
internal_weight=4670.43 3067.03 1603.4 1351.85 1144.73 1715.18 458.664 753.509 472.754 280.755 526.976 1188.21 274.069 914.137 391.225 284.669 439.237 961.254 168.074 793.181 390.597 389.804 269.086 220.839
internal_count=14166 9317 4849 4187 3419 5130 1430 2264 1428 836 1584 3546 829 2717 1155 835 1315 2939 519 2420 1248 1205 826 700
is_linear=0
shrinkage=0.05


Tree=22
num_leaves=18
num_cat=0
split_feature=4 7 34 8 12 4 6 13 3 5 34 14 24 25 8 14 29
split_gain=73.7879 18.28 9.32459 8.57473 6.32332 5.8962 5.5918 5.42941 5.26584 7.12417 6.45256 5.05711 4.57013 3.79171 4.60004 2.94701 2.44379
threshold=0.26631206274032598 0.22805046290159228 0.9036119580268861 0.17050310969352725 0.060335917398333556 0.32414995133876806 0.11229677870869638 0.023995420895516876 0.54496318101882946 0.21762811392545703 1.1353009939193728 0.011359940748661758 2.6940463781356816 0.95833334326744091 0.34904120862483984 0.019672679714858535 2.1765542030334477
decision_type=2 2 2 2 2 2 2 2 2 2 2 2 2 2 2 2 2
left_child=1 6 5 -3 7 13 -1 -5 9 -4 -11 -8 -6 14 -2 -10 -13
right_child=2 3 8 4 12 -7 11 -9 15 10 -12 16 -14 -15 -16 -17 -18
leaf_value=-0.029783641668529398 -0.0062706403940218161 0.0086784485522024522 0.021402857558606641 -0.010621387171655589 -0.021188445530432334 0.012165148413722697 -7.8325715349319839e-05 0.00024426603507212889 0.0047020585086431314 0.0094398790216946495 0.0014876105713886737 -0.012515358879862413 -0.0077382719286890602 -0.0079156080557330633 0.0028316060980677002 -0.009142568698936546 -0.020412297600438098
leaf_weight=58.570747405290604 161.12238836288452 113.30024497210979 97.835238397121429 151.48485936224461 82.963313490152359 120.02582481503487 69.017681539058685 454.91568686068058 84.426428973674774 949.27539199590683 359.87351116538048 393.97607387602329 323.63005936145782 118.24220830202103 940.01861189305782 68.505575835704803 155.06678928434849
leaf_count=184 477 363 280 472 264 330 212 1370 258 2714 1070 1337 1006 344 2668 220 597
internal_value=-0.000243138 -0.00818962 0.00469027 -0.00425286 -0.00572743 0.00160533 -0.0146977 -0.0024354 0.00732174 0.00828181 0.00727436 -0.0132047 -0.0105668 0.00054086 0.0014748 -0.00134626 -0.0148077
internal_weight=4702.25 1802.93 2899.33 1126.29 1012.99 1339.41 676.631 606.401 1559.92 1406.98 1309.15 618.061 406.593 1219.38 1101.14 152.932 549.043
internal_count=14166 5805 8361 3475 3112 3819 2330 1842 4542 4064 3784 2146 1270 3489 3145 478 1934
is_linear=0
shrinkage=0.05


Tree=23
num_leaves=25
num_cat=0
split_feature=5 35 5 5 5 6 16 16 33 31 11 32 14 34 32 15 35 25 31 6 25 25 12 16
split_gain=364.149 96.3514 57.0158 13.709 12.2604 9.52728 7.59747 7.04495 6.1948 6.19121 6.90562 5.67031 5.52758 6.18952 5.06052 4.29733 4.18407 3.09018 2.81009 2.26898 1.47475 1.31623 1.61806 0.277077
threshold=0.33277963101863867 0.24596814066171649 0.16326541453599933 0.62696540355682384 0.27894055843353277 0.33726909756660467 0.014527858700603248 0.021021613851189617 -0.044840881600975983 -0.048949167132377618 0.022058823145926002 -0.28491519391536707 0.025211147032678131 1.3033779263496401 -0.096398565918207155 0.017090717330574993 0.3250312358140946 0.12500000372529033 0.070417255163192763 0.78432577848434459 0.45833332836627966 0.87500000000000011 0.050917508080601699 0.012306341901421549
decision_type=2 2 2 2 2 2 2 2 2 2 2 2 2 2 2 2 2 2 2 2 2 2 2 2
left_child=2 5 19 11 12 7 8 15 -7 -6 -11 -3 17 -14 -8 -2 -13 -4 20 21 -5 22 -1 -21
right_child=1 3 4 18 9 6 14 -9 -10 10 -12 16 13 -15 -16 -17 -18 -19 -20 23 -22 -23 -24 -25
leaf_value=-0.016638093266855253 0.01796111121751311 0.012231455550152495 -0.005248733415945641 0.039888462513428008 0.0080274841972805665 0.0060278552675109833 -0.0095693587952943408 0.001452017397001199 0.022520634467910861 0.0023758163929070075 -0.0085124598702392452 0.02343844240090057 0.0065247779897163148 -0.014087560571299788 0.0031584790627874025 0.0071012883478868798 0.037056306721532782 -0.013590873857373342 0.047160930874145135 -0.035333803671837298 0.028798691142391999 -0.016186399251343332 -0.02758593541792731 -0.025970103970691973
leaf_weight=56.696128040552139 391.0791702568531 80.143700629472733 137.43438626825809 110.14425101876259 100.8683890402317 212.72127464413643 98.977304965257645 116.69637331366539 81.265332281589508 206.21257625520229 469.33857180178165 204.93954282999039 84.515256240963936 62.457060620188713 360.31388467550278 131.19579845666885 96.777876019477844 998.39241008460522 102.59819832444191 101.59981761872768 88.19538551568985 61.262918815016747 271.29361586272717 47.074860200285912
leaf_count=212 1057 202 442 274 301 598 280 318 235 630 1412 540 268 212 1034 356 251 3236 254 422 219 224 1001 188
internal_value=0.000250485 0.0158701 -0.0122202 0.031262 -0.00841214 0.00829506 0.00443017 0.0128052 0.0107023 -0.003404 -0.00515253 0.0247314 -0.0114213 -0.00208314 0.000353833 0.0152903 0.0279433 -0.0126062 0.0394109 -0.0267299 0.0351677 -0.024372 -0.0257978 -0.0326335
internal_weight=4672.19 2075.05 2597.15 682.799 2059.22 1392.25 753.278 638.971 293.987 776.42 675.551 381.861 1282.8 146.972 459.291 522.275 301.717 1135.83 300.938 537.927 198.34 389.253 327.99 148.675
internal_count=14166 5618 8548 1740 6501 3878 2147 1731 833 2343 2042 993 4158 480 1314 1413 791 3678 747 2047 493 1437 1213 610
is_linear=0
shrinkage=0.05


Tree=24
num_leaves=27
num_cat=0
split_feature=2 3 38 5 30 8 4 4 24 30 14 7 8 14 37 37 30 36 31 12 14 7 14 3 12 37
split_gain=307.092 74.1911 64.3491 16.5909 9.87285 8.04887 7.83117 4.34499 3.94899 3.66064 3.29291 5.20826 4.14381 2.4872 2.28743 3.90999 3.1747 2.10051 2.01411 1.97209 1.69306 3.00322 2.9804 1.65498 1.72635 0.90989
threshold=0.26491229236125952 0.28777037560939794 0.49884793162345892 0.34188134968280798 0.23890746384859088 0.093414314091205611 0.2713709175586701 0.26631206274032598 2.7763006687164311 -0.010850075166672466 0.015996247529983524 0.26420125365257269 0.23014990240335467 0.017244824208319191 0.9440932869911195 0.92488497495651256 -0.037050766870379441 0.97116294503211986 0.041275588795542724 0.056858830153942115 0.020672725513577465 0.20986381918191913 0.026328364387154583 0.23837935924530032 0.060335917398333556 0.94726526737213146
decision_type=2 2 2 2 2 2 2 2 2 2 2 2 2 2 2 2 2 2 2 2 2 2 2 2 2 2
left_child=2 4 5 7 23 19 10 -3 17 -9 11 -4 -12 -10 15 -8 -16 -5 25 -1 21 -7 -22 -2 -25 -6
right_child=1 3 6 8 18 20 14 9 13 -11 12 -13 -14 -15 16 -17 -18 -19 -20 -21 22 -23 -24 24 -26 -27
leaf_value=0.032297256540022988 -0.011524592043987508 0.0081047742112299436 0.013064493817160107 -0.013766628585307535 -0.029977069538917246 0.035524254808812973 0.010391721494521373 -0.0077770774150981272 -0.0088935639532521909 -0.00067969422076239415 0.013506255980253335 0.030327372793375718 0.0015931579100038039 0 0.0047019996201777244 -0.0021592913452007216 0.017289085969731329 -0.0038270105099139002 -0.03372094033923044 0.04543575205650599 0.016580021161624176 0.02158735155781823 0.030426179541111976 -0.015578412449642788 -0.024243719446846071 -0.021447852598431596
leaf_weight=83.008189171552658 109.71688452363014 111.44352254271507 148.45989888906479 519.67542783915997 89.683666288852692 114.44657129049301 91.678086906671524 232.74377876520157 208.4236715734005 868.81390038132668 336.95532923936844 69.026792883872986 99.628320127725601 117.67423863708973 171.06264510750771 183.70642730593681 76.322521954774857 67.78123015165329 165.28126917779446 94.676595032215118 118.78959655761719 83.651680648326874 74.010416895151138 163.90281844139099 130.73691256344318 126.97487902641296
leaf_count=258 350 340 443 1572 288 358 277 676 637 2608 1003 218 289 369 502 532 235 207 548 306 350 252 229 510 397 412
internal_value=-1.87001e-05 -0.00996119 0.0165576 -0.00509138 -0.0230883 0.0303847 0.00984587 -0.00123407 -0.0101822 -0.00220481 0.0135156 0.0187151 0.0108498 -0.00561769 0.00519811 0.0019397 0.00871322 -0.0126665 -0.0289661 0.0395461 0.0261112 0.0298341 0.0220895 -0.0174457 -0.0195426 -0.0251545
internal_weight=4658.28 2912.85 1745.42 2126.56 786.296 568.583 1176.84 1213 913.555 1101.56 654.07 217.487 436.584 326.098 522.77 275.385 247.385 587.457 381.94 177.685 390.898 198.098 192.8 404.357 294.64 216.659
internal_count=14166 8914 5252 6409 2505 1753 3499 3624 2785 3284 1953 661 1292 1006 1546 809 737 1779 1248 564 1189 610 579 1257 907 700
is_linear=0
shrinkage=0.05


Tree=25
num_leaves=23
num_cat=0
split_feature=7 7 2 8 9 37 14 23 22 37 13 12 22 6 28 3 32 6 14 32 1 12
split_gain=64.8299 15.067 7.92586 6.92653 5.37098 5.24022 5.2887 5.03716 5.01731 4.8319 6.24306 5.97059 4.65847 4.63531 4.41549 4.13889 3.71108 2.96741 2.46328 2.07047 2.36689 0.122388
threshold=0.26990601420402532 0.22909536957740786 0.43961352109909063 0.17050310969352725 0.49316939711570745 0.95042604207992565 0.013664076104760172 0.30427683889865881 0.44370236992836004 0.9440932869911195 0.024572472088038925 0.053174464032053954 0.42590887844562536 0.26560471951961523 0.91688117384910595 0.29455146193504339 -0.096398565918207155 0.26560471951961523 0.014869908336549999 -0.39221404492855066 0.21980676054954532 0.058361211791634567
decision_type=2 2 2 2 2 2 2 2 2 2 2 2 2 2 2 2 2 2 2 2 2 2
left_child=1 4 7 -3 19 15 -7 12 13 11 -11 -9 14 -5 -2 17 -14 -4 -10 -1 -21 -6
right_child=2 3 5 8 21 6 -8 9 18 10 -12 -13 16 -15 -16 -17 -18 -19 -20 20 -22 -23
leaf_value=-0.020246011720115923 0.0061211103306147204 0.0077994852332628362 -0.00050552824501319917 -0.017201440034712408 -0.02001800613207777 0.0018090965499281304 -0.014831800300462238 0.021866705183919102 -0.0056679442233689798 0.011810288525581129 -0.0036114135309667111 0.0084450372118207735 0.012221805524501521 -0.0058371291172779477 -0.0095646354949706774 -0.0066975031971102487 0.003687146188705818 0.011270415300438492 0.0020779249053311153 -0.0080179878964144052 -0.015680275836985821 -0.028021739896337758
leaf_weight=70.974645286798477 68.954857259988785 106.00472228229046 87.727417647838593 133.63393594324589 58.114130899310112 76.328892454504967 116.5836810618639 103.32537919282913 192.95732799172401 109.36388114094734 159.19763423502445 506.07709528505802 143.99942019581795 309.94107210636139 120.49369984865189 85.429521083831787 1358.376942589879 122.45787566900253 212.33951297402382 337.60369454324245 164.14755555987358 53.161296278238297
leaf_count=222 203 339 246 405 223 221 343 285 584 319 475 1442 399 985 361 243 3951 338 649 1175 546 212
internal_value=-0.000197564 -0.00822548 0.00409687 -0.00412711 -0.0139032 -0.00170113 -0.00813065 0.00520894 -0.00564961 0.00830332 0.00258599 0.0107778 0.00358637 -0.00933262 -0.00372269 0.00241687 0.0045256 0.00624716 -0.00155063 -0.0118447 -0.0105876 -0.0241737
internal_weight=4697.19 1638.88 3058.32 954.877 684.001 488.527 192.913 2569.79 848.872 877.964 268.562 609.402 1691.82 443.575 189.449 295.615 1502.38 210.185 405.297 572.726 501.751 111.275
internal_count=14166 5340 8826 2962 2378 1391 564 7435 2623 2521 794 1727 4914 1390 564 827 4350 584 1233 1943 1721 435
is_linear=0
shrinkage=0.05


Tree=26
num_leaves=26
num_cat=0
split_feature=2 35 5 5 5 9 37 13 25 16 16 3 22 5 37 25 12 7 6 22 38 38 25 12 16
split_gain=330.347 82.6105 55.2492 12.7837 12.2561 7.96576 6.23743 6.4836 6.36137 5.98874 5.70762 5.69624 5.53506 4.78416 3.96169 3.93137 2.6571 2.42417 2.20613 2.17132 2.03582 1.73948 1.28466 1.58134 0.28476
threshold=0.3478271365165711 0.24596814066171649 0.16326541453599933 0.27894055843353277 0.62696540355682384 0.10628019273281099 0.94002756476402294 0.023995420895516876 0.70833334326744091 0.015354060567915441 0.019939759746193889 0.6116265356540681 0.44370236992836004 0.22099474817514422 0.9410657286643983 0.62500000000000011 0.056085962802171714 0.29197141528129583 0.78432577848434459 0.43735206127166754 0.36786819994449621 0.47660098969936376 0.87500000000000011 0.050917508080601699 0.012306341901421549
decision_type=2 2 2 2 2 2 2 2 2 2 2 2 2 2 2 2 2 2 2 2 2 2 2 2 2
left_child=2 5 18 11 12 9 8 -8 -5 14 17 13 19 -4 -2 -11 -14 -7 22 -3 -6 -22 23 -1 -20
right_child=1 4 3 6 20 10 7 -9 -10 15 -12 -13 16 -15 -16 -17 -18 -19 24 -21 21 -23 -24 -25 -26
leaf_value=-0.015900358262029402 0.019473960061853236 0.023071840555372102 -0.016118160755829874 -0.0024401565464710804 0.044915625103945471 0.012510849178549027 -0.010807361205879796 0.003156018504817764 -0.017181232412784825 -0.0028262941946297494 0.0033484118643631947 0 0.010783916390358072 -0.0093505040198007417 0.0068847690239191564 0.006428217862474184 0.023578517934256346 0.02120659242557419 -0.03451566005399969 0.035214118550866445 0.029243026488413721 0.040602396407798967 -0.015456438723899358 -0.026775303437726484 -0.025133914312894631
leaf_weight=55.953065887093544 84.534851431846619 98.014113903045654 444.63653323054314 184.27700679004192 87.833909809589386 224.26985818147659 102.95333218574524 420.26543888449669 126.61381411552429 256.34629738330841 119.36986508965492 105.70281659066677 101.58837559819221 723.99581390619278 291.80864921212196 204.58304762840271 85.008415758609772 156.79526618123055 99.008559390902519 99.648738354444504 130.78237429261208 83.452704787254333 60.476839408278465 266.45660987496376 46.165579423308372
leaf_count=212 236 256 1499 555 217 606 319 1261 378 726 323 361 264 2298 819 580 217 418 422 256 323 207 224 1001 188
internal_value=0.000223172 0.0154193 -0.0114341 -0.00779124 0.0295299 0.00815267 -0.00293547 0.000353025 -0.00854186 0.00511575 0.0131736 -0.0109475 0.0233695 -0.0119526 0.009801 0.00122965 0.0167938 0.0161775 -0.0259108 0.0293928 0.0372323 0.0338686 -0.023574 -0.024993 -0.0318004
internal_weight=4660.54 2024.04 2636.51 2108.44 686.329 1337.71 834.11 523.219 310.891 837.273 500.435 1274.34 384.26 1168.63 376.344 460.929 186.597 381.065 528.061 197.663 302.069 214.235 382.887 322.41 145.174
internal_count=14166 5448 8718 6671 1740 3708 2513 1580 933 2361 1347 4158 993 3797 1055 1306 481 1024 2047 512 747 530 1437 1213 610
is_linear=0
shrinkage=0.05


Tree=27
num_leaves=27
num_cat=0
split_feature=27 3 3 5 30 8 4 27 5 24 23 15 15 5 14 16 15 14 37 14 36 31 12 3 12 31
split_gain=277.469 66.3409 60.8301 13.9576 9.47805 9.20233 7.0823 4.33549 5.38149 3.65077 3.51805 3.10235 4.32845 2.62668 2.33495 2.21019 2.20064 2.0425 3.32542 2.19734 1.99959 1.95548 1.80859 1.60628 1.63094 0.974354
threshold=1.7762904167175295 0.28777037560939794 0.63492703437805187 0.34188134968280798 0.23890746384859088 0.093414314091205611 0.2713709175586701 2.1470853090286259 0.20263445377349856 2.7763006687164311 0.31305518746376043 0.016649282537400726 0.015345693100243809 0.20470850169658664 0.017244824208319191 0.017773465253412727 0.017645528540015224 0.020672725513577465 0.96077367663383495 0.026328364387154583 0.96107745170593273 0.041275588795542724 0.056858830153942115 0.23837935924530032 0.060335917398333556 0.0052334356587380179
decision_type=2 2 2 2 2 2 2 2 2 2 2 2 2 2 2 2 2 2 2 2 2 2 2 2 2 2
left_child=1 4 6 11 23 22 7 8 -2 20 15 12 -3 -12 -11 -8 -13 18 -7 -19 -5 25 -4 -1 -25 -6
right_child=2 3 5 9 21 17 10 -9 -10 14 13 16 -14 -15 -16 -17 -18 19 -20 -21 -22 -23 -24 24 -26 -27
leaf_value=-0.010921082321367126 0.019862564550630332 -0.0010866676406392974 0.03038734313961854 -0.013470607479509414 -0.02983077542517179 0.023076960219348144 0.0050870274136419992 5.1847451353208125e-05 0.0093658508859611155 -0.0085390857660134264 0.0029961416238096579 -0.011831633523170505 0.009585896088462189 0.015861765998254323 7.1083582344415444e-05 -0.0025730153526150562 -0.002844475933606642 0.015226106734394177 0.037376628987821112 0.026258055513589923 -0.0050107052975671192 -0.032907793610161183 0.042984945297893033 -0.014972691374983624 -0.023462836173279399 -0.020922742811381626
leaf_weight=108.68808603286743 210.02638003230095 616.84869137406349 83.217678159475327 488.90134356915951 78.171471014618874 184.74166390299797 186.84243348240852 71.71719217300415 332.85116094350815 207.44122706353664 80.814837694168091 90.408035457134247 111.45531366765499 90.537836521863937 117.5534892231226 184.64949595928192 328.85911613702774 141.51506781578064 66.156262367963791 88.576976895332336 94.199265122413635 160.90183252096176 94.862025856971741 162.27154634892941 128.76203379034996 134.58983047306538
leaf_count=350 635 1843 258 1492 251 558 553 205 987 637 235 262 343 277 369 535 983 416 209 271 287 548 306 510 397 449
internal_value=-3.42511e-05 -0.0098307 0.0152076 -0.00511602 -0.0223187 0.0273445 0.00826618 0.0119615 0.0134873 -0.00975052 0.00402926 -0.00142422 0.000517751 0.00996581 -0.00535258 0.00121407 -0.00485375 0.0235571 0.0270138 0.0196291 -0.0121522 -0.0281553 0.0373396 -0.0167718 -0.0188485 -0.0243752
internal_weight=4645.56 2829.05 1816.51 2055.67 773.385 659.07 1157.44 614.595 542.878 908.095 542.845 1147.57 728.304 171.353 324.995 371.492 419.267 480.99 250.898 230.092 583.101 373.663 178.08 399.722 291.034 212.761
internal_count=14166 8721 5445 6216 2505 2018 3427 1827 1622 2785 1600 3431 2186 512 1006 1088 1245 1454 767 687 1779 1248 564 1257 907 700
is_linear=0
shrinkage=0.05


Tree=28
num_leaves=21
num_cat=0
split_feature=4 7 34 8 12 37 4 36 35 35 12 8 22 16 31 25 1 28 5 22
split_gain=59.5187 15.0017 7.76338 7.47779 5.86827 6.38849 5.07235 4.94751 4.33746 4.14923 3.7565 4.68118 3.59345 3.85903 3.35842 3.3454 3.69134 2.88675 4.14333 1.64207
threshold=0.26631206274032598 0.22805046290159228 0.9036119580268861 0.17050310969352725 0.060335917398333556 0.95834505558013927 0.32414995133876806 0.12805047631263736 0.29388423264026647 0.34310141205787664 0.049376873299479491 0.34904120862483984 0.43893910944461828 0.015583979897201063 0.00022940039343666288 0.70833334326744091 0.21980676054954532 0.22967518866062167 0.061087446287274368 0.44370236992836004
decision_type=2 2 2 2 2 2 2 2 2 2 2 2 2 2 2 2 2 2 2 2
left_child=1 7 6 -3 5 -5 10 17 12 -6 -2 -12 14 -14 -4 16 -9 18 -1 -17
right_child=2 3 8 4 9 -7 -8 15 -10 -11 11 -13 13 -15 -16 19 -18 -19 -20 -21
leaf_value=-0.026732663637787368 -0.0076148694332127623 0.0082516581032886747 0.0057173652441722738 0.0018580256709227129 -0.0060834638021607735 -0.0087724221536278849 0.011184889834505055 -0.0096436411793193698 -0.0041669471636381784 -0.017078953900297161 -0.0062411772296107684 0.0028190926475175227 0.0078398211741947613 -0.00080536525925796855 0.011778296409513838 -0.010046964390351888 -0.022035675573124303 -0.029875657411552362 -0.0078730852805709642 0
leaf_weight=51.91924124956131 128.05244275927544 113.74085891246796 441.13743054866791 381.98605170845985 267.08265650272369 221.45658601820469 120.95000758767128 205.21862527728081 84.569460809230804 135.71028853952885 166.81833902001381 925.45977157354355 271.83614709973335 236.21357056498528 534.83499965071678 76.547907024621964 94.810544580221176 59.787624359130859 79.281297028064728 94.525449365377426
leaf_count=225 373 363 1263 1153 826 689 330 699 270 444 497 2619 786 698 1525 260 324 211 296 315
internal_value=-0.00015247 -0.00735251 0.0042489 -0.00379116 -0.00518069 -0.00200587 0.00143138 -0.0133316 0.00664097 -0.00986667 0.000440022 0.00141026 0.00727491 0.00377431 0.0090687 -0.0104492 -0.0136729 -0.0202653 -0.0155993 -0.00462632
internal_weight=4691.94 1782.07 2909.87 1119.98 1006.24 603.443 1341.28 662.091 1568.59 402.793 1220.33 1092.28 1484.02 508.05 975.972 471.103 300.029 190.988 131.201 171.073
internal_count=14166 5805 8361 3475 3112 1842 3819 2330 4542 1270 3489 3116 4272 1484 2788 1598 1023 732 521 575
is_linear=0
shrinkage=0.05


Tree=29
num_leaves=24
num_cat=0
split_feature=34 6 8 5 5 31 2 16 16 6 12 30 35 31 35 16 15 31 6 16 37 27 16
split_gain=298.301 80.6636 46.8404 12.7306 8.46328 7.15255 6.61364 7.88975 7.20385 5.6488 5.07498 5.06538 4.31797 3.8868 3.57634 3.0285 3.02597 2.45669 1.85846 2.76892 1.55949 1.14199 0.309071
threshold=0.9036119580268861 0.26560471951961523 0.17050310969352725 0.62696540355682384 0.27894055843353277 -0.048949167132377618 0.43961352109909063 0.014282147865742447 0.013311129063367845 0.25220720469951635 0.062033522874116905 -0.1632590517401695 0.3250312358140946 -0.00047024986997712398 0.2150768116116524 0.019939759746193889 0.020708880387246612 0.070417255163192763 0.78432577848434459 0.016385408118367199 0.94867834448814403 2.2309498786926274 0.012306341901421549
decision_type=2 2 2 2 2 2 2 2 2 2 2 2 2 2 2 2 2 2 2 2 2 2 2
left_child=1 3 18 9 11 -6 7 8 -3 12 -9 -4 -1 -13 15 -8 -7 20 19 21 -5 -2 -20
right_child=2 6 4 17 5 16 14 10 -10 -11 -12 13 -14 -15 -16 -17 -18 -19 22 -21 -22 -23 -24
leaf_value=0.012749463258679631 -0.012588330241270325 0.006306896307728552 0.002800362738310747 0.024867025424961903 0.0078400178534576963 -0.0075297353922868489 0.016367754054412483 0.005277970866401401 0.023051839616632791 0.033843293188536544 -0.0036400324198273683 -0.0076680771154669022 0.024404961062699557 -0.013670911723388217 0.0017499955864934823 0.0049845736670794793 0.0021814269790454656 0.042424815120099768 -0.033700027827523883 -0.03129503670314325 0.035832564645046465 -0.022099579853458229 -0.024223390436585807
leaf_weight=180.0418766438961 56.542855277657509 279.39713755249977 63.314846575260162 87.193919241428375 110.33408716320992 487.38237823545933 289.32920330762863 340.94103173911572 86.307830780744553 80.053146630525589 296.50579026341438 467.37805408239365 169.3029228746891 743.39382800459862 78.018385171890259 82.509239107370377 91.266235172748566 102.78245982527733 96.37949974834919 90.420692160725594 112.67439928650856 211.25900416076183 45.170461475849152
leaf_count=469 195 791 218 213 325 1469 778 977 245 207 858 1518 429 2453 204 224 272 254 422 350 280 827 188
internal_value=0.000193526 0.0136451 -0.0117311 0.0271856 -0.00822901 -0.00370496 0.00679899 0.00449595 0.0103531 0.0214517 0.00109101 -0.0106534 0.0184963 -0.0113785 0.0118684 0.0139191 -0.00595433 0.0351896 -0.0254149 -0.0231188 0.0312475 -0.0202118 -0.0309478
internal_weight=4647.9 2185.06 2462.84 732.049 1963.07 688.983 1453.01 1003.15 365.705 429.398 637.447 1274.09 349.345 1210.77 449.857 371.838 578.649 302.651 499.773 358.223 199.868 267.802 141.55
internal_count=14166 5929 8237 1852 6255 2066 4077 2871 1036 1105 1835 4189 898 3971 1206 1002 1741 747 1982 1372 493 1022 610
is_linear=0
shrinkage=0.05


Tree=30
num_leaves=22
num_cat=0
split_feature=2 32 35 30 5 7 14 14 5 38 37 14 16 14 5 25 5 5 36 37 13
split_gain=259.977 76.4368 36.562 18.5271 7.58627 6.50775 5.98195 5.11859 4.24512 3.24969 3.04501 4.25042 2.84168 3.33566 2.8288 2.66603 2.53779 4.93329 1.80242 2.13324 1.20962
threshold=0.25320513546466833 -0.073135793209075914 0.46730233728885656 0.23890746384859088 0.061087446287274368 0.27210934460163122 0.013496158178895714 0.024300912395119671 0.34542417526245123 0.98430448770523082 0.96434906125068676 0.026328364387154583 0.02529903128743172 0.012348381802439691 0.14914251118898394 0.45833332836627966 0.23952130228281024 0.22857172042131427 0.2778428196907044 0.94951456785202037 0.038434404879808433
decision_type=2 2 2 2 2 2 2 2 2 2 2 2 2 2 2 2 2 2 2 2 2
left_child=2 3 5 12 -4 6 -1 8 15 -10 11 -6 13 -2 -8 -3 17 -7 -5 -20 -9
right_child=1 7 4 18 10 16 14 20 9 -11 -12 -13 -14 -15 -16 -17 -18 -19 19 -21 -22
leaf_value=0.025651362210835107 -0.008039362106266967 0.0013222941878114924 0.04308193085453027 -0.030248188616540769 0.019270589834590388 0.0056903476846864405 0.021583124862903452 0.0024441412006475814 -0.011972002072819881 0.00020383322660112724 0.034165180973566647 0.033799198144495689 -0.0039722896087745754 -0.015965898343998319 0.010618287998892039 -0.0033073651720186871 -0.00037160743526184044 0.020041911033407429 -0.029144890277804304 -0.015651033859692267 0.01242526903532325
leaf_weight=102.43232581019402 178.96391454339027 626.58820907771587 69.552347183227539 219.45084342360497 282.29064327478409 340.55228969454765 74.102243661880493 65.438772797584534 170.63057473301888 74.732368960976601 78.855044662952423 70.545654624700546 76.057062938809395 780.76383504271507 474.75222459435463 607.78853756189346 96.837261348962784 75.383012264966965 65.046557724475861 82.156441882252693 72.140201702713966
leaf_count=315 568 1884 229 769 839 996 222 199 516 231 246 220 242 2418 1398 1804 282 234 213 272 226
internal_value=3.14414e-05 -0.0087095 0.0158946 -0.0172513 0.0272151 0.0109889 0.0143404 -0.00128404 -0.00215578 -0.00816894 0.024554 0.0222899 -0.0137708 -0.0145188 0.0121625 -0.000937452 0.0066736 0.00837236 -0.0269836 -0.0218615 0.00788489
internal_weight=4685.06 3019.76 1665.3 1402.44 501.244 1164.06 651.287 1617.32 1479.74 245.363 431.691 352.836 1035.78 959.728 548.854 1234.38 512.773 415.935 366.654 147.203 137.579
internal_count=14323 9342 4981 4482 1534 3447 1935 4860 4435 747 1305 1059 3228 2986 1620 3688 1512 1230 1254 485 425
is_linear=0
shrinkage=0.05


Tree=31
num_leaves=21
num_cat=0
split_feature=4 5 33 4 12 16 12 33 30 7 16 12 34 12 16 12 33 12 32 8
split_gain=46.0923 14.751 10.2337 7.98536 7.38453 6.91237 7.51454 6.09815 7.94609 7.2991 6.42417 5.40678 5.02319 4.39573 3.9446 3.80132 2.72845 2.37933 1.13098 0.0555543
threshold=0.26631206274032598 0.63898417353630077 0.37409111857414251 0.29895432293415075 0.071440167725086226 0.011102744378149511 0.052738446742296226 0.028538051992654804 -0.030366151593625542 0.29806324839591986 0.015252221841365101 0.048880534246563918 0.76293295621871959 0.049376873299479491 0.01614928059279919 0.065563090145587935 0.096581626683473601 0.063460983335971846 0.02790577802807093 0.72203108668327343
decision_type=2 2 2 2 2 2 2 2 2 2 2 2 2 2 2 2 2 2 2 2
left_child=1 2 4 7 11 -5 13 9 15 12 -11 -1 -2 -7 -8 -9 -6 19 -10 -3
right_child=3 17 -4 5 16 6 14 8 18 10 -12 -13 -14 -15 -16 -17 -18 -19 -20 -21
leaf_value=-0.010809755831605089 0.004703248319971951 -0.019104157213510959 -0.020270461672788311 -0.0074317324004637489 -0.021903646873260463 0.0071393490047415914 0.00021772313810919527 0.0050254586287067126 0.018188908359850296 -0.018956935339740619 -0.0013265857310558607 -0.00084817909811401638 -0.0033074220774453318 0.020060472905716477 0.0075657150110930403 -0.0051140565646088376 -0.0081716352269257664 -0.0099721568629073595 0.0090491983846908344 -0.025433118361186991
leaf_weight=155.57079927623272 484.77879920601845 85.176259070634842 96.256853803992271 77.176378458738327 59.72317910194397 119.87799528241158 258.10125058889389 296.3339791893959 102.52628457546234 90.933279290795326 126.7437364757061 1139.2028215527534 324.27374762296677 172.07135286927223 689.41397914290428 131.86422185599804 118.82498674094677 70.194286420941353 75.417709648609161 64.244907036423683
leaf_count=514 1376 261 399 223 185 346 740 884 286 269 364 3657 954 471 1933 399 414 219 217 212
internal_value=0.000138042 -0.0061869 -0.00446427 0.00398367 -0.00340811 0.00688613 0.00780045 0.00162662 0.00560584 -0.000699816 -0.00883271 -0.0020681 0.00146158 0.0148617 0.00559168 0.00184234 -0.0129529 -0.0183468 0.0144915 -0.0220678
internal_weight=4738.71 1789.19 1569.58 2949.51 1473.32 1316.64 1239.46 1632.87 606.142 1026.73 217.677 1294.77 809.053 291.949 947.515 428.198 178.548 219.615 177.944 149.421
internal_count=14323 5861 5169 8462 4770 3713 3490 4749 1786 2963 633 4171 2330 817 2673 1283 599 692 503 473
is_linear=0
shrinkage=0.05


Tree=32
num_leaves=23
num_cat=0
split_feature=5 5 29 5 35 33 7 15 12 27 3 16 7 7 16 35 22 7 38 35 35 16
split_gain=280.469 62.3234 54.5866 19.984 14.0413 7.40394 6.663 6.1913 5.65662 5.0208 6.71725 4.9701 4.73251 10.0816 4.91884 3.09249 3.0233 2.53573 0.638318 1.84723 0.569718 1.29011
threshold=0.36429993808269506 0.16326541453599933 -1.1683197021484373 0.29542163014411932 0.24596814066171649 -0.21133960038423535 0.29197141528129583 0.015491309575736524 0.053769646212458617 1.8596159219741824 0.6116265356540681 0.017812770791351799 0.29806324839591986 0.31898008286952978 0.02038294076919556 0.46890811622142797 0.44370236992836004 0.23724825680255893 0.36786819994449621 0.49085932970047003 0.72028967738151561 0.012357032857835295
decision_type=2 2 2 2 2 2 2 2 2 2 2 2 2 2 2 2 2 2 2 2 2 2
left_child=1 15 18 9 12 16 7 -5 -8 11 -11 -3 14 -14 -4 17 -6 -1 -2 -20 21 -17
right_child=2 3 4 6 5 -7 8 -9 -10 10 -12 -13 13 -15 -16 20 -18 -19 19 -21 -22 -23
leaf_value=-0.010918860709179645 0.040243834809794897 -0.010633972942517195 0.0077394604373572694 0.0010746581211509736 0.021717893350300724 0.029624058021350042 -0.0099180570840134968 0.018196998239727116 0.00018579069389022254 -0.014432821168663554 -0.00071524957535978179 -0.0024486948342741692 0.018408309170208737 0.0032340330785698003 -0.0037817144726431454 -0.022524631372749213 0.0097470746507244202 -0.024623583701055874 0.036695980649658025 0.025188322299293655 -0.035436627846512837 -0.030523446688853206
leaf_weight=68.788533985614777 91.651546508073807 394.66200552880764 484.16905131936073 165.42376045882702 95.008753538131714 132.39672049880028 198.63538680970669 79.588139548897743 439.85259614884853 664.62248197197914 107.60637925565243 368.40159104764462 280.30844634771347 187.13098773360252 111.02414986491203 147.35309459269047 150.56562671065331 92.622269943356514 130.9125936627388 82.905386835336685 49.891431763768196 159.75929167866707
leaf_count=256 227 1244 1313 497 240 345 588 237 1295 2263 369 1146 759 502 309 601 384 344 322 205 234 643
internal_value=-0.000176467 -0.00961539 0.0156854 -0.006227 0.0115807 0.0199054 -0.000206502 0.00676413 -0.00292372 -0.00967408 -0.0125554 -0.00671911 0.00858815 0.0123969 0.00554702 -0.0253553 0.0145147 -0.0189892 0.034911 0.0324198 -0.0281331 -0.0268097
internal_weight=4683.28 2937.21 1746.07 2418.79 1440.6 377.971 883.5 245.012 638.488 1535.29 772.229 763.064 1062.63 467.439 595.193 518.415 245.574 161.411 305.47 213.818 357.004 307.112
internal_count=14323 9717 4606 7639 3852 969 2617 734 1883 5022 2632 2390 2883 1261 1622 2078 624 600 754 527 1478 1244
is_linear=0
shrinkage=0.05


Tree=33
num_leaves=23
num_cat=0
split_feature=3 3 3 30 5 5 8 15 14 22 5 13 37 14 37 24 25 16 10 31 16 22
split_gain=236.717 77.4014 29.0713 14.2828 7.55877 6.70867 7.44866 4.84795 4.82067 4.30465 4.09056 3.96757 3.5621 6.43924 3.50338 3.5668 3.25286 3.19295 1.67623 2.20344 1.31056 0.265733
threshold=0.50890913605690014 0.34305419027805334 0.6600731909275056 0.23890746384859088 0.061087446287274368 0.34542417526245123 0.36429993808269506 0.0095466580241918581 0.013496158178895714 0.42148438096046453 0.16934813559055331 0.033099882304668433 0.95042604207992565 0.020413370802998546 0.96434906125068676 2.6429229974746709 0.79166665673255932 0.025060490705072883 0.17786561697721484 0.0085653904825449007 0.015300713479518892 0.45003671944141393
decision_type=2 2 2 2 2 2 2 2 2 2 2 2 2 2 2 2 2 2 2 2 2 2
left_child=1 3 7 9 -4 12 -7 -2 20 -1 -10 -8 16 -14 15 -6 -3 -11 21 -20 -9 -5
right_child=2 5 4 18 14 6 11 8 10 17 -12 -13 13 -15 -16 -17 -18 -19 19 -21 -22 -23
leaf_value=-0.024155105731092655 0.0010894868175864729 0.00012917919468349336 0.041060478364525511 -0.032903689981685122 0.027781579508324286 -0.020001357837918177 -0.0094216114879506589 0.014919465217266557 0.017828220628729293 -0.013801567726278358 0.0084203943804979035 0.0017953500445489553 0.0011024158826508075 0.017866784493147558 0.03249582536975322 0.017006086334424988 -0.0060161397364400012 -0.0015782047115742979 -0.028315549459672663 -0.014944374431612499 0.026316606559517754 -0.02587010466425374
leaf_weight=101.73008424043655 119.90996509790421 677.4090343862772 69.103228658437729 103.48843388259411 128.04706329107285 90.193058952689171 149.0969403386116 70.046583741903305 152.74429032206535 700.27413906157017 597.90377250313759 160.15305308997631 429.44204604625702 66.414328828454018 85.779743164777756 272.86047750711441 310.10602267086506 63.042778536677361 70.863625034689903 80.956256166100502 68.279636651277542 103.5497510433197
leaf_count=312 343 2033 229 370 392 264 455 210 457 2218 1755 504 1284 208 267 807 915 205 232 277 211 375
internal_value=1.21849e-05 -0.00796995 0.0158745 -0.0177579 0.0250889 -0.00159111 -0.00733855 0.0107636 0.0120391 -0.0142008 0.0103786 -0.00353839 -2.46373e-05 0.00341392 0.02273 0.0205403 -0.00177738 -0.0128265 -0.0262312 -0.0214221 0.0207998 -0.0295771
internal_weight=4671.39 3106.72 1564.67 1223.91 555.791 1882.81 399.443 1008.88 888.974 865.047 750.648 309.25 1483.37 495.856 486.687 400.908 987.515 763.317 358.858 151.82 138.326 207.038
internal_count=14323 9652 4671 3989 1695 5663 1223 2976 2633 2735 2212 959 4440 1492 1466 1199 2948 2423 1254 509 421 745
is_linear=0
shrinkage=0.05


Tree=34
num_leaves=17
num_cat=0
split_feature=7 5 33 7 19 12 12 37 2 15 35 35 13 15 12 25
split_gain=41.2401 12.5883 9.23328 5.65594 6.43779 4.87034 5.32642 4.72857 6.9436 4.42632 4.16236 5.94731 4.18321 2.1739 1.66774 1.15467
threshold=0.27210934460163122 0.63492703437805187 0.37409111857414251 0.30722039937973028 0.51151230931282055 0.071440167725086226 0.048880534246563918 0.94951456785202037 0.31754031777381903 0.020708880387246612 0.013736263848841192 0.029075063765048984 0.034208020195364959 0.014849285129457714 0.063460983335971846 0.45833332836627966
decision_type=2 2 2 2 2 2 2 2 2 2 2 2 2 2 2 2
left_child=1 2 5 4 7 6 -1 9 -9 -2 -5 -12 -13 -7 15 -3
right_child=3 14 -4 10 -6 13 -8 8 -10 -11 11 12 -14 -15 -16 -17
leaf_value=-0.010730421317132369 0.0045680200628253403 -0.024464435839501811 -0.019446943345216138 -0.0041517850561663535 0.01315781341401329 -0.0058803322121684905 -0.00091168827926526967 0.00397953458679074 -0.0061277647093959369 -0.0058669566120228694 0.020184582224181041 0.0019529517096861797 0.0086059477357761233 -0.018226227449168058 -0.01002936583316112 -0.013946626412967317
leaf_weight=159.20423540472984 873.77414374053478 87.400612756609917 94.58823698759079 83.993198841810226 118.93765799701214 90.254979863762856 1088.3751240521669 283.05653363466263 417.52740706503391 112.58537270128727 82.788919806480408 391.12203900516033 643.92814430594444 70.447042912244797 72.60485452413559 63.502733573317528
leaf_count=528 2517 283 399 239 335 305 3512 841 1224 331 221 1123 1794 240 229 202
internal_value=0.000169202 -0.00598398 -0.00431188 0.00370975 0.00192021 -0.00327104 -0.00218849 0.00110942 -0.00200853 0.00334925 0.00637601 0.00719092 0.00611823 -0.0114872 -0.0170809 -0.0202642
internal_weight=4734.09 1726.38 1502.87 3007.71 1805.88 1408.28 1247.58 1686.94 700.584 986.36 1201.83 1117.84 1035.05 160.702 223.508 150.903
internal_count=14323 5698 4984 8625 5248 4585 4040 4913 2065 2848 3377 3138 2917 545 714 485
is_linear=0
shrinkage=0.05


Tree=35
num_leaves=22
num_cat=0
split_feature=5 5 29 5 30 31 32 4 7 31 12 32 27 3 13 14 9 13 14 16 16
split_gain=253.261 58.1423 48.8413 18.2463 10.864 7.68025 6.68998 6.4762 6.28882 5.66672 5.49924 4.68938 4.62592 6.39896 4.81344 4.06974 2.49067 2.13538 0.84383 0.491192 2.47613
threshold=0.36429993808269506 0.16326541453599933 -1.1683197021484373 0.29542163014411932 0.14520172029733661 -0.030621544457972046 0.018017361871898178 0.28129450976848608 0.29197141528129583 -0.040675282478332513 0.053174464032053954 -0.10284824296832083 1.8596159219741824 0.6116265356540681 0.027800094336271289 0.016421979293227199 0.35871647298336035 0.033099882304668433 0.012570499908179046 0.0097338482737541216 0.012357032857835295
decision_type=2 2 2 2 2 2 2 2 2 2 2 2 2 2 2 2 2 2 2 2 2
left_child=1 16 18 12 7 9 8 11 -5 -6 -9 -4 14 -14 -3 -7 17 -1 -2 -18 -21
right_child=2 3 4 6 5 15 -8 10 -10 -11 -12 -13 13 -15 -16 -17 19 -19 -20 20 -22
leaf_value=-0.024693883910668121 0.029074494333984558 -0.01428434502091399 -0.010721250341980858 0.0058666496423390412 0.013926527537656162 0.020243594769992566 0.014650561032118415 0 -0.0041269907754733267 -0.0050990489920181153 0.013176414741497179 0.0045416742478795267 -0.013889462727179933 -0.00047485271713510819 -0.0043275056506105634 0.01190377210926867 -0.031903264631518886 -0.01172295613125058 0.036574458446905225 -0.017874784988624562 -0.029133525161491883
leaf_weight=77.22999407351017 149.05753722786903 156.84319680929184 79.826656669378281 211.06440770626068 77.616247534751892 411.59734192490578 69.005669146776199 111.98371779918671 603.33570463955402 75.604774743318558 293.50866162776947 132.5053288936615 658.89131586253643 107.2844026684761 603.32626800239086 262.65174189209938 89.431297048926353 74.677581116557121 156.04152566194534 94.347716838121414 172.75130617618561
leaf_count=289 369 502 219 629 208 1059 206 309 1782 200 801 373 2263 369 1888 683 391 281 385 402 715
internal_value=-0.000189123 -0.00921325 0.0148396 -0.00595495 0.0109689 0.0147344 -0.00020653 0.00587746 -0.00150429 0.00438994 0.0095847 -0.0010907 -0.00926445 -0.0120452 -0.00642277 0.0170431 -0.0245858 -0.0185408 0.0330457 -0.0270619 -0.0252908
internal_weight=4668.58 2918.19 1750.39 2409.75 1445.29 827.47 883.406 617.824 814.4 153.221 405.492 212.332 1526.35 766.176 760.169 674.249 508.438 151.908 305.099 356.53 267.099
internal_count=14323 9717 4606 7639 3852 2150 2617 1702 2411 408 1110 592 5022 2632 2390 1742 2078 570 754 1508 1117
is_linear=0
shrinkage=0.05


Tree=36
num_leaves=23
num_cat=0
split_feature=3 3 3 30 5 5 11 35 15 14 22 5 14 16 37 24 16 34 13 22 33 16
split_gain=213.121 71.5238 26.0783 13.5724 7.08079 6.21883 4.70204 4.84931 4.52415 4.46953 4.09013 3.75233 3.37458 4.91588 3.26691 3.98056 3.04285 2.87501 2.21035 1.62017 1.44457 1.19535
threshold=0.50890913605690014 0.34305419027805334 0.6600731909275056 0.23890746384859088 0.061087446287274368 0.34542417526245123 0.022058823145926002 0.014724661130458118 0.0095466580241918581 0.013496158178895714 0.42148438096046453 0.16934813559055331 0.021118121221661571 0.01614928059279919 0.96586552262306224 2.6429229974746709 0.025060490705072883 1.2681635022163393 0.032663084566593177 0.44370236992836004 -0.27176523208618159 0.015300713479518892
decision_type=2 2 2 2 2 2 2 2 2 2 2 2 2 2 2 2 2 2 2 2 2 2
left_child=1 3 8 10 -4 12 18 -8 -2 21 -1 -11 17 -14 15 -6 -12 -3 -7 -5 -21 -10
right_child=2 5 4 19 14 6 7 -9 9 11 16 -13 13 -15 -16 -17 -18 -19 -20 20 -22 -23
